<?xml version="1.0"?>
<opencv_storage>
<my_svm type_id="opencv-ml-svm">
  <svm_type>C_SVC</svm_type>
  <kernel><type>RBF</type>
    <gamma>1.</gamma></kernel>
  <C>1.</C>
  <term_criteria><epsilon>2.2204460492503131e-016</epsilon>
    <iterations>100</iterations></term_criteria>
  <var_all>12</var_all>
  <var_count>12</var_count>
  <class_count>2</class_count>
  <class_labels type_id="opencv-matrix">
    <rows>1</rows>
    <cols>2</cols>
    <dt>i</dt>
    <data>
      0 1</data></class_labels>
  <sv_total>200</sv_total>
  <support_vectors>
    <_>
      0. 0. 0. 5.01960814e-001 5.05882382e-001 4.98039216e-001
      4.98039216e-001 4.98039216e-001 4.98039216e-001 5.05882382e-001
      5.01960814e-001 5.05882382e-001</_>
    <_>
      1.25490203e-001 1.88235298e-001 4.11764711e-001 5.13725519e-001
      5.13725519e-001 5.05882382e-001 5.09803951e-001 5.05882382e-001
      5.01960814e-001 4.98039216e-001 4.98039216e-001 5.01960814e-001</_>
    <_>
      1.37254909e-001 1.76470593e-001 4.11764711e-001 4.98039216e-001
      5.01960814e-001 5.01960814e-001 4.94117647e-001 4.98039216e-001
      4.98039216e-001 4.98039216e-001 4.98039216e-001 4.98039216e-001</_>
    <_>
      1.25490203e-001 1.88235298e-001 4.23529416e-001 5.05882382e-001
      5.01960814e-001 5.01960814e-001 5.01960814e-001 5.01960814e-001
      4.98039216e-001 5.01960814e-001 5.01960814e-001 4.98039216e-001</_>
    <_>
      1.52941182e-001 2.00000003e-001 4.39215690e-001 5.09803951e-001
      5.13725519e-001 5.05882382e-001 5.05882382e-001 5.09803951e-001
      5.09803951e-001 5.01960814e-001 5.01960814e-001 5.01960814e-001</_>
    <_>
      1.29411772e-001 1.72549024e-001 3.72549027e-001 5.09803951e-001
      5.05882382e-001 5.05882382e-001 5.01960814e-001 5.05882382e-001
      5.01960814e-001 5.01960814e-001 5.01960814e-001 5.01960814e-001</_>
    <_>
      1.29411772e-001 1.96078435e-001 4.03921574e-001 5.05882382e-001
      5.05882382e-001 5.05882382e-001 5.01960814e-001 4.98039216e-001
      5.01960814e-001 5.01960814e-001 5.01960814e-001 5.01960814e-001</_>
    <_>
      1.64705887e-001 2.31372550e-001 4.47058827e-001 5.09803951e-001
      5.09803951e-001 5.01960814e-001 5.09803951e-001 5.09803951e-001
      5.01960814e-001 5.01960814e-001 5.05882382e-001 5.01960814e-001</_>
    <_>
      2.70588249e-001 3.72549027e-001 8.11764717e-001 5.05882382e-001
      5.05882382e-001 5.05882382e-001 5.01960814e-001 5.01960814e-001
      5.01960814e-001 5.01960814e-001 5.01960814e-001 5.01960814e-001</_>
    <_>
      1.37254909e-001 1.88235298e-001 4.07843143e-001 5.05882382e-001
      5.05882382e-001 5.01960814e-001 5.17647088e-001 5.09803951e-001
      5.13725519e-001 5.01960814e-001 5.01960814e-001 5.01960814e-001</_>
    <_>
      1.72549024e-001 2.15686277e-001 4.47058827e-001 5.05882382e-001
      5.01960814e-001 5.01960814e-001 5.05882382e-001 5.05882382e-001
      5.05882382e-001 5.01960814e-001 5.01960814e-001 5.01960814e-001</_>
    <_>
      1.52941182e-001 1.92156866e-001 4.23529416e-001 5.05882382e-001
      5.05882382e-001 5.05882382e-001 5.01960814e-001 5.01960814e-001
      5.05882382e-001 5.05882382e-001 5.05882382e-001 5.01960814e-001</_>
    <_>
      1.33333340e-001 1.84313729e-001 4.11764711e-001 5.09803951e-001
      5.09803951e-001 5.05882382e-001 5.01960814e-001 5.05882382e-001
      4.98039216e-001 4.98039216e-001 5.01960814e-001 4.98039216e-001</_>
    <_>
      1.52941182e-001 1.80392161e-001 4.03921574e-001 5.17647088e-001
      5.09803951e-001 5.09803951e-001 5.13725519e-001 5.09803951e-001
      5.09803951e-001 5.01960814e-001 5.01960814e-001 5.01960814e-001</_>
    <_>
      1.68627456e-001 1.96078435e-001 4.23529416e-001 5.01960814e-001
      5.05882382e-001 5.05882382e-001 5.09803951e-001 5.05882382e-001
      5.05882382e-001 5.01960814e-001 5.01960814e-001 5.01960814e-001</_>
    <_>
      1.80392161e-001 2.31372550e-001 4.66666669e-001 4.98039216e-001
      5.01960814e-001 5.01960814e-001 4.98039216e-001 5.05882382e-001
      4.98039216e-001 5.01960814e-001 5.05882382e-001 5.01960814e-001</_>
    <_>
      1.52941182e-001 1.92156866e-001 4.39215690e-001 5.05882382e-001
      5.05882382e-001 5.05882382e-001 4.98039216e-001 4.98039216e-001
      4.98039216e-001 5.05882382e-001 5.05882382e-001 5.05882382e-001</_>
    <_>
      1.37254909e-001 2.00000003e-001 4.27450985e-001 4.98039216e-001
      4.94117647e-001 4.94117647e-001 5.05882382e-001 5.09803951e-001
      5.05882382e-001 5.01960814e-001 5.01960814e-001 5.01960814e-001</_>
    <_>
      1.72549024e-001 1.92156866e-001 4.11764711e-001 5.01960814e-001
      5.05882382e-001 5.01960814e-001 5.05882382e-001 5.01960814e-001
      5.05882382e-001 5.01960814e-001 4.98039216e-001 5.01960814e-001</_>
    <_>
      1.52941182e-001 1.92156866e-001 4.31372553e-001 5.01960814e-001
      5.01960814e-001 4.98039216e-001 5.05882382e-001 5.05882382e-001
      5.01960814e-001 5.01960814e-001 5.01960814e-001 5.01960814e-001</_>
    <_>
      1.56862751e-001 1.96078435e-001 4.39215690e-001 4.94117647e-001
      4.94117647e-001 4.98039216e-001 5.01960814e-001 5.01960814e-001
      5.05882382e-001 5.05882382e-001 5.05882382e-001 5.05882382e-001</_>
    <_>
      1.64705887e-001 1.80392161e-001 4.15686280e-001 5.09803951e-001
      5.09803951e-001 5.09803951e-001 5.01960814e-001 5.01960814e-001
      5.01960814e-001 4.98039216e-001 4.98039216e-001 5.01960814e-001</_>
    <_>
      1.72549024e-001 1.88235298e-001 4.19607848e-001 5.05882382e-001
      5.09803951e-001 5.01960814e-001 5.01960814e-001 5.01960814e-001
      4.98039216e-001 5.01960814e-001 5.01960814e-001 5.01960814e-001</_>
    <_>
      1.64705887e-001 1.84313729e-001 4.27450985e-001 5.09803951e-001
      5.09803951e-001 5.09803951e-001 5.05882382e-001 5.05882382e-001
      5.01960814e-001 5.01960814e-001 5.01960814e-001 5.01960814e-001</_>
    <_>
      1.41176477e-001 1.88235298e-001 4.35294122e-001 5.01960814e-001
      4.98039216e-001 5.01960814e-001 5.01960814e-001 5.01960814e-001
      5.05882382e-001 5.01960814e-001 5.01960814e-001 5.01960814e-001</_>
    <_>
      1.33333340e-001 1.80392161e-001 4.03921574e-001 5.09803951e-001
      5.05882382e-001 5.05882382e-001 5.09803951e-001 5.05882382e-001
      5.05882382e-001 5.05882382e-001 5.05882382e-001 5.05882382e-001</_>
    <_>
      1.52941182e-001 1.80392161e-001 4.23529416e-001 5.09803951e-001
      5.13725519e-001 5.13725519e-001 5.05882382e-001 5.05882382e-001
      5.05882382e-001 5.01960814e-001 5.01960814e-001 4.98039216e-001</_>
    <_>
      1.60784319e-001 1.80392161e-001 4.23529416e-001 5.05882382e-001
      5.09803951e-001 5.09803951e-001 5.05882382e-001 5.05882382e-001
      5.05882382e-001 5.01960814e-001 5.01960814e-001 5.01960814e-001</_>
    <_>
      1.64705887e-001 1.96078435e-001 4.23529416e-001 5.01960814e-001
      5.05882382e-001 5.09803951e-001 5.09803951e-001 5.09803951e-001
      5.09803951e-001 5.01960814e-001 5.01960814e-001 5.01960814e-001</_>
    <_>
      1.76470593e-001 2.03921571e-001 4.31372553e-001 5.01960814e-001
      5.01960814e-001 5.01960814e-001 5.01960814e-001 5.01960814e-001
      5.01960814e-001 5.01960814e-001 5.01960814e-001 5.01960814e-001</_>
    <_>
      1.56862751e-001 1.76470593e-001 4.19607848e-001 5.05882382e-001
      5.01960814e-001 5.05882382e-001 5.09803951e-001 5.05882382e-001
      5.05882382e-001 4.98039216e-001 5.01960814e-001 5.01960814e-001</_>
    <_>
      1.33333340e-001 1.68627456e-001 3.88235301e-001 5.05882382e-001
      5.01960814e-001 5.01960814e-001 5.01960814e-001 5.05882382e-001
      5.05882382e-001 5.05882382e-001 5.01960814e-001 5.01960814e-001</_>
    <_>
      1.49019614e-001 1.88235298e-001 4.35294122e-001 5.05882382e-001
      5.05882382e-001 5.05882382e-001 5.09803951e-001 5.09803951e-001
      5.05882382e-001 5.01960814e-001 5.01960814e-001 5.01960814e-001</_>
    <_>
      1.52941182e-001 2.00000003e-001 4.11764711e-001 5.09803951e-001
      5.13725519e-001 5.13725519e-001 5.13725519e-001 5.13725519e-001
      5.01960814e-001 5.05882382e-001 5.05882382e-001 5.05882382e-001</_>
    <_>
      1.41176477e-001 1.92156866e-001 3.76470596e-001 4.94117647e-001
      4.98039216e-001 5.05882382e-001 5.01960814e-001 5.09803951e-001
      5.13725519e-001 5.01960814e-001 5.01960814e-001 5.01960814e-001</_>
    <_>
      1.56862751e-001 1.92156866e-001 4.11764711e-001 4.98039216e-001
      5.01960814e-001 5.05882382e-001 5.17647088e-001 5.13725519e-001
      5.09803951e-001 5.01960814e-001 4.98039216e-001 5.01960814e-001</_>
    <_>
      2.23529413e-001 3.05882365e-001 6.07843161e-001 4.98039216e-001
      4.98039216e-001 5.01960814e-001 5.09803951e-001 5.01960814e-001
      5.01960814e-001 4.98039216e-001 5.01960814e-001 5.01960814e-001</_>
    <_>
      1.52941182e-001 1.88235298e-001 4.03921574e-001 5.05882382e-001
      5.05882382e-001 5.05882382e-001 4.98039216e-001 4.98039216e-001
      4.98039216e-001 4.98039216e-001 4.98039216e-001 4.98039216e-001</_>
    <_>
      1.88235298e-001 2.58823544e-001 5.09803951e-001 5.01960814e-001
      5.01960814e-001 5.01960814e-001 5.01960814e-001 5.01960814e-001
      4.98039216e-001 5.01960814e-001 5.01960814e-001 5.01960814e-001</_>
    <_>
      2.03921571e-001 2.78431386e-001 5.49019635e-001 5.01960814e-001
      5.09803951e-001 5.05882382e-001 5.05882382e-001 5.01960814e-001
      5.09803951e-001 5.05882382e-001 5.01960814e-001 5.01960814e-001</_>
    <_>
      1.45098045e-001 2.00000003e-001 4.31372553e-001 5.13725519e-001
      5.01960814e-001 5.05882382e-001 5.01960814e-001 4.98039216e-001
      4.94117647e-001 5.01960814e-001 5.05882382e-001 5.01960814e-001</_>
    <_>
      1.56862751e-001 1.84313729e-001 4.19607848e-001 4.98039216e-001
      4.98039216e-001 5.05882382e-001 5.05882382e-001 5.05882382e-001
      5.05882382e-001 5.05882382e-001 5.01960814e-001 5.05882382e-001</_>
    <_>
      1.76470593e-001 2.19607845e-001 4.50980395e-001 5.01960814e-001
      5.01960814e-001 5.01960814e-001 5.01960814e-001 4.98039216e-001
      5.01960814e-001 5.05882382e-001 5.05882382e-001 5.05882382e-001</_>
    <_>
      1.52941182e-001 1.88235298e-001 4.23529416e-001 5.05882382e-001
      5.05882382e-001 5.01960814e-001 5.01960814e-001 4.98039216e-001
      4.94117647e-001 4.94117647e-001 4.90196079e-001 4.98039216e-001</_>
    <_>
      1.64705887e-001 1.96078435e-001 4.23529416e-001 5.05882382e-001
      5.01960814e-001 5.01960814e-001 5.01960814e-001 5.05882382e-001
      5.09803951e-001 4.98039216e-001 4.98039216e-001 4.98039216e-001</_>
    <_>
      1.64705887e-001 1.84313729e-001 4.15686280e-001 5.13725519e-001
      5.05882382e-001 5.05882382e-001 5.05882382e-001 5.01960814e-001
      5.01960814e-001 5.01960814e-001 5.01960814e-001 5.05882382e-001</_>
    <_>
      1.45098045e-001 1.88235298e-001 4.03921574e-001 5.01960814e-001
      5.01960814e-001 5.01960814e-001 5.13725519e-001 5.13725519e-001
      5.13725519e-001 4.98039216e-001 5.01960814e-001 5.01960814e-001</_>
    <_>
      1.56862751e-001 1.84313729e-001 3.84313732e-001 5.05882382e-001
      5.05882382e-001 5.05882382e-001 5.05882382e-001 5.09803951e-001
      5.05882382e-001 4.98039216e-001 5.01960814e-001 5.01960814e-001</_>
    <_>
      1.64705887e-001 2.00000003e-001 4.31372553e-001 5.09803951e-001
      5.09803951e-001 5.09803951e-001 5.05882382e-001 5.01960814e-001
      5.01960814e-001 4.98039216e-001 4.98039216e-001 5.01960814e-001</_>
    <_>
      1.56862751e-001 1.92156866e-001 4.19607848e-001 5.13725519e-001
      5.09803951e-001 5.09803951e-001 5.13725519e-001 5.09803951e-001
      5.09803951e-001 5.01960814e-001 5.01960814e-001 5.01960814e-001</_>
    <_>
      1.68627456e-001 2.00000003e-001 3.96078438e-001 5.09803951e-001
      5.05882382e-001 5.13725519e-001 4.98039216e-001 5.01960814e-001
      4.98039216e-001 5.05882382e-001 5.05882382e-001 5.01960814e-001</_>
    <_>
      1.49019614e-001 1.92156866e-001 3.88235301e-001 5.13725519e-001
      5.09803951e-001 5.13725519e-001 5.05882382e-001 5.09803951e-001
      5.05882382e-001 5.01960814e-001 5.01960814e-001 5.01960814e-001</_>
    <_>
      1.45098045e-001 1.84313729e-001 4.11764711e-001 5.01960814e-001
      5.09803951e-001 5.09803951e-001 4.98039216e-001 5.01960814e-001
      5.01960814e-001 5.01960814e-001 5.01960814e-001 5.05882382e-001</_>
    <_>
      1.41176477e-001 1.72549024e-001 3.76470596e-001 5.05882382e-001
      5.01960814e-001 4.98039216e-001 4.98039216e-001 5.01960814e-001
      5.05882382e-001 5.01960814e-001 5.05882382e-001 5.01960814e-001</_>
    <_>
      1.76470593e-001 2.11764708e-001 4.31372553e-001 4.94117647e-001
      5.01960814e-001 5.01960814e-001 5.05882382e-001 5.05882382e-001
      5.01960814e-001 5.01960814e-001 5.01960814e-001 5.05882382e-001</_>
    <_>
      1.56862751e-001 2.00000003e-001 3.92156869e-001 5.09803951e-001
      5.05882382e-001 5.01960814e-001 4.98039216e-001 4.98039216e-001
      4.98039216e-001 5.01960814e-001 5.01960814e-001 5.01960814e-001</_>
    <_>
      1.45098045e-001 1.76470593e-001 4.03921574e-001 5.13725519e-001
      5.13725519e-001 5.13725519e-001 5.05882382e-001 5.09803951e-001
      5.05882382e-001 5.01960814e-001 5.05882382e-001 5.01960814e-001</_>
    <_>
      1.64705887e-001 1.96078435e-001 4.07843143e-001 5.05882382e-001
      5.05882382e-001 5.05882382e-001 5.09803951e-001 5.05882382e-001
      5.01960814e-001 5.05882382e-001 5.05882382e-001 5.01960814e-001</_>
    <_>
      1.72549024e-001 2.15686277e-001 4.31372553e-001 4.98039216e-001
      4.94117647e-001 4.98039216e-001 5.05882382e-001 5.09803951e-001
      5.05882382e-001 5.05882382e-001 5.05882382e-001 5.05882382e-001</_>
    <_>
      1.49019614e-001 1.92156866e-001 4.19607848e-001 5.05882382e-001
      5.09803951e-001 5.05882382e-001 5.13725519e-001 5.05882382e-001
      5.09803951e-001 5.01960814e-001 5.01960814e-001 5.01960814e-001</_>
    <_>
      1.25490203e-001 1.88235298e-001 4.19607848e-001 5.01960814e-001
      5.01960814e-001 4.98039216e-001 5.09803951e-001 5.09803951e-001
      5.05882382e-001 4.98039216e-001 5.01960814e-001 4.98039216e-001</_>
    <_>
      1.56862751e-001 1.88235298e-001 4.23529416e-001 5.05882382e-001
      5.05882382e-001 5.05882382e-001 5.09803951e-001 5.09803951e-001
      5.09803951e-001 5.01960814e-001 5.01960814e-001 5.01960814e-001</_>
    <_>
      1.60784319e-001 1.92156866e-001 4.07843143e-001 5.01960814e-001
      5.01960814e-001 5.01960814e-001 5.13725519e-001 5.13725519e-001
      5.09803951e-001 5.01960814e-001 5.01960814e-001 5.01960814e-001</_>
    <_>
      1.49019614e-001 2.00000003e-001 4.23529416e-001 4.94117647e-001
      4.98039216e-001 4.98039216e-001 5.17647088e-001 5.17647088e-001
      5.17647088e-001 5.05882382e-001 5.05882382e-001 5.05882382e-001</_>
    <_>
      1.52941182e-001 1.92156866e-001 3.88235301e-001 5.05882382e-001
      5.09803951e-001 5.09803951e-001 4.98039216e-001 4.94117647e-001
      5.01960814e-001 5.05882382e-001 5.01960814e-001 5.01960814e-001</_>
    <_>
      1.37254909e-001 1.76470593e-001 4.03921574e-001 4.94117647e-001
      4.94117647e-001 4.94117647e-001 5.05882382e-001 5.05882382e-001
      5.05882382e-001 5.01960814e-001 5.05882382e-001 5.05882382e-001</_>
    <_>
      1.56862751e-001 2.03921571e-001 4.07843143e-001 4.98039216e-001
      5.01960814e-001 5.05882382e-001 5.01960814e-001 5.05882382e-001
      5.01960814e-001 5.01960814e-001 5.01960814e-001 5.01960814e-001</_>
    <_>
      1.49019614e-001 1.84313729e-001 3.96078438e-001 5.05882382e-001
      5.09803951e-001 5.09803951e-001 5.05882382e-001 5.09803951e-001
      5.05882382e-001 4.98039216e-001 5.01960814e-001 5.01960814e-001</_>
    <_>
      1.68627456e-001 2.15686277e-001 4.39215690e-001 5.01960814e-001
      5.05882382e-001 5.05882382e-001 5.09803951e-001 5.05882382e-001
      5.09803951e-001 4.98039216e-001 4.98039216e-001 4.98039216e-001</_>
    <_>
      1.68627456e-001 2.23529413e-001 4.15686280e-001 5.01960814e-001
      5.01960814e-001 5.01960814e-001 5.09803951e-001 5.05882382e-001
      5.05882382e-001 5.05882382e-001 5.05882382e-001 5.01960814e-001</_>
    <_>
      1.49019614e-001 2.03921571e-001 4.15686280e-001 4.90196079e-001
      4.94117647e-001 4.94117647e-001 5.01960814e-001 5.01960814e-001
      4.98039216e-001 5.01960814e-001 5.05882382e-001 5.01960814e-001</_>
    <_>
      1.33333340e-001 2.00000003e-001 4.11764711e-001 5.09803951e-001
      5.05882382e-001 5.01960814e-001 4.98039216e-001 5.01960814e-001
      5.01960814e-001 4.98039216e-001 4.98039216e-001 4.98039216e-001</_>
    <_>
      1.52941182e-001 2.15686277e-001 4.27450985e-001 5.01960814e-001
      5.01960814e-001 5.01960814e-001 5.09803951e-001 5.09803951e-001
      5.09803951e-001 4.98039216e-001 5.01960814e-001 4.98039216e-001</_>
    <_>
      1.92156866e-001 2.47058824e-001 4.98039216e-001 4.98039216e-001
      5.01960814e-001 4.98039216e-001 5.01960814e-001 5.01960814e-001
      5.01960814e-001 5.01960814e-001 5.05882382e-001 5.01960814e-001</_>
    <_>
      1.68627456e-001 2.00000003e-001 4.23529416e-001 5.05882382e-001
      5.05882382e-001 5.05882382e-001 5.05882382e-001 5.01960814e-001
      5.05882382e-001 4.98039216e-001 4.98039216e-001 4.98039216e-001</_>
    <_>
      1.52941182e-001 1.88235298e-001 3.96078438e-001 5.01960814e-001
      5.01960814e-001 4.98039216e-001 5.01960814e-001 5.01960814e-001
      5.01960814e-001 5.01960814e-001 5.05882382e-001 5.01960814e-001</_>
    <_>
      1.49019614e-001 1.96078435e-001 3.88235301e-001 4.98039216e-001
      5.01960814e-001 5.05882382e-001 5.05882382e-001 5.01960814e-001
      5.01960814e-001 5.01960814e-001 5.01960814e-001 5.01960814e-001</_>
    <_>
      1.56862751e-001 2.19607845e-001 4.50980395e-001 5.01960814e-001
      5.01960814e-001 5.01960814e-001 4.94117647e-001 4.98039216e-001
      4.98039216e-001 5.01960814e-001 5.01960814e-001 5.01960814e-001</_>
    <_>
      1.33333340e-001 1.92156866e-001 4.15686280e-001 5.05882382e-001
      5.01960814e-001 5.05882382e-001 5.05882382e-001 5.09803951e-001
      5.09803951e-001 5.05882382e-001 5.05882382e-001 5.09803951e-001</_>
    <_>
      1.52941182e-001 1.92156866e-001 4.11764711e-001 5.05882382e-001
      5.09803951e-001 5.01960814e-001 5.01960814e-001 4.98039216e-001
      4.98039216e-001 4.98039216e-001 5.01960814e-001 5.01960814e-001</_>
    <_>
      1.64705887e-001 2.15686277e-001 4.31372553e-001 5.05882382e-001
      4.98039216e-001 5.01960814e-001 5.09803951e-001 5.05882382e-001
      5.09803951e-001 5.01960814e-001 4.98039216e-001 5.01960814e-001</_>
    <_>
      1.25490203e-001 1.80392161e-001 4.07843143e-001 5.05882382e-001
      5.05882382e-001 5.01960814e-001 5.01960814e-001 4.98039216e-001
      4.98039216e-001 5.05882382e-001 5.05882382e-001 5.05882382e-001</_>
    <_>
      1.49019614e-001 2.00000003e-001 4.11764711e-001 5.01960814e-001
      4.94117647e-001 4.98039216e-001 5.09803951e-001 5.13725519e-001
      5.09803951e-001 4.94117647e-001 4.94117647e-001 4.94117647e-001</_>
    <_>
      1.68627456e-001 1.96078435e-001 4.19607848e-001 5.09803951e-001
      5.05882382e-001 5.05882382e-001 5.01960814e-001 4.98039216e-001
      5.01960814e-001 5.01960814e-001 5.01960814e-001 5.01960814e-001</_>
    <_>
      1.45098045e-001 1.84313729e-001 3.84313732e-001 4.98039216e-001
      4.98039216e-001 4.98039216e-001 5.01960814e-001 5.01960814e-001
      5.05882382e-001 4.98039216e-001 4.98039216e-001 4.98039216e-001</_>
    <_>
      1.49019614e-001 2.00000003e-001 4.23529416e-001 4.98039216e-001
      4.94117647e-001 4.94117647e-001 4.94117647e-001 4.90196079e-001
      4.90196079e-001 5.01960814e-001 5.01960814e-001 5.01960814e-001</_>
    <_>
      1.64705887e-001 2.27450982e-001 4.54901963e-001 4.98039216e-001
      5.05882382e-001 5.05882382e-001 5.05882382e-001 5.05882382e-001
      5.01960814e-001 5.01960814e-001 5.01960814e-001 5.01960814e-001</_>
    <_>
      1.01960786e-001 1.49019614e-001 3.29411775e-001 5.01960814e-001
      4.98039216e-001 5.05882382e-001 5.17647088e-001 5.09803951e-001
      5.09803951e-001 5.01960814e-001 5.01960814e-001 5.05882382e-001</_>
    <_>
      1.17647059e-001 1.92156866e-001 4.11764711e-001 5.05882382e-001
      5.05882382e-001 5.01960814e-001 5.05882382e-001 5.01960814e-001
      5.05882382e-001 5.01960814e-001 5.01960814e-001 4.98039216e-001</_>
    <_>
      1.72549024e-001 2.00000003e-001 4.23529416e-001 5.01960814e-001
      5.05882382e-001 5.01960814e-001 5.01960814e-001 5.09803951e-001
      5.05882382e-001 5.01960814e-001 4.98039216e-001 4.98039216e-001</_>
    <_>
      1.41176477e-001 1.84313729e-001 4.15686280e-001 5.05882382e-001
      5.09803951e-001 5.09803951e-001 5.01960814e-001 5.01960814e-001
      5.01960814e-001 5.05882382e-001 5.09803951e-001 5.05882382e-001</_>
    <_>
      1.45098045e-001 1.92156866e-001 4.15686280e-001 5.13725519e-001
      5.13725519e-001 5.05882382e-001 5.09803951e-001 5.09803951e-001
      5.01960814e-001 5.09803951e-001 5.05882382e-001 5.05882382e-001</_>
    <_>
      1.52941182e-001 2.19607845e-001 4.11764711e-001 5.09803951e-001
      5.05882382e-001 5.09803951e-001 5.01960814e-001 4.98039216e-001
      4.94117647e-001 5.05882382e-001 5.05882382e-001 5.05882382e-001</_>
    <_>
      1.33333340e-001 1.92156866e-001 4.23529416e-001 5.05882382e-001
      5.09803951e-001 5.05882382e-001 5.01960814e-001 4.98039216e-001
      4.98039216e-001 4.98039216e-001 4.98039216e-001 4.98039216e-001</_>
    <_>
      1.52941182e-001 1.88235298e-001 4.00000006e-001 5.01960814e-001
      4.98039216e-001 5.01960814e-001 5.09803951e-001 5.09803951e-001
      5.09803951e-001 5.01960814e-001 5.01960814e-001 5.01960814e-001</_>
    <_>
      1.84313729e-001 2.50980407e-001 4.82352942e-001 5.05882382e-001
      5.01960814e-001 5.01960814e-001 5.05882382e-001 5.01960814e-001
      5.05882382e-001 4.98039216e-001 4.98039216e-001 5.01960814e-001</_>
    <_>
      1.64705887e-001 2.11764708e-001 4.50980395e-001 5.01960814e-001
      5.01960814e-001 4.98039216e-001 5.13725519e-001 5.05882382e-001
      5.05882382e-001 5.05882382e-001 5.05882382e-001 5.05882382e-001</_>
    <_>
      1.41176477e-001 1.68627456e-001 3.92156869e-001 5.05882382e-001
      5.05882382e-001 5.01960814e-001 5.05882382e-001 5.01960814e-001
      4.98039216e-001 5.05882382e-001 5.05882382e-001 5.05882382e-001</_>
    <_>
      1.64705887e-001 2.07843140e-001 4.27450985e-001 5.09803951e-001
      5.05882382e-001 5.05882382e-001 4.98039216e-001 4.98039216e-001
      4.98039216e-001 5.01960814e-001 5.01960814e-001 5.01960814e-001</_>
    <_>
      1.68627456e-001 2.00000003e-001 4.27450985e-001 5.09803951e-001
      5.01960814e-001 5.01960814e-001 5.05882382e-001 5.05882382e-001
      4.82352942e-001 5.01960814e-001 5.05882382e-001 5.01960814e-001</_>
    <_>
      2.70588249e-001 3.72549027e-001 8.11764717e-001 5.05882382e-001
      5.05882382e-001 5.05882382e-001 5.01960814e-001 5.01960814e-001
      5.05882382e-001 5.01960814e-001 5.05882382e-001 5.01960814e-001</_>
    <_>
      2.90196091e-001 3.92156869e-001 8.27450991e-001 4.98039216e-001
      5.01960814e-001 5.01960814e-001 5.05882382e-001 5.05882382e-001
      5.01960814e-001 5.01960814e-001 5.01960814e-001 5.01960814e-001</_>
    <_>
      3.13725501e-001 4.11764711e-001 8.39215696e-001 5.09803951e-001
      5.01960814e-001 5.05882382e-001 5.09803951e-001 5.05882382e-001
      5.05882382e-001 5.01960814e-001 5.01960814e-001 5.01960814e-001</_>
    <_>
      2.94117659e-001 3.92156869e-001 8.35294127e-001 5.01960814e-001
      4.98039216e-001 5.01960814e-001 5.05882382e-001 5.05882382e-001
      5.05882382e-001 5.01960814e-001 5.01960814e-001 5.01960814e-001</_>
    <_>
      0. 0. 0. 5.09803951e-001 5.09803951e-001 5.09803951e-001
      4.94117647e-001 4.94117647e-001 4.94117647e-001 5.01960814e-001
      5.01960814e-001 5.01960814e-001</_>
    <_>
      2.78431386e-001 3.96078438e-001 8.31372559e-001 5.01960814e-001
      5.05882382e-001 5.01960814e-001 5.09803951e-001 5.05882382e-001
      5.05882382e-001 5.01960814e-001 5.01960814e-001 5.01960814e-001</_>
    <_>
      2.94117659e-001 3.96078438e-001 8.27450991e-001 5.05882382e-001
      5.05882382e-001 5.05882382e-001 5.05882382e-001 5.09803951e-001
      5.05882382e-001 4.98039216e-001 4.98039216e-001 5.01960814e-001</_>
    <_>
      2.94117659e-001 4.19607848e-001 8.31372559e-001 4.98039216e-001
      5.01960814e-001 5.01960814e-001 5.05882382e-001 5.05882382e-001
      4.98039216e-001 5.05882382e-001 5.05882382e-001 5.05882382e-001</_>
    <_>
      2.90196091e-001 4.00000006e-001 8.39215696e-001 5.01960814e-001
      5.01960814e-001 5.05882382e-001 4.90196079e-001 4.98039216e-001
      4.98039216e-001 5.01960814e-001 5.01960814e-001 5.01960814e-001</_>
    <_>
      3.17647070e-001 4.23529416e-001 8.39215696e-001 5.09803951e-001
      5.05882382e-001 5.05882382e-001 5.09803951e-001 5.09803951e-001
      5.05882382e-001 5.01960814e-001 5.01960814e-001 5.01960814e-001</_>
    <_>
      3.21568638e-001 4.31372553e-001 8.39215696e-001 5.01960814e-001
      5.01960814e-001 5.01960814e-001 4.98039216e-001 5.01960814e-001
      4.98039216e-001 5.01960814e-001 4.98039216e-001 5.01960814e-001</_>
    <_>
      2.82352954e-001 4.11764711e-001 8.23529422e-001 5.01960814e-001
      5.01960814e-001 5.05882382e-001 5.01960814e-001 5.05882382e-001
      5.05882382e-001 5.05882382e-001 5.05882382e-001 5.01960814e-001</_>
    <_>
      2.94117659e-001 3.76470596e-001 8.31372559e-001 5.01960814e-001
      5.01960814e-001 5.01960814e-001 5.05882382e-001 5.01960814e-001
      5.01960814e-001 5.01960814e-001 5.01960814e-001 5.01960814e-001</_>
    <_>
      0. 0. 0. 4.94117647e-001 4.94117647e-001 4.94117647e-001
      5.09803951e-001 5.09803951e-001 5.09803951e-001 5.05882382e-001
      5.05882382e-001 5.05882382e-001</_>
    <_>
      0. 0. 0. 4.94117647e-001 4.94117647e-001 4.94117647e-001
      4.94117647e-001 4.94117647e-001 4.94117647e-001 4.98039216e-001
      4.98039216e-001 4.98039216e-001</_>
    <_>
      0. 0. 0. 5.13725519e-001 5.05882382e-001 5.05882382e-001
      4.94117647e-001 4.94117647e-001 4.94117647e-001 5.01960814e-001
      5.01960814e-001 5.01960814e-001</_>
    <_>
      3.09803933e-001 4.15686280e-001 8.27450991e-001 5.13725519e-001
      5.09803951e-001 5.09803951e-001 5.01960814e-001 5.05882382e-001
      5.01960814e-001 5.01960814e-001 4.98039216e-001 4.98039216e-001</_>
    <_>
      3.25490206e-001 4.19607848e-001 8.47058833e-001 5.01960814e-001
      5.01960814e-001 5.01960814e-001 5.05882382e-001 5.05882382e-001
      5.05882382e-001 5.05882382e-001 5.01960814e-001 5.05882382e-001</_>
    <_>
      2.66666681e-001 4.00000006e-001 8.39215696e-001 5.05882382e-001
      5.05882382e-001 5.05882382e-001 5.01960814e-001 5.01960814e-001
      5.01960814e-001 5.01960814e-001 5.01960814e-001 5.01960814e-001</_>
    <_>
      2.94117659e-001 3.88235301e-001 8.31372559e-001 5.09803951e-001
      5.01960814e-001 5.05882382e-001 4.98039216e-001 4.98039216e-001
      4.98039216e-001 5.05882382e-001 5.01960814e-001 5.05882382e-001</_>
    <_>
      2.62745112e-001 3.92156869e-001 8.47058833e-001 4.98039216e-001
      5.01960814e-001 5.01960814e-001 5.05882382e-001 5.01960814e-001
      4.98039216e-001 5.01960814e-001 5.01960814e-001 5.01960814e-001</_>
    <_>
      0. 0. 0. 4.98039216e-001 4.98039216e-001 4.94117647e-001
      5.13725519e-001 5.13725519e-001 5.13725519e-001 5.05882382e-001
      5.05882382e-001 5.05882382e-001</_>
    <_>
      0. 0. 0. 5.09803951e-001 5.09803951e-001 5.09803951e-001
      5.09803951e-001 5.09803951e-001 5.09803951e-001 5.05882382e-001
      5.05882382e-001 5.05882382e-001</_>
    <_>
      3.13725501e-001 4.23529416e-001 8.11764717e-001 4.98039216e-001
      4.94117647e-001 4.98039216e-001 5.05882382e-001 5.01960814e-001
      5.01960814e-001 4.94117647e-001 4.98039216e-001 4.98039216e-001</_>
    <_>
      2.74509817e-001 3.88235301e-001 8.39215696e-001 5.09803951e-001
      5.01960814e-001 5.01960814e-001 5.09803951e-001 5.09803951e-001
      5.05882382e-001 5.05882382e-001 5.01960814e-001 5.05882382e-001</_>
    <_>
      3.37254912e-001 4.35294122e-001 8.39215696e-001 5.17647088e-001
      5.13725519e-001 5.13725519e-001 5.01960814e-001 5.01960814e-001
      5.01960814e-001 5.05882382e-001 5.05882382e-001 5.05882382e-001</_>
    <_>
      3.25490206e-001 4.31372553e-001 8.31372559e-001 5.05882382e-001
      5.09803951e-001 5.01960814e-001 5.05882382e-001 5.05882382e-001
      5.05882382e-001 5.05882382e-001 5.05882382e-001 5.05882382e-001</_>
    <_>
      0. 0. 0. 4.90196079e-001 4.90196079e-001 4.90196079e-001
      4.98039216e-001 4.98039216e-001 4.98039216e-001 4.98039216e-001
      4.98039216e-001 4.98039216e-001</_>
    <_>
      2.90196091e-001 4.15686280e-001 8.50980401e-001 4.94117647e-001
      4.98039216e-001 4.94117647e-001 5.09803951e-001 5.13725519e-001
      5.09803951e-001 5.05882382e-001 5.05882382e-001 5.05882382e-001</_>
    <_>
      3.37254912e-001 4.47058827e-001 8.58823538e-001 4.94117647e-001
      4.94117647e-001 4.98039216e-001 5.05882382e-001 5.01960814e-001
      5.01960814e-001 5.01960814e-001 5.01960814e-001 5.01960814e-001</_>
    <_>
      2.94117659e-001 3.96078438e-001 8.31372559e-001 4.90196079e-001
      4.90196079e-001 4.94117647e-001 5.01960814e-001 5.01960814e-001
      4.98039216e-001 5.01960814e-001 5.05882382e-001 5.01960814e-001</_>
    <_>
      2.82352954e-001 4.03921574e-001 8.23529422e-001 5.01960814e-001
      4.98039216e-001 5.01960814e-001 5.05882382e-001 5.01960814e-001
      4.98039216e-001 5.01960814e-001 5.01960814e-001 4.98039216e-001</_>
    <_>
      2.98039228e-001 4.07843143e-001 8.27450991e-001 5.01960814e-001
      4.98039216e-001 4.94117647e-001 4.94117647e-001 4.94117647e-001
      5.01960814e-001 5.01960814e-001 4.98039216e-001 5.01960814e-001</_>
    <_>
      3.21568638e-001 4.03921574e-001 8.23529422e-001 5.01960814e-001
      5.05882382e-001 5.05882382e-001 5.05882382e-001 5.09803951e-001
      5.05882382e-001 5.01960814e-001 5.01960814e-001 5.01960814e-001</_>
    <_>
      3.33333343e-001 4.19607848e-001 8.23529422e-001 5.05882382e-001
      5.05882382e-001 5.01960814e-001 5.09803951e-001 5.05882382e-001
      5.05882382e-001 5.01960814e-001 5.01960814e-001 5.01960814e-001</_>
    <_>
      2.58823544e-001 4.03921574e-001 8.31372559e-001 4.98039216e-001
      4.98039216e-001 5.01960814e-001 5.09803951e-001 5.09803951e-001
      5.05882382e-001 5.01960814e-001 5.05882382e-001 5.05882382e-001</_>
    <_>
      2.94117659e-001 3.96078438e-001 8.31372559e-001 5.05882382e-001
      5.09803951e-001 5.01960814e-001 5.09803951e-001 5.05882382e-001
      5.05882382e-001 4.98039216e-001 5.01960814e-001 4.98039216e-001</_>
    <_>
      0. 0. 0. 4.94117647e-001 4.94117647e-001 4.94117647e-001
      4.94117647e-001 4.94117647e-001 4.94117647e-001 5.01960814e-001
      5.01960814e-001 5.01960814e-001</_>
    <_>
      0. 0. 0. 4.94117647e-001 4.98039216e-001 4.94117647e-001
      4.94117647e-001 4.94117647e-001 4.94117647e-001 5.01960814e-001
      5.01960814e-001 5.01960814e-001</_>
    <_>
      0. 0. 0. 5.01960814e-001 5.01960814e-001 5.01960814e-001
      5.17647088e-001 5.13725519e-001 5.13725519e-001 4.98039216e-001
      4.98039216e-001 4.98039216e-001</_>
    <_>
      0. 0. 0. 5.01960814e-001 5.01960814e-001 5.01960814e-001
      4.90196079e-001 4.90196079e-001 4.90196079e-001 5.01960814e-001
      5.01960814e-001 5.01960814e-001</_>
    <_>
      0. 0. 0. 4.94117647e-001 4.94117647e-001 4.94117647e-001
      4.90196079e-001 4.98039216e-001 4.94117647e-001 5.01960814e-001
      5.01960814e-001 5.01960814e-001</_>
    <_>
      0. 0. 0. 5.01960814e-001 5.01960814e-001 5.01960814e-001
      4.90196079e-001 4.90196079e-001 4.90196079e-001 5.01960814e-001
      5.01960814e-001 5.01960814e-001</_>
    <_>
      0. 0. 0. 5.05882382e-001 5.05882382e-001 5.05882382e-001
      5.13725519e-001 5.09803951e-001 5.13725519e-001 5.01960814e-001
      5.01960814e-001 5.01960814e-001</_>
    <_>
      3.01960796e-001 3.96078438e-001 8.19607854e-001 4.98039216e-001
      4.98039216e-001 4.94117647e-001 4.98039216e-001 4.98039216e-001
      4.98039216e-001 5.01960814e-001 4.98039216e-001 5.01960814e-001</_>
    <_>
      0. 0. 0. 4.98039216e-001 4.98039216e-001 4.98039216e-001
      5.21568656e-001 5.17647088e-001 5.17647088e-001 4.98039216e-001
      5.01960814e-001 5.01960814e-001</_>
    <_>
      3.01960796e-001 3.84313732e-001 8.27450991e-001 5.09803951e-001
      5.05882382e-001 5.05882382e-001 5.09803951e-001 5.09803951e-001
      5.09803951e-001 5.01960814e-001 5.01960814e-001 5.01960814e-001</_>
    <_>
      0. 0. 0. 5.09803951e-001 5.09803951e-001 5.09803951e-001
      5.01960814e-001 5.01960814e-001 5.05882382e-001 4.94117647e-001
      4.94117647e-001 4.94117647e-001</_>
    <_>
      0. 0. 0. 5.13725519e-001 5.09803951e-001 5.09803951e-001
      4.94117647e-001 4.98039216e-001 4.94117647e-001 4.98039216e-001
      5.01960814e-001 5.01960814e-001</_>
    <_>
      0. 0. 0. 5.05882382e-001 5.01960814e-001 5.01960814e-001
      4.90196079e-001 4.94117647e-001 4.90196079e-001 5.01960814e-001
      5.01960814e-001 5.01960814e-001</_>
    <_>
      0. 0. 0. 5.09803951e-001 5.09803951e-001 5.09803951e-001
      5.09803951e-001 5.09803951e-001 5.09803951e-001 5.05882382e-001
      5.05882382e-001 5.05882382e-001</_>
    <_>
      0. 0. 0. 5.13725519e-001 5.13725519e-001 5.09803951e-001
      4.98039216e-001 4.98039216e-001 5.01960814e-001 5.05882382e-001
      5.01960814e-001 5.05882382e-001</_>
    <_>
      0. 0. 0. 4.90196079e-001 4.94117647e-001 4.94117647e-001
      5.05882382e-001 5.01960814e-001 5.01960814e-001 5.09803951e-001
      5.05882382e-001 5.05882382e-001</_>
    <_>
      0. 0. 0. 4.90196079e-001 4.94117647e-001 4.94117647e-001
      4.94117647e-001 4.94117647e-001 4.94117647e-001 5.01960814e-001
      5.01960814e-001 5.01960814e-001</_>
    <_>
      0. 0. 0. 4.90196079e-001 4.90196079e-001 4.94117647e-001
      5.01960814e-001 5.01960814e-001 5.01960814e-001 5.05882382e-001
      5.01960814e-001 5.01960814e-001</_>
    <_>
      0. 0. 0. 5.09803951e-001 5.09803951e-001 5.09803951e-001
      4.94117647e-001 4.94117647e-001 4.94117647e-001 5.01960814e-001
      5.01960814e-001 5.01960814e-001</_>
    <_>
      0. 0. 0. 5.01960814e-001 5.01960814e-001 5.05882382e-001
      5.13725519e-001 5.13725519e-001 5.13725519e-001 5.01960814e-001
      5.01960814e-001 5.01960814e-001</_>
    <_>
      0. 0. 0. 5.13725519e-001 5.09803951e-001 5.09803951e-001
      5.13725519e-001 5.09803951e-001 5.09803951e-001 5.01960814e-001
      5.01960814e-001 5.01960814e-001</_>
    <_>
      3.05882365e-001 3.96078438e-001 8.23529422e-001 5.05882382e-001
      5.01960814e-001 5.05882382e-001 5.09803951e-001 5.05882382e-001
      5.05882382e-001 5.01960814e-001 5.01960814e-001 5.01960814e-001</_>
    <_>
      0. 0. 0. 5.13725519e-001 5.13725519e-001 5.13725519e-001
      5.01960814e-001 5.01960814e-001 5.01960814e-001 5.01960814e-001
      5.01960814e-001 5.01960814e-001</_>
    <_>
      0. 0. 0. 4.98039216e-001 4.98039216e-001 4.98039216e-001
      5.09803951e-001 5.09803951e-001 5.09803951e-001 4.94117647e-001
      4.94117647e-001 4.94117647e-001</_>
    <_>
      2.90196091e-001 3.96078438e-001 8.35294127e-001 5.09803951e-001
      5.09803951e-001 5.09803951e-001 5.05882382e-001 5.01960814e-001
      5.01960814e-001 5.01960814e-001 5.01960814e-001 5.01960814e-001</_>
    <_>
      0. 0. 0. 5.09803951e-001 5.09803951e-001 5.09803951e-001
      4.94117647e-001 4.94117647e-001 4.94117647e-001 5.01960814e-001
      5.01960814e-001 5.01960814e-001</_>
    <_>
      0. 0. 0. 4.90196079e-001 4.94117647e-001 4.94117647e-001
      5.05882382e-001 5.05882382e-001 5.05882382e-001 4.98039216e-001
      4.98039216e-001 4.98039216e-001</_>
    <_>
      2.98039228e-001 3.88235301e-001 8.39215696e-001 5.09803951e-001
      5.05882382e-001 5.09803951e-001 5.01960814e-001 5.01960814e-001
      4.98039216e-001 5.01960814e-001 4.98039216e-001 5.01960814e-001</_>
    <_>
      0. 0. 0. 5.13725519e-001 5.05882382e-001 5.05882382e-001
      5.13725519e-001 5.05882382e-001 5.05882382e-001 5.05882382e-001
      5.05882382e-001 5.05882382e-001</_>
    <_>
      3.13725501e-001 3.92156869e-001 8.19607854e-001 5.09803951e-001
      5.05882382e-001 5.01960814e-001 4.98039216e-001 5.01960814e-001
      4.98039216e-001 5.05882382e-001 5.01960814e-001 5.01960814e-001</_>
    <_>
      3.05882365e-001 4.03921574e-001 8.23529422e-001 5.01960814e-001
      5.05882382e-001 4.98039216e-001 5.09803951e-001 5.05882382e-001
      5.01960814e-001 5.01960814e-001 5.01960814e-001 5.01960814e-001</_>
    <_>
      0. 0. 0. 5.01960814e-001 4.98039216e-001 5.05882382e-001
      4.94117647e-001 4.90196079e-001 4.94117647e-001 4.98039216e-001
      4.98039216e-001 4.98039216e-001</_>
    <_>
      0. 0. 0. 4.94117647e-001 4.98039216e-001 4.90196079e-001
      4.94117647e-001 4.94117647e-001 4.94117647e-001 5.01960814e-001
      5.01960814e-001 5.01960814e-001</_>
    <_>
      0. 0. 0. 5.17647088e-001 5.13725519e-001 5.13725519e-001
      5.09803951e-001 5.05882382e-001 5.05882382e-001 5.01960814e-001
      5.01960814e-001 5.01960814e-001</_>
    <_>
      3.13725501e-001 4.03921574e-001 8.31372559e-001 5.09803951e-001
      5.09803951e-001 5.05882382e-001 5.09803951e-001 5.09803951e-001
      5.05882382e-001 5.05882382e-001 5.05882382e-001 5.01960814e-001</_>
    <_>
      3.13725501e-001 4.07843143e-001 8.31372559e-001 5.05882382e-001
      5.01960814e-001 5.01960814e-001 5.09803951e-001 5.05882382e-001
      5.09803951e-001 4.98039216e-001 4.98039216e-001 4.98039216e-001</_>
    <_>
      0. 0. 0. 5.01960814e-001 5.01960814e-001 5.01960814e-001
      5.09803951e-001 5.13725519e-001 5.13725519e-001 5.05882382e-001
      5.05882382e-001 5.05882382e-001</_>
    <_>
      0. 0. 0. 4.90196079e-001 4.94117647e-001 4.94117647e-001
      5.09803951e-001 5.09803951e-001 5.09803951e-001 4.98039216e-001
      5.01960814e-001 5.01960814e-001</_>
    <_>
      0. 0. 0. 5.17647088e-001 5.17647088e-001 5.17647088e-001
      4.98039216e-001 4.98039216e-001 4.98039216e-001 5.01960814e-001
      5.01960814e-001 5.01960814e-001</_>
    <_>
      0. 0. 0. 5.05882382e-001 5.01960814e-001 5.09803951e-001
      4.90196079e-001 4.94117647e-001 4.94117647e-001 4.98039216e-001
      4.98039216e-001 5.01960814e-001</_>
    <_>
      0. 0. 0. 5.09803951e-001 5.05882382e-001 5.09803951e-001
      5.13725519e-001 5.13725519e-001 5.13725519e-001 5.01960814e-001
      5.01960814e-001 5.01960814e-001</_>
    <_>
      2.90196091e-001 3.88235301e-001 8.27450991e-001 5.05882382e-001
      5.01960814e-001 5.01960814e-001 4.98039216e-001 4.98039216e-001
      5.01960814e-001 5.01960814e-001 5.01960814e-001 5.05882382e-001</_>
    <_>
      0. 0. 0. 5.09803951e-001 5.09803951e-001 5.09803951e-001
      5.09803951e-001 5.13725519e-001 5.09803951e-001 5.01960814e-001
      5.01960814e-001 5.01960814e-001</_>
    <_>
      0. 0. 0. 4.94117647e-001 4.94117647e-001 4.94117647e-001
      4.94117647e-001 4.94117647e-001 4.98039216e-001 5.01960814e-001
      5.01960814e-001 5.01960814e-001</_>
    <_>
      3.01960796e-001 3.84313732e-001 8.31372559e-001 5.09803951e-001
      5.09803951e-001 5.09803951e-001 5.09803951e-001 5.09803951e-001
      5.05882382e-001 5.05882382e-001 5.05882382e-001 5.01960814e-001</_>
    <_>
      0. 0. 0. 5.05882382e-001 5.05882382e-001 5.05882382e-001
      4.90196079e-001 4.90196079e-001 4.94117647e-001 4.98039216e-001
      4.98039216e-001 4.98039216e-001</_>
    <_>
      0. 0. 0. 4.98039216e-001 4.98039216e-001 4.98039216e-001
      4.90196079e-001 4.90196079e-001 4.90196079e-001 5.01960814e-001
      5.01960814e-001 5.01960814e-001</_>
    <_>
      0. 0. 0. 4.94117647e-001 4.94117647e-001 4.94117647e-001
      4.94117647e-001 4.94117647e-001 4.98039216e-001 5.01960814e-001
      5.01960814e-001 5.01960814e-001</_>
    <_>
      2.74509817e-001 3.80392164e-001 8.39215696e-001 4.94117647e-001
      4.94117647e-001 4.98039216e-001 5.09803951e-001 5.05882382e-001
      5.05882382e-001 5.01960814e-001 5.01960814e-001 5.01960814e-001</_>
    <_>
      0. 0. 0. 4.94117647e-001 4.94117647e-001 4.94117647e-001
      5.09803951e-001 5.09803951e-001 5.09803951e-001 5.01960814e-001
      5.01960814e-001 5.01960814e-001</_>
    <_>
      2.90196091e-001 3.92156869e-001 8.27450991e-001 5.01960814e-001
      5.01960814e-001 5.01960814e-001 5.09803951e-001 5.09803951e-001
      5.01960814e-001 5.01960814e-001 4.98039216e-001 5.01960814e-001</_>
    <_>
      2.74509817e-001 3.92156869e-001 8.31372559e-001 5.01960814e-001
      5.01960814e-001 4.98039216e-001 5.01960814e-001 5.01960814e-001
      5.01960814e-001 4.98039216e-001 4.98039216e-001 4.98039216e-001</_>
    <_>
      3.09803933e-001 4.03921574e-001 8.35294127e-001 4.98039216e-001
      4.98039216e-001 4.94117647e-001 5.05882382e-001 5.05882382e-001
      5.05882382e-001 4.98039216e-001 5.01960814e-001 4.98039216e-001</_>
    <_>
      0. 0. 0. 5.13725519e-001 5.13725519e-001 5.13725519e-001
      5.01960814e-001 4.98039216e-001 4.98039216e-001 5.01960814e-001
      5.01960814e-001 5.01960814e-001</_>
    <_>
      0. 0. 0. 4.94117647e-001 4.94117647e-001 4.98039216e-001
      4.90196079e-001 4.94117647e-001 4.90196079e-001 5.01960814e-001
      5.01960814e-001 5.01960814e-001</_>
    <_>
      0. 0. 0. 4.98039216e-001 4.98039216e-001 4.98039216e-001
      5.17647088e-001 5.13725519e-001 5.13725519e-001 4.98039216e-001
      4.98039216e-001 4.98039216e-001</_>
    <_>
      2.98039228e-001 4.11764711e-001 8.23529422e-001 5.05882382e-001
      5.09803951e-001 5.01960814e-001 5.05882382e-001 5.05882382e-001
      5.01960814e-001 5.01960814e-001 4.98039216e-001 5.01960814e-001</_>
    <_>
      3.05882365e-001 4.15686280e-001 8.19607854e-001 5.13725519e-001
      5.05882382e-001 5.05882382e-001 5.05882382e-001 5.05882382e-001
      5.01960814e-001 5.01960814e-001 4.98039216e-001 5.01960814e-001</_>
    <_>
      2.98039228e-001 3.84313732e-001 8.27450991e-001 5.01960814e-001
      5.01960814e-001 5.01960814e-001 5.05882382e-001 5.01960814e-001
      5.01960814e-001 4.98039216e-001 5.01960814e-001 4.98039216e-001</_>
    <_>
      3.25490206e-001 4.00000006e-001 8.43137264e-001 5.05882382e-001
      5.05882382e-001 5.01960814e-001 5.05882382e-001 5.05882382e-001
      5.01960814e-001 5.01960814e-001 5.01960814e-001 5.01960814e-001</_>
    <_>
      0. 0. 0. 4.94117647e-001 4.94117647e-001 4.94117647e-001
      4.94117647e-001 4.94117647e-001 4.94117647e-001 5.01960814e-001
      5.01960814e-001 5.01960814e-001</_>
    <_>
      3.05882365e-001 4.15686280e-001 8.31372559e-001 4.98039216e-001
      5.01960814e-001 5.01960814e-001 5.05882382e-001 5.05882382e-001
      5.09803951e-001 5.01960814e-001 5.01960814e-001 5.01960814e-001</_>
    <_>
      0. 0. 0. 4.94117647e-001 4.94117647e-001 4.90196079e-001
      5.09803951e-001 5.05882382e-001 5.09803951e-001 4.98039216e-001
      5.01960814e-001 4.98039216e-001</_></support_vectors>
  <decision_functions>
    <_>
      <sv_count>200</sv_count>
      <rho>-1.3986541360129007e+002</rho>
      <alpha>
        7.7472961236403959e-001 1. 1. 1. 1. 1. 1. 1. 1. 1. 1. 1. 1. 1.
        1. 1. 1. 1. 1. 1. 1. 1. 1. 1. 1. 1. 1. 1. 1. 1. 1. 1. 1. 1. 1.
        1. 1. 1. 1. 1. 1. 1. 1. 1. 1. 1. 1. 1. 1. 1. 1. 1. 1. 1. 1. 1.
        1. 1. 1. 1. 1. 1. 1. 1. 1. 1. 1. 1. 1. 1. 1. 1. 1. 1. 1. 1. 1.
        1. 1. 1. 1. 1. 1. 1. 1. 1. 1. 1. 1. 1. 1. 1. 1. 1. 1. 1. 1. 1.
        1. 1. -7.7472961236403959e-001 -1. -1. -1. -1. -1. -1. -1. -1.
        -1. -1. -1. -1. -1. -1. -1. -1. -1. -1. -1. -1. -1. -1. -1. -1.
        -1. -1. -1. -1. -1. -1. -1. -1. -1. -1. -1. -1. -1. -1. -1. -1.
        -1. -1. -1. -1. -1. -1. -1. -1. -1. -1. -1. -1. -1. -1. -1. -1.
        -1. -1. -1. -1. -1. -1. -1. -1. -1. -1. -1. -1. -1. -1. -1. -1.
        -1. -1. -1. -1. -1. -1. -1. -1. -1. -1. -1. -1. -1. -1. -1. -1.
        -1. -1. -1. -1. -1. -1. -1. -1. -1. -1. -1.</alpha>
      <index>
        0 1 2 3 4 5 6 7 8 9 10 11 12 13 14 15 16 17 18 19 20 21 22 23 24
        25 26 27 28 29 30 31 32 33 34 35 36 37 38 39 40 41 42 43 44 45
        46 47 48 49 50 51 52 53 54 55 56 57 58 59 60 61 62 63 64 65 66
        67 68 69 70 71 72 73 74 75 76 77 78 79 80 81 82 83 84 85 86 87
        88 89 90 91 92 93 94 95 96 97 98 99 100 101 102 103 104 105 106
        107 108 109 110 111 112 113 114 115 116 117 118 119 120 121 122
        123 124 125 126 127 128 129 130 131 132 133 134 135 136 137 138
        139 140 141 142 143 144 145 146 147 148 149 150 151 152 153 154
        155 156 157 158 159 160 161 162 163 164 165 166 167 168 169 170
        171 172 173 174 175 176 177 178 179 180 181 182 183 184 185 186
        187 188 189 190 191 192 193 194 195 196 197 198 199</index></_></decision_functions></my_svm>
</opencv_storage>
