<?xml version="1.0"?>
<opencv_storage>
<my_svm type_id="opencv-ml-svm">
  <svm_type>C_SVC</svm_type>
  <kernel><type>RBF</type>
    <gamma>5.0000000000000000e-001</gamma></kernel>
  <C>1.2500000000000000e+001</C>
  <term_criteria><epsilon>2.2204460492503131e-016</epsilon>
    <iterations>100</iterations></term_criteria>
  <var_all>12</var_all>
  <var_count>12</var_count>
  <class_count>2</class_count>
  <class_labels type_id="opencv-matrix">
    <rows>1</rows>
    <cols>2</cols>
    <dt>i</dt>
    <data>
      0 1</data></class_labels>
  <class_weights type_id="opencv-matrix">
    <rows>1</rows>
    <cols>2</cols>
    <dt>d</dt>
    <data>
      2.5000000372529030e+000 1.0000000149011612e+001</data></class_weights>
  <sv_total>125</sv_total>
  <support_vectors>
    <_>
      -5.09585321e-001 -5.09716928e-001 -5.08750975e-001
      -2.31248140e-002 -2.65585184e-002 -3.06811333e-002
      -2.57582664e-002 -2.41560638e-002 -3.28597426e-002
      -5.41990995e-002 -5.96132874e-002 -6.15932345e-002</_>
    <_>
      4.90414679e-001 4.90283072e-001 4.91249025e-001 -1.13601089e-002
      -1.47938132e-002 -7.15172291e-003 1.34574175e-002 1.11380816e-002
      -3.67813408e-002 -5.41990995e-002 -5.56917191e-002
      -6.94364011e-002</_>
    <_>
      -5.09585321e-001 -5.05795360e-001 -5.08750975e-001
      -3.09679806e-002 -2.65585184e-002 -4.63674366e-002
      -1.59091622e-001 -1.88861936e-001 -1.62271529e-001
      -6.98854029e-002 -7.92211592e-002 -8.12011063e-002</_>
    <_>
      4.47277427e-001 4.90283072e-001 1.73601985e-001 -1.01556212e-001
      -1.12833053e-001 -9.34262574e-002 3.62477005e-001 3.09177279e-001
      3.94591212e-001 1.10506773e-001 1.28621995e-001 8.99499655e-003</_>
    <_>
      4.90414679e-001 4.90283072e-001 4.91249025e-001 8.66791010e-002
      5.97159863e-002 3.20639610e-002 1.38947606e-001 1.32706702e-001
      8.08657408e-002 -3.85128260e-002 -4.39270139e-002 -4.19853926e-002</_>
    <_>
      -5.01742184e-001 -5.09716928e-001 -5.08750975e-001
      -9.76346433e-002 -6.96958005e-002 -9.34262574e-002
      -7.28171170e-002 -1.69254094e-001 -9.56048667e-002
      -3.85128260e-002 -6.35348856e-002 -6.94364011e-002</_>
    <_>
      4.90414679e-001 4.90283072e-001 4.91249025e-001 2.90600657e-001
      2.16578722e-001 1.53632581e-001 4.87515330e-002 1.89812183e-002
      -1.48719549e-003 -4.24343944e-002 -6.35348856e-002
      -6.15932345e-002</_>
    <_>
      -5.09585321e-001 -5.09716928e-001 -5.08750975e-001
      -5.84189594e-002 -5.40095270e-002 -5.42105734e-002
      -6.10524118e-002 -7.51364529e-002 -6.81538880e-002 3.59969735e-002
      5.80337644e-002 -3.80638242e-002</_>
    <_>
      4.90414679e-001 4.90283072e-001 4.91249025e-001 1.61188900e-001
      1.42068923e-001 1.45789444e-001 4.48299646e-002 5.03537655e-002
      1.02775097e-002 -5.81206977e-002 -4.00054455e-002 -6.94364011e-002</_>
    <_>
      -5.09585321e-001 -5.09716928e-001 -5.08750975e-001
      -5.05758226e-002 -4.61663902e-002 -5.02890050e-002
      -5.32092750e-002 -9.47442949e-002 -1.19134277e-001
      -2.28265524e-002 -2.82407403e-002 -3.41422558e-002</_>
    <_>
      -5.09585321e-001 -5.09716928e-001 -5.08750975e-001
      -7.01836646e-002 -9.71467793e-002 -1.01269394e-001
      -4.53661382e-002 -4.76854742e-002 -6.42323196e-002
      -8.55716765e-002 -7.52995908e-002 -7.72795379e-002</_>
    <_>
      4.90414679e-001 4.90283072e-001 4.91249025e-001 1.76875174e-001
      1.45990491e-001 5.55933714e-002 8.79672170e-002 5.03537655e-002
      3.38069201e-002 -3.45912576e-002 -4.39270139e-002 -4.59069610e-002</_>
    <_>
      4.90414679e-001 4.90283072e-001 4.91249025e-001 -1.83909148e-001
      -1.55970305e-001 -1.44406646e-001 4.48299646e-002 5.81969023e-002
      1.16159856e-001 -4.63559628e-002 -4.00054455e-002 -3.80638242e-002</_>
    <_>
      4.90414679e-001 4.90283072e-001 4.91249025e-001 1.33737922e-001
      1.45990491e-001 3.59855294e-002 9.97319221e-002 8.95694494e-002
      3.38069201e-002 -4.63559628e-002 -2.03976035e-002 -3.41422558e-002</_>
    <_>
      4.55120564e-001 4.90283072e-001 4.91249025e-001 -3.51697206e-003
      -1.87153816e-002 8.53455067e-003 1.46790743e-001 1.20941997e-001
      1.24002993e-001 -5.02775311e-002 -5.17701507e-002 -6.94364011e-002</_>
    <_>
      -5.09585321e-001 -5.09716928e-001 -5.08750975e-001
      -8.58699381e-002 -9.71467793e-002 -9.73478258e-002
      -1.04189664e-001 -1.41803116e-001 -1.19134277e-001
      -1.32630497e-001 -1.53730959e-001 -1.32181495e-001</_>
    <_>
      4.90414679e-001 4.90283072e-001 4.91249025e-001 9.06006694e-002
      1.06774807e-001 1.22260034e-001 4.09083962e-002 4.25106287e-002
      6.35594130e-003 -4.24343944e-002 -5.56917191e-002 -6.15932345e-002</_>
    <_>
      -5.09585321e-001 -5.09716928e-001 -5.08750975e-001
      -3.51697206e-003 -1.87153816e-002 -1.89164281e-002
      -9.24249589e-002 -8.69011581e-002 -1.54428393e-001
      -6.20422661e-002 -7.52995908e-002 -9.29658115e-002</_>
    <_>
      -5.09585321e-001 -5.09716928e-001 -5.08750975e-001
      -3.09679806e-002 -4.22448218e-002 -8.16615522e-002
      -3.36014330e-002 -3.19992006e-002 2.20422149e-002 -5.41990995e-002
      -5.56917191e-002 -7.72795379e-002</_>
    <_>
      4.90414679e-001 4.90283072e-001 4.91249025e-001 1.29816353e-001
      1.53833628e-001 6.91413879e-004 7.22809434e-002 7.21651316e-003
      6.12578988e-002 -6.98854029e-002 -7.92211592e-002 -7.72795379e-002</_>
    <_>
      -5.09585321e-001 -5.09716928e-001 -5.08750975e-001
      -6.23405278e-002 -5.00879586e-002 -6.20537102e-002
      -1.27719074e-001 -1.65332526e-001 -1.77957803e-001 7.02857971e-004
      -7.89761543e-004 -2.23775506e-002</_>
    <_>
      4.90414679e-001 4.90283072e-001 4.91249025e-001 1.57267332e-001
      1.61676764e-001 1.34024739e-001 1.11496627e-001 7.38831758e-002
      8.87088776e-002 -5.41990995e-002 -5.56917191e-002 -5.76716661e-002</_>
    <_>
      -5.05663753e-001 -5.09716928e-001 -5.08750975e-001
      -4.27326858e-002 -4.22448218e-002 -6.20537102e-002
      -1.23797506e-001 -9.08227265e-002 -1.62271529e-001
      -6.59638345e-002 -6.74564540e-002 -6.15932345e-002</_>
    <_>
      4.90414679e-001 4.90283072e-001 4.91249025e-001 2.82757521e-001
      2.20500290e-001 9.08874869e-002 -2.18366981e-002 -1.63128972e-002
      -9.33033228e-003 -5.41990995e-002 -5.96132874e-002
      -6.94364011e-002</_>
    <_>
      -5.09585321e-001 -5.09716928e-001 -5.08750975e-001
      -3.51697206e-003 4.81402874e-003 -2.67595649e-002 -1.04189664e-001
      -1.02587432e-001 -1.11291140e-001 -6.20422661e-002
      -7.13780224e-002 -6.94364011e-002</_>
    <_>
      4.59042132e-001 4.90283072e-001 4.91249025e-001 -7.41052330e-002
      -6.57742321e-002 -1.09112531e-001 1.93849564e-001 2.42510617e-001
      2.18120635e-001 -6.20422661e-002 -5.96132874e-002 -4.98285294e-002</_>
    <_>
      -5.09585321e-001 -5.09716928e-001 -5.08750975e-001
      -1.17242485e-001 -1.79499716e-001 -1.48328215e-001
      -7.67386854e-002 -5.16070426e-002 -6.81538880e-002
      -8.94932449e-002 -8.31427276e-002 -7.72795379e-002</_>
    <_>
      -5.09585321e-001 -5.09716928e-001 -5.08750975e-001
      -8.58699381e-002 -7.75389373e-002 -6.98968470e-002
      -1.66934758e-001 -1.14352137e-001 -1.66193098e-001
      -7.77285397e-002 -1.02750570e-001 -8.90442431e-002</_>
    <_>
      -5.09585321e-001 -5.09716928e-001 -5.08750975e-001
      -8.97915065e-002 -1.04989916e-001 -1.71857625e-001 5.61428070e-003
      1.11380816e-002 -9.33033228e-003 -6.59638345e-002 -7.92211592e-002
      -9.29658115e-002</_>
    <_>
      4.90414679e-001 4.90283072e-001 4.91249025e-001 1.57267332e-001
      1.85206175e-001 2.08534539e-001 1.15418196e-001 1.13098860e-001
      1.12238288e-001 8.54599476e-003 3.13180685e-003 -2.76970863e-003</_>
    <_>
      4.90414679e-001 4.90283072e-001 4.91249025e-001 8.66791010e-002
      1.26571655e-002 1.10495329e-001 4.87515330e-002 1.11380816e-002
      6.51794672e-002 -7.77285397e-002 -7.13780224e-002 -8.12011063e-002</_>
    <_>
      4.90414679e-001 4.90283072e-001 4.91249025e-001 4.74634171e-002
      4.01081443e-002 3.59855294e-002 1.35026038e-001 1.64079249e-001
      1.31846130e-001 -4.24343944e-002 -4.39270139e-002 -4.19853926e-002</_>
    <_>
      4.78649974e-001 4.70675230e-001 4.91249025e-001 8.27575326e-002
      4.79512811e-002 5.95149398e-002 1.78163290e-001 1.48392975e-001
      1.47532403e-001 -2.67481208e-002 -4.39270139e-002 -5.37500978e-002</_>
    <_>
      4.90414679e-001 4.90283072e-001 4.91249025e-001 2.00124383e-002
      2.83434391e-002 3.99070978e-002 6.05162382e-002 6.99616075e-002
      6.35594130e-003 -4.63559628e-002 -5.56917191e-002 -8.12011063e-002</_>
    <_>
      4.90414679e-001 4.90283072e-001 4.91249025e-001 -1.92032456e-002
      -1.08722448e-002 5.55933714e-002 4.09083962e-002 4.64321971e-002
      1.59297109e-001 -5.41990995e-002 -5.96132874e-002 -3.41422558e-002</_>
    <_>
      4.90414679e-001 4.90283072e-001 4.91249025e-001 4.74634171e-002
      5.18728495e-002 1.06573761e-001 -3.75230014e-002 -1.23913288e-002
      -9.33033228e-003 -5.41990995e-002 -5.17701507e-002
      -3.80638242e-002</_>
    <_>
      4.90414679e-001 4.90283072e-001 4.91249025e-001 -1.21164054e-001
      -1.08911484e-001 -1.32641941e-001 1.86006427e-001 1.83687091e-001
      1.86748087e-001 -6.59638345e-002 -6.35348856e-002 -8.90442431e-002</_>
    <_>
      -5.09585321e-001 -5.09716928e-001 -5.08750975e-001
      -4.27326858e-002 -3.83232534e-002 -4.63674366e-002
      -5.71308434e-002 -5.55286109e-002 -4.07029092e-002
      -5.81206977e-002 -5.96132874e-002 -6.15932345e-002</_>
    <_>
      4.90414679e-001 4.90283072e-001 4.91249025e-001 -3.51697206e-003
      -5.79310954e-002 -1.40485078e-001 1.69271231e-003 1.79765522e-001
      3.47532392e-001 -4.24343944e-002 3.13180685e-003 -6.94364011e-002</_>
    <_>
      4.90414679e-001 4.90283072e-001 4.91249025e-001 -5.05758226e-002
      -5.00879586e-002 -5.42105734e-002 1.42869174e-001 1.13098860e-001
      2.73022592e-001 -4.24343944e-002 -4.00054455e-002 -5.37500978e-002</_>
    <_>
      4.90414679e-001 4.90283072e-001 4.91249025e-001 -1.95673853e-001
      -2.38323241e-001 -2.34602720e-001 6.05162382e-002 6.21184707e-002
      7.30226040e-002 -3.21871042e-003 -4.71132994e-003 5.07342815e-003</_>
    <_>
      -5.09585321e-001 -5.09716928e-001 -5.08750975e-001
      -3.88111174e-002 -4.22448218e-002 -2.67595649e-002
      -2.57130831e-001 -2.31999189e-001 -1.85800940e-001 3.99185419e-002
      2.66612172e-002 8.99499655e-003</_>
    <_>
      -5.09585321e-001 -5.09716928e-001 -5.08750975e-001
      -1.95673853e-001 -1.91264421e-001 -1.60092920e-001 6.83593750e-002
      3.46674919e-002 4.55716252e-002 -6.20422661e-002 -5.96132874e-002
      -6.94364011e-002</_>
    <_>
      4.90414679e-001 4.90283072e-001 4.91249025e-001 -1.09399348e-001
      -8.93036425e-002 -1.48328215e-001 2.13457406e-001 1.64079249e-001
      9.26304460e-002 -5.81206977e-002 -4.39270139e-002 -6.94364011e-002</_>
    <_>
      4.90414679e-001 4.90283072e-001 4.91249025e-001 1.53345764e-001
      1.18539512e-001 5.95149398e-002 8.79672170e-002 5.42753339e-002
      6.35594130e-003 -5.41990995e-002 -5.96132874e-002 -6.55148327e-002</_>
    <_>
      4.90414679e-001 4.90283072e-001 4.91249025e-001 7.09928274e-002
      4.79512811e-002 5.95149398e-002 5.61428070e-003 3.29494476e-003
      6.12578988e-002 -3.06696892e-002 -3.60838771e-002 -2.23775506e-002</_>
    <_>
      4.90414679e-001 4.90283072e-001 4.91249025e-001 1.14130080e-001
      5.97159863e-002 -5.42105734e-002 8.01240802e-002 3.85890603e-002
      3.38069201e-002 -2.67481208e-002 -5.96132874e-002 -6.15932345e-002</_>
    <_>
      4.90414679e-001 4.90283072e-001 4.91249025e-001 4.74634171e-002
      -5.40095270e-002 -2.28379965e-002 2.91888773e-001 3.36628258e-001
      1.63218677e-001 -1.49834156e-002 -4.39270139e-002 -4.19853926e-002</_>
    <_>
      4.90414679e-001 4.90283072e-001 4.91249025e-001 -1.83909148e-001
      -1.71656579e-001 -1.99308604e-001 1.42869174e-001 1.36628270e-001
      1.04395151e-001 -6.20422661e-002 -9.09858644e-002 -4.19853926e-002</_>
    <_>
      4.90414679e-001 4.90283072e-001 4.91249025e-001 -3.88111174e-002
      -1.08722448e-002 -1.89164281e-002 2.60516226e-001 2.69961596e-001
      9.65520144e-002 7.02857971e-004 -8.63289833e-003 -5.37500978e-002</_>
    <_>
      4.90414679e-001 4.86361504e-001 4.91249025e-001 5.92281222e-002
      2.44218707e-002 8.53455067e-003 2.33065248e-001 2.66040027e-001
      8.47873092e-002 -1.89049840e-002 -4.00054455e-002 -4.59069610e-002</_>
    <_>
      4.90414679e-001 4.90283072e-001 4.91249025e-001 -7.01836646e-002
      4.81402874e-003 -6.98968470e-002 1.27182901e-001 6.99616075e-002
      1.12238288e-001 -6.98854029e-002 -3.60838771e-002 -8.51226747e-002</_>
    <_>
      4.90414679e-001 4.90283072e-001 4.91249025e-001 -7.41052330e-002
      -7.75389373e-002 -6.59752786e-002 2.17378974e-001 1.91530228e-001
      6.51794672e-002 -6.59638345e-002 -7.13780224e-002 -5.37500978e-002</_>
    <_>
      4.90414679e-001 4.90283072e-001 4.91249025e-001 -1.17242485e-001
      -1.40284032e-001 -9.73478258e-002 1.86006427e-001 2.18981206e-001
      1.12238288e-001 -5.41990995e-002 -7.92211592e-002 -3.41422558e-002</_>
    <_>
      4.90414679e-001 4.90283072e-001 4.91249025e-001 1.57267332e-001
      1.53833628e-001 9.87306237e-002 3.69868279e-002 7.21651316e-003
      -2.10950375e-002 -3.45912576e-002 -4.78485823e-002
      -2.23775506e-002</_>
    <_>
      -5.09585321e-001 -5.09716928e-001 -5.08750975e-001 2.39340067e-002
      1.26571655e-002 8.53455067e-003 -2.37522990e-001 -1.84940368e-001
      -1.89722508e-001 -6.98854029e-002 -7.52995908e-002
      -7.72795379e-002</_>
    <_>
      4.90414679e-001 4.90283072e-001 4.91249025e-001 5.53065538e-002
      -5.40095270e-002 4.38286662e-002 5.61428070e-003 3.29494476e-003
      6.35594130e-003 -2.28265524e-002 -3.21623087e-002 -6.69127703e-003</_>
    <_>
      -5.09585321e-001 -5.09716928e-001 -5.08750975e-001
      -2.70464122e-002 -3.83232534e-002 -4.63674366e-002
      -1.19875938e-001 -1.45724684e-001 -1.11291140e-001
      -5.41990995e-002 -7.52995908e-002 -6.15932345e-002</_>
    <_>
      -5.09585321e-001 -5.09716928e-001 -5.08750975e-001
      -5.84189594e-002 -4.61663902e-002 -4.63674366e-002
      -2.64973968e-001 -2.43763894e-001 -2.32859761e-001
      -4.63559628e-002 -3.60838771e-002 -6.15932345e-002</_>
    <_>
      -5.09585321e-001 -5.09716928e-001 -5.08750975e-001
      -2.31248140e-002 -2.65585184e-002 -3.46027315e-002
      -2.25758284e-001 -1.69254094e-001 -1.77957803e-001
      -6.98854029e-002 -7.13780224e-002 -6.94364011e-002</_>
    <_>
      -5.09585321e-001 -5.09716928e-001 -5.08750975e-001
      -4.66542542e-002 -3.83232534e-002 -3.85242999e-002
      -2.45366126e-001 -1.73175663e-001 -1.74036235e-001
      -7.38069713e-002 -6.35348856e-002 -6.94364011e-002</_>
    <_>
      -5.09585321e-001 -5.09716928e-001 -5.08750975e-001
      -8.58699381e-002 -9.71467793e-002 -8.16615522e-002 2.91436911e-002
      -2.02344656e-002 9.26304460e-002 -4.24343944e-002 -8.31427276e-002
      -5.76716661e-002</_>
    <_>
      -5.09585321e-001 -5.09716928e-001 -5.08750975e-001
      -5.44973910e-002 -4.22448218e-002 -4.63674366e-002
      -1.86542600e-001 -1.53567821e-001 -1.77957803e-001
      -7.77285397e-002 -8.31427276e-002 -7.72795379e-002</_>
    <_>
      -5.09585321e-001 -5.09716928e-001 -5.08750975e-001
      -7.01836646e-002 -7.75389373e-002 -7.77399838e-002
      -1.00268096e-001 -1.33959979e-001 -1.23055845e-001
      -4.24343944e-002 -4.39270139e-002 -5.37500978e-002</_>
    <_>
      -5.09585321e-001 -5.09716928e-001 -5.08750975e-001
      -1.52816772e-002 4.81402874e-003 -7.15172291e-003 -1.15954369e-001
      -1.22195274e-001 -1.38742119e-001 -3.06696892e-002
      -5.17701507e-002 -3.02206874e-002</_>
    <_>
      -5.09585321e-001 -5.09716928e-001 -5.08750975e-001
      -2.70464122e-002 -1.87153816e-002 -1.10732913e-002
      -1.15954369e-001 -1.45724684e-001 -1.46585256e-001
      -3.45912576e-002 -4.39270139e-002 -4.59069610e-002</_>
    <_>
      4.90414679e-001 4.90283072e-001 4.91249025e-001 1.18051648e-001
      1.45990491e-001 1.63776875e-002 7.22809434e-002 7.78047442e-002
      1.31846130e-001 -2.28265524e-002 -2.82407403e-002 -3.80638242e-002</_>
    <_>
      -5.09585321e-001 -5.09716928e-001 -5.08750975e-001
      -1.29007190e-001 -9.71467793e-002 -6.98968470e-002
      -1.55170053e-001 -1.37881547e-001 -9.16832983e-002
      -6.98854029e-002 -6.35348856e-002 -6.55148327e-002</_>
    <_>
      -5.09585321e-001 -5.09716928e-001 -5.08750975e-001 4.74634171e-002
      -7.75389373e-002 -3.46027315e-002 -1.27719074e-001
      -7.51364529e-002 -5.63891828e-002 -1.32630497e-001
      -5.96132874e-002 -6.15932345e-002</_>
    <_>
      -5.09585321e-001 -5.09716928e-001 -5.08750975e-001
      -7.41052330e-002 -6.57742321e-002 -6.20537102e-002
      -1.90464169e-001 -1.57489389e-001 -1.19134277e-001
      -8.55716765e-002 -7.92211592e-002 -7.33579695e-002</_>
    <_>
      -5.09585321e-001 -5.09716928e-001 -5.08750975e-001
      -3.88111174e-002 1.65787339e-002 -7.15172291e-003 -1.66934758e-001
      -1.77097231e-001 -1.50506824e-001 -2.67481208e-002
      -3.60838771e-002 -3.80638242e-002</_>
    <_>
      -5.09585321e-001 -5.09716928e-001 -5.08750975e-001
      -3.09679806e-002 -1.87153816e-002 -3.06811333e-002
      -2.37522990e-001 -2.55528599e-001 -2.09330350e-001
      -5.02775311e-002 -5.17701507e-002 -6.15932345e-002</_>
    <_>
      -5.09585321e-001 -5.09716928e-001 -5.08750975e-001
      -7.43854046e-003 -6.57742321e-002 -6.98968470e-002
      -1.39483780e-001 -7.51364529e-002 -5.63891828e-002
      -3.85128260e-002 -4.78485823e-002 -6.15932345e-002</_>
    <_>
      -5.09585321e-001 -5.09716928e-001 -5.08750975e-001 2.00124383e-002
      2.44218707e-002 -1.89164281e-002 -1.66934758e-001 -1.61410958e-001
      -1.23055845e-001 2.42322683e-002 1.48965120e-002 -3.80638242e-002</_>
    <_>
      -5.09585321e-001 -5.09716928e-001 -5.08750975e-001
      -4.66542542e-002 -4.61663902e-002 -5.02890050e-002
      -1.86542600e-001 -9.08227265e-002 -8.38401616e-002
      -9.34148133e-002 -8.70642960e-002 -8.90442431e-002</_>
    <_>
      -5.09585321e-001 -5.09716928e-001 -5.08750975e-001
      -6.62620962e-002 -6.57742321e-002 -6.59752786e-002
      -2.10072011e-001 -1.92783505e-001 -1.26977414e-001
      -1.52238339e-001 -1.38044685e-001 -1.32181495e-001</_>
    <_>
      -5.09585321e-001 -5.09716928e-001 -5.08750975e-001
      -1.72144443e-001 -2.22636968e-001 -1.64014488e-001
      -1.00719929e-002 -1.23913288e-002 -3.28597426e-002
      -5.81206977e-002 -6.35348856e-002 -6.15932345e-002</_>
    <_>
      4.90414679e-001 4.90283072e-001 4.91249025e-001 3.17771435e-002
      8.92460346e-004 -7.15172291e-003 1.15418196e-001 1.44471407e-001
      1.82826519e-001 -5.02775311e-002 -5.96132874e-002 -6.15932345e-002</_>
    <_>
      4.90414679e-001 4.90283072e-001 4.91249025e-001 9.45222378e-002
      1.30304217e-001 1.57554150e-001 1.38947606e-001 1.71922386e-001
      2.06355929e-001 -4.24343944e-002 -4.39270139e-002 -4.98285294e-002</_>
    <_>
      -5.09585321e-001 -5.09716928e-001 -5.08750975e-001
      -7.01836646e-002 -7.36173689e-002 -6.59752786e-002
      -1.43405348e-001 -1.22195274e-001 -6.81538880e-002
      -5.81206977e-002 -6.74564540e-002 -6.55148327e-002</_>
    <_>
      -5.09585321e-001 -5.09716928e-001 -5.08750975e-001
      -1.52816772e-002 -2.26369500e-002 -2.67595649e-002
      -1.43405348e-001 -1.73175663e-001 -1.66193098e-001
      -6.59638345e-002 -7.52995908e-002 -7.33579695e-002</_>
    <_>
      -5.09585321e-001 -5.09716928e-001 -5.08750975e-001
      -1.92032456e-002 -3.83232534e-002 -4.63674366e-002
      -1.08111233e-001 -1.33959979e-001 -1.26977414e-001
      -5.81206977e-002 -7.52995908e-002 -6.94364011e-002</_>
    <_>
      4.90414679e-001 4.90283072e-001 4.91249025e-001 5.13849854e-002
      2.44218707e-002 -7.38184154e-002 6.05162382e-002 3.46674919e-002
      1.02775097e-002 -6.98854029e-002 -7.52995908e-002 -9.68873799e-002</_>
    <_>
      4.90414679e-001 4.90283072e-001 4.91249025e-001 -1.05477780e-001
      -7.75389373e-002 -1.28720373e-001 1.93849564e-001 1.05255723e-001
      2.14199066e-001 9.48204994e-002 2.66612172e-002 1.14877343e-001</_>
    <_>
      -5.09585321e-001 -5.09716928e-001 -5.08750975e-001
      -1.52536601e-001 -1.32440895e-001 -1.01269394e-001
      -8.45818222e-002 -5.16070426e-002 -5.63891828e-002
      -3.45912576e-002 -3.60838771e-002 -6.15932345e-002</_>
    <_>
      4.90414679e-001 4.90283072e-001 4.91249025e-001 -1.52816772e-002
      -1.87153816e-002 -1.10732913e-002 5.61428070e-003 -6.26623631e-004
      -4.07029092e-002 -5.81206977e-002 -5.56917191e-002
      -6.94364011e-002</_>
    <_>
      -5.09585321e-001 -5.09716928e-001 -5.08750975e-001
      -9.76346433e-002 -6.96958005e-002 -5.81321418e-002
      -9.63465273e-002 -8.69011581e-002 -6.03107512e-002
      -6.20422661e-002 -6.35348856e-002 -6.55148327e-002</_>
    <_>
      4.70806837e-001 4.90283072e-001 4.91249025e-001 -1.52816772e-002
      4.81402874e-003 -3.06811333e-002 3.82084846e-001 2.69961596e-001
      2.18120635e-001 8.54599476e-003 1.48965120e-002 -1.45344138e-002</_>
    <_>
      4.90414679e-001 4.90283072e-001 4.91249025e-001 5.92281222e-002
      4.81402874e-003 7.52012134e-002 -4.53661382e-002 -1.23913288e-002
      -1.71734691e-002 -3.85128260e-002 -4.39270139e-002
      -1.84559822e-002</_>
    <_>
      -5.09585321e-001 -5.09716928e-001 -5.08750975e-001
      -9.37130749e-002 -8.53820741e-002 -5.81321418e-002 9.53584909e-003
      -6.26623631e-004 -1.71734691e-002 -6.59638345e-002
      -6.35348856e-002 -6.15932345e-002</_>
    <_>
      -5.09585321e-001 -5.09716928e-001 -5.08750975e-001
      -1.25085622e-001 -1.75578147e-001 -1.71857625e-001
      -4.53661382e-002 -4.37639058e-002 4.16500568e-002 -6.20422661e-002
      -5.96132874e-002 -7.33579695e-002</_>
    <_>
      4.90414679e-001 4.90283072e-001 4.91249025e-001 1.21693015e-002
      8.73559713e-003 1.24561191e-002 1.31104469e-001 8.56478810e-002
      1.39689267e-001 -6.20422661e-002 -6.74564540e-002 -6.15932345e-002</_>
    <_>
      4.90414679e-001 4.90283072e-001 4.91249025e-001 5.13849854e-002
      2.83434391e-002 5.55933714e-002 9.58103538e-002 9.34910178e-002
      1.27924562e-001 -5.41990995e-002 -5.96132874e-002 -8.90442431e-002</_>
    <_>
      4.90414679e-001 4.90283072e-001 4.91249025e-001 9.84438062e-002
      9.89316702e-002 3.99070978e-002 1.27182901e-001 1.13098860e-001
      9.26304460e-002 -2.67481208e-002 -3.21623087e-002 -4.19853926e-002</_>
    <_>
      4.90414679e-001 4.90283072e-001 4.91249025e-001 2.04326153e-001
      1.22461081e-001 9.48090553e-002 5.61428070e-003 -4.54819202e-003
      1.41990781e-002 -5.02775311e-002 -4.39270139e-002 -4.59069610e-002</_>
    <_>
      4.90414679e-001 4.90283072e-001 4.91249025e-001 3.56987119e-002
      4.79512811e-002 -1.10732913e-002 9.58103538e-002 1.13098860e-001
      1.24002993e-001 -4.63559628e-002 -4.78485823e-002 -6.94364011e-002</_>
    <_>
      4.90414679e-001 4.90283072e-001 4.91249025e-001 1.37659490e-001
      1.42068923e-001 8.30443501e-002 3.69868279e-002 1.89812183e-002
      3.38069201e-002 -9.34148133e-002 -1.06672138e-001 -1.00808948e-001</_>
    <_>
      4.90414679e-001 4.90283072e-001 4.91249025e-001 1.65110469e-001
      1.45990491e-001 8.30443501e-002 1.19339764e-001 9.34910178e-002
      6.12578988e-002 -3.06696892e-002 -4.78485823e-002 -4.59069610e-002</_>
    <_>
      4.86493111e-001 4.90283072e-001 3.30464721e-001 -7.01836646e-002
      -7.36173689e-002 -7.38184154e-002 4.09083962e-002 8.17263126e-002
      4.94931936e-002 -3.45912576e-002 -3.60838771e-002 -4.98285294e-002</_>
    <_>
      4.62963700e-001 4.90283072e-001 4.91249025e-001 -8.97915065e-002
      -1.01068348e-001 -8.16615522e-002 2.05614269e-001 1.91530228e-001
      1.35767698e-001 -6.59638345e-002 -7.13780224e-002 -6.94364011e-002</_>
    <_>
      4.74728405e-001 4.90283072e-001 4.91249025e-001 -6.23405278e-002
      -1.47938132e-002 -3.46027315e-002 1.97771132e-001 2.03294933e-001
      1.55375540e-001 -6.20422661e-002 -4.78485823e-002 -6.15932345e-002</_>
    <_>
      4.90414679e-001 4.90283072e-001 4.91249025e-001 -7.43854046e-003
      -1.99107558e-001 -9.34262574e-002 -2.57582664e-002 3.28785121e-001
      2.84787297e-001 -3.85128260e-002 1.09749436e-002 8.99499655e-003</_>
    <_>
      4.90414679e-001 4.90283072e-001 4.91249025e-001 -2.07438558e-001
      -1.91264421e-001 -2.03230172e-001 1.19339764e-001 1.05255723e-001
      1.24002993e-001 -3.06696892e-002 -4.39270139e-002 -4.59069610e-002</_>
    <_>
      -5.09585321e-001 -5.09716928e-001 -5.08750975e-001
      -5.84189594e-002 -5.79310954e-002 -4.63674366e-002
      -6.15042448e-003 -2.02344656e-002 -4.07029092e-002
      -8.16501081e-002 -7.92211592e-002 -9.29658115e-002</_>
    <_>
      -5.09585321e-001 -5.09716928e-001 -5.08750975e-001
      -1.01556212e-001 -1.01068348e-001 -9.73478258e-002
      -6.49739802e-002 -6.33717477e-002 -4.46244776e-002
      -7.38069713e-002 -6.35348856e-002 -5.37500978e-002</_>
    <_>
      4.90414679e-001 4.90283072e-001 4.91249025e-001 9.45222378e-002
      1.14617944e-001 1.63776875e-002 8.40456486e-002 7.38831758e-002
      1.04395151e-001 -5.41990995e-002 -7.13780224e-002 -5.37500978e-002</_>
    <_>
      4.90414679e-001 4.90283072e-001 4.91249025e-001 9.84438062e-002
      9.50101018e-002 9.48090553e-002 5.65946698e-002 3.85890603e-002
      3.77284884e-002 -1.89049840e-002 -3.21623087e-002 -2.23775506e-002</_>
    <_>
      4.90414679e-001 4.90283072e-001 4.91249025e-001 8.27575326e-002
      1.14617944e-001 7.91227818e-002 5.61428070e-003 1.50596499e-002
      -1.48719549e-003 -4.63559628e-002 -4.78485823e-002
      -5.37500978e-002</_>
    <_>
      4.90414679e-001 4.90283072e-001 4.91249025e-001 -1.92032456e-002
      -2.26369500e-002 -6.59752786e-002 6.83593750e-002 1.17020428e-001
      3.00473571e-001 -2.67481208e-002 -3.21623087e-002 -7.33579695e-002</_>
    <_>
      -5.09585321e-001 -5.09716928e-001 -5.08750975e-001
      -7.41052330e-002 -6.96958005e-002 -6.98968470e-002
      -1.23797506e-001 -1.26116842e-001 -1.19134277e-001
      -7.77285397e-002 -6.74564540e-002 -8.12011063e-002</_>
    <_>
      -5.05663753e-001 -5.09716928e-001 -5.08750975e-001
      -3.09679806e-002 -3.44016850e-002 -4.63674366e-002
      -1.35562211e-001 -1.30038410e-001 -1.07369572e-001
      -3.85128260e-002 -4.39270139e-002 -5.37500978e-002</_>
    <_>
      -5.09585321e-001 -5.09716928e-001 -5.08750975e-001
      -3.88111174e-002 -4.61663902e-002 -5.02890050e-002
      -1.23797506e-001 -1.30038410e-001 -1.03448004e-001
      -5.02775311e-002 -7.13780224e-002 -6.94364011e-002</_>
    <_>
      -5.09585321e-001 -5.09716928e-001 -5.08750975e-001
      -6.23405278e-002 -6.18526638e-002 -7.38184154e-002
      -2.06150442e-001 -1.96705073e-001 -1.93644077e-001
      -5.41990995e-002 -6.74564540e-002 -6.55148327e-002</_>
    <_>
      -5.09585321e-001 -5.09716928e-001 -5.08750975e-001
      -2.70464122e-002 -3.04801166e-002 -3.46027315e-002
      -3.36014330e-002 -3.19992006e-002 -3.28597426e-002
      -5.41990995e-002 -5.96132874e-002 -6.15932345e-002</_>
    <_>
      -5.09585321e-001 -5.09716928e-001 -5.08750975e-001 4.04596329e-004
      4.81402874e-003 -1.49948597e-002 -1.39483780e-001 -1.30038410e-001
      -1.26977414e-001 -3.06696892e-002 -4.00054455e-002
      -4.59069610e-002</_>
    <_>
      -5.09585321e-001 -5.09716928e-001 -5.08750975e-001
      -1.52816772e-002 -1.08722448e-002 -2.28379965e-002
      -2.06150442e-001 -1.84940368e-001 -2.21095055e-001
      -5.02775311e-002 -5.56917191e-002 -6.15932345e-002</_>
    <_>
      -5.09585321e-001 -5.09716928e-001 -5.08750975e-001
      -4.27326858e-002 -4.61663902e-002 -4.63674366e-002
      -1.43405348e-001 -1.37881547e-001 -1.54428393e-001
      -5.81206977e-002 -6.74564540e-002 -6.94364011e-002</_>
    <_>
      -5.09585321e-001 -5.09716928e-001 -5.08750975e-001
      -8.19483697e-002 -1.04989916e-001 -1.05190963e-001
      -6.10524118e-002 -5.55286109e-002 -6.03107512e-002
      -6.20422661e-002 -6.35348856e-002 -6.94364011e-002</_>
    <_>
      -5.09585321e-001 -5.09716928e-001 -5.08750975e-001
      -6.62620962e-002 -8.14605057e-002 -3.85242999e-002 2.91436911e-002
      1.89812183e-002 -9.33033228e-003 -3.45912576e-002 -3.60838771e-002
      -4.59069610e-002</_>
    <_>
      4.90414679e-001 4.90283072e-001 4.91249025e-001 4.04596329e-004
      -3.02910805e-003 2.02992558e-002 3.30652595e-002 3.46674919e-002
      -1.71734691e-002 -5.02775311e-002 -6.74564540e-002
      -7.72795379e-002</_>
    <_>
      4.90414679e-001 4.90283072e-001 4.91249025e-001 -5.44973910e-002
      -4.22448218e-002 -8.16615522e-002 2.64437795e-001 2.15059638e-001
      2.73022592e-001 1.18349910e-001 1.16857290e-001 1.65857732e-001</_>
    <_>
      4.90414679e-001 4.90283072e-001 4.91249025e-001 1.02365375e-001
      1.18539512e-001 6.34365082e-002 9.58103538e-002 4.25106287e-002
      6.35594130e-003 -5.81206977e-002 -5.96132874e-002 -7.72795379e-002</_>
    <_>
      4.90414679e-001 4.90283072e-001 4.91249025e-001 1.02365375e-001
      1.22461081e-001 9.48090553e-002 -2.22885609e-003 1.11380816e-002
      -1.32519007e-002 -3.06696892e-002 -4.00054455e-002
      -4.19853926e-002</_>
    <_>
      4.90414679e-001 4.90283072e-001 4.91249025e-001 5.53065538e-002
      1.02853239e-001 2.42208242e-002 5.65946698e-002 1.68000817e-001
      3.77284884e-002 -5.02775311e-002 -4.39270139e-002 -4.98285294e-002</_>
    <_>
      4.90414679e-001 4.90283072e-001 4.91249025e-001 6.31496906e-002
      4.40297127e-002 4.38286662e-002 1.23261333e-001 1.17020428e-001
      4.94931936e-002 -5.81206977e-002 -6.35348856e-002 -5.76716661e-002</_></support_vectors>
  <decision_functions>
    <_>
      <sv_count>125</sv_count>
      <rho>-6.7231521991266452e-001</rho>
      <alpha>
        1.2868107545835668e+000 2.5000000372529030e+000
        2.3715537683656138e+000 2.1315153463197269e+000
        2.4691556184686836e+000 2.5000000372529030e+000
        2.5000000372529030e+000 2.5000000372529030e+000
        2.3496775627162645e+000 2.4569534336237515e+000
        2.4756366961702807e+000 2.4917970327510952e+000
        2.3811981107394389e+000 2.5000000372529030e+000
        1.8980660675074001e+000 2.5000000372529030e+000
        2.4520066487949328e+000 2.4879742713901534e+000
        2.4713614457984838e+000 2.5000000372529030e+000
        2.5000000372529030e+000 2.5000000372529030e+000
        2.5000000372529030e+000 2.4405292522627984e+000
        2.4798986450517622e+000 2.4748497865309713e+000
        2.4750474576738055e+000 2.5000000372529030e+000
        2.4695914976314532e+000 2.4430245220366076e+000
        1.9429402203824786e-001 2.4423374514263778e+000
        2.4608433503845917e+000 2.5000000372529030e+000
        2.4857427795600611e+000 2.5000000372529030e+000
        9.1016242025389715e-002 2.4940200323033892e+000
        2.5000000372529030e+000 2.3776276864217132e+000
        2.4864601870219913e+000 2.4463134095457368e+000
        2.4304655033923632e+000 2.4659110881854018e+000
        2.4998768309019361e+000 2.3282758957708403e+000
        2.5000000372529030e+000 2.5000000372529030e+000
        2.5000000372529030e+000 2.5000000372529030e+000
        2.4249529641489183e+000 2.3965798331412116e+000
        2.4939022411247174e+000 2.4566125945259252e+000
        2.5000000372529030e+000 2.2078425005825841e+000
        2.5000000372529030e+000 2.4122000252291915e+000
        2.5000000372529030e+000 2.3977100529926685e+000
        2.4904279976890060e+000 2.4667734763050877e+000
        2.5000000372529030e+000 2.5000000372529030e+000
        2.4774739465285021e+000 2.5000000372529030e+000
        2.5000000372529030e+000 2.4603802120190768e+000
        2.5000000372529030e+000 9.1358059945818582e-002
        2.4592341938861959e+000 2.5000000372529030e+000
        2.5000000372529030e+000 2.4673752214108720e+000
        2.4225350746144541e+000 2.4219515888048950e+000
        2.4551774038472729e+000 6.0981760109803673e-001
        2.4661893166685878e+000 2.5000000372529030e+000
        2.3029205742349732e+000 2.4875491728865038e+000
        2.5000000372529030e+000 2.4182601324872306e+000
        2.4774712644621713e+000 -1.2868107545835668e+000
        -4.7156947066777271e+000 -9.5406174217702571e+000
        -2.4713614457984838e+000 -2.3282758957708403e+000
        -1.0000000149011612e+001 -2.5000000372529030e+000
        -4.9581175713679588e+000 -7.4029320928324669e+000
        -9.7972453187740758e+000 -2.4771352315399922e+000
        -2.5000000372529030e+000 -1.0000000149011612e+001
        -2.5000000372529030e+000 -4.9549243942973753e+000
        -2.5000000372529030e+000 -2.3715537683656138e+000
        -9.9166068227193627e+000 -2.5000000372529030e+000
        -2.5000000372529030e+000 -2.4879742713901534e+000
        -2.4551774038472729e+000 -2.5000000372529030e+000
        -2.4988359367615982e+000 -1.0000000149011612e+001
        -1.0000000149011612e+001 -9.1494939749114170e+000
        -1.0000000149011612e+001 -2.5000000372529030e+000
        -1.0000000149011612e+001 -1.0000000149011612e+001
        -1.0000000149011612e+001 -2.4370549916526638e+000
        -2.5000000372529030e+000 -2.4940200323033892e+000
        -2.3029205742349732e+000 -2.5013299207692423e+000
        -2.4756366961702807e+000 -2.4904279976890060e+000
        -2.4603802120190768e+000</alpha>
      <index>
        0 1 2 3 4 5 6 7 8 9 10 11 12 13 14 15 16 17 18 19 20 21 22 23 24
        25 26 27 28 29 30 31 32 33 34 35 36 37 38 39 40 41 42 43 44 45
        46 47 48 49 50 51 52 53 54 55 56 57 58 59 60 61 62 63 64 65 66
        67 68 69 70 71 72 73 74 75 76 77 78 79 80 81 82 83 84 85 86 87
        88 89 90 91 92 93 94 95 96 97 98 99 100 101 102 103 104 105 106
        107 108 109 110 111 112 113 114 115 116 117 118 119 120 121 122
        123 124</index></_></decision_functions></my_svm>
</opencv_storage>
