<?xml version="1.0"?>
<opencv_storage>
<my_svm type_id="opencv-ml-svm">
  <svm_type>C_SVC</svm_type>
  <kernel><type>RBF</type>
    <gamma>5.0000000000000000e-001</gamma></kernel>
  <C>1.2500000000000000e+001</C>
  <term_criteria><epsilon>2.2204460492503131e-016</epsilon>
    <iterations>100</iterations></term_criteria>
  <var_all>15</var_all>
  <var_count>15</var_count>
  <class_count>2</class_count>
  <class_labels type_id="opencv-matrix">
    <rows>1</rows>
    <cols>2</cols>
    <dt>i</dt>
    <data>
      0 1</data></class_labels>
  <class_weights type_id="opencv-matrix">
    <rows>1</rows>
    <cols>2</cols>
    <dt>d</dt>
    <data>
      2.4374999105930328e+000 1.0062500089406967e+001</data></class_weights>
  <sv_total>143</sv_total>
  <support_vectors>
    <_>
      -5.09589732e-001 -5.09234607e-001 -5.09765506e-001
      -3.32832336e-004 -9.95397568e-005 -3.16679478e-004
      -5.44428825e-004 -3.28770280e-003 -5.31554222e-004 3.81350517e-004
      4.45723534e-004 4.25398350e-004 -2.75344133e-001 -3.35065365e-001
      -5.54563761e-001</_>
    <_>
      -5.09589732e-001 -5.09234607e-001 -5.09765506e-001
      -5.13132513e-002 -6.67662323e-002 -3.56108248e-002
      -4.46602702e-003 -3.28770280e-003 7.31158257e-003 -3.54024768e-003
      -7.39744306e-003 -7.41776824e-003 -1.14559814e-001
      -7.23202527e-002 -1.03583366e-001</_>
    <_>
      -5.09589732e-001 -5.09234607e-001 -5.09765506e-001 7.51030445e-003
      1.55867338e-002 7.52645731e-003 -5.93679845e-002 -8.56406391e-002
      -2.79825628e-002 8.22448730e-003 1.22104287e-002 8.26853514e-003
      -8.71088356e-002 -5.66339791e-002 -1.33872628e-002</_>
    <_>
      4.92363989e-001 4.92363155e-001 4.93188262e-001 1.15393996e-002
      1.96554661e-002 2.73790359e-002 7.24881887e-003 4.70364094e-003
      2.29890347e-002 5.28156757e-004 -3.30385566e-003 5.69880009e-004
      1.76129028e-001 1.40268087e-001 1.59179032e-001</_>
    <_>
      4.49226737e-001 4.92363155e-001 1.75541222e-001 -7.86567032e-002
      -8.62269104e-002 -6.28170669e-002 3.87640953e-001 3.30193818e-001
      4.26910579e-001 1.65234029e-001 1.88853025e-001 7.11581111e-002
      7.41682500e-002 1.01052403e-001 9.25123692e-002</_>
    <_>
      4.92363989e-001 4.92363155e-001 4.93188262e-001 3.69626284e-003
      7.89076090e-003 -7.19428062e-005 -5.94317913e-004 7.82072544e-004
      -5.40375710e-004 5.28156757e-004 6.17742538e-004 5.69880009e-004
      1.56521186e-001 1.71640635e-001 1.94473147e-001</_>
    <_>
      4.92363989e-001 4.92363155e-001 4.93188262e-001 1.15393996e-002
      2.35770345e-002 2.73790359e-002 1.90135241e-002 2.82330513e-002
      5.04400134e-002 4.44972515e-003 4.53931093e-003 1.62561536e-002
      1.64364323e-001 1.48111224e-001 1.74865305e-001</_>
    <_>
      4.92363989e-001 4.92363155e-001 4.93188262e-001 5.85982203e-002
      7.45574236e-002 3.91437411e-002 4.64645028e-002 5.56840301e-002
      3.86753082e-002 -1.51581466e-002 -1.50685608e-002 -1.90379918e-002
      1.44756481e-001 1.36346519e-001 1.86630011e-001</_>
    <_>
      4.92363989e-001 4.92363155e-001 4.93188262e-001 5.07550836e-002
      4.31848764e-002 2.73790359e-002 -4.51591611e-003 -7.06109405e-003
      -4.46197391e-003 -7.31500983e-003 -7.22542405e-003
      -7.27328658e-003 1.21227071e-001 1.28503382e-001 1.70943737e-001</_>
    <_>
      4.92363989e-001 4.92363155e-001 4.93188262e-001 -2.25305557e-004
      4.76241112e-005 5.48300147e-002 7.24881887e-003 4.39193249e-002
      7.39694238e-002 -3.39344144e-003 -7.22542405e-003 -2.29595602e-002
      2.74168253e-001 2.26542622e-001 1.78786874e-001</_>
    <_>
      4.92363989e-001 4.92363155e-001 4.93188262e-001 3.69626284e-003
      1.57338977e-002 3.91437411e-002 -5.94317913e-004 7.82072544e-004
      5.43615818e-002 5.28156757e-004 6.17742538e-004 1.23345852e-002
      2.19266281e-001 1.95170045e-001 1.63100600e-001</_>
    <_>
      4.92363989e-001 4.92363155e-001 4.93188262e-001 -2.25305557e-004
      4.76241112e-005 3.13006043e-002 1.11703873e-002 2.43114829e-002
      8.96556973e-002 5.28156757e-004 -3.30385566e-003 -3.35171819e-003
      2.03580007e-001 1.83405340e-001 1.70943737e-001</_>
    <_>
      -5.11628747e-001 -5.12653172e-001 -5.09641349e-001
      -1.21886462e-001 -1.09760433e-001 -5.50759733e-002
      -1.76507533e-002 -4.55732048e-002 1.87262297e-002 -3.11246216e-002
      -1.13769472e-002 -3.58060002e-003 -4.08244729e-002
      -2.91428268e-002 -3.21309268e-002</_>
    <_>
      -5.11628747e-001 -5.12653172e-001 -5.09641349e-001
      -1.60041153e-002 -1.17212236e-002 -2.76249945e-002 2.54865289e-002
      2.50150561e-002 7.36281872e-002 2.47955322e-004 8.23092461e-003
      -1.14237368e-002 -6.82754517e-002 -6.05153888e-002
      -5.17387688e-002</_>
    <_>
      -5.11628747e-001 -5.12653172e-001 -5.09641349e-001
      -1.20825469e-002 -1.56427920e-002 -1.58602893e-002 2.54865289e-002
      4.07013297e-002 3.44125032e-002 2.47955322e-004 3.87787819e-004
      3.40998173e-004 -8.00401568e-002 -4.87506837e-002 -3.21309268e-002</_>
    <_>
      -5.11628747e-001 -5.12653172e-001 -5.09641349e-001
      -4.34550941e-002 -3.52506340e-002 -8.01715255e-003
      -4.90233004e-002 -6.51810467e-002 -4.79404628e-002 4.16952372e-003
      -7.45537877e-003 3.40998173e-004 -7.21970201e-002 -4.87506837e-002
      -6.74250424e-002</_>
    <_>
      -5.11628747e-001 -5.12653172e-001 -1.21406049e-001 7.52532482e-003
      1.18082166e-002 3.74758244e-003 -3.72585952e-002 -5.73379099e-002
      -1.38136536e-001 -1.54383481e-002 -2.31416523e-002
      -2.31884420e-002 -7.61185884e-002 -4.09075469e-002
      -7.58349895e-004</_>
    <_>
      -5.11628747e-001 -5.12653172e-001 -5.09641349e-001
      -1.20825469e-002 7.88664818e-003 1.15907192e-002 -1.76507533e-002
      5.40721416e-003 -8.81612301e-004 1.59342289e-002 2.78387666e-002
      1.99488401e-002 -6.43538833e-002 -2.91428268e-002 -3.60524952e-002</_>
    <_>
      -5.11628747e-001 -5.12653172e-001 -5.09641349e-001
      -2.38472521e-002 -1.95643604e-002 -1.19387209e-002
      -2.15723217e-002 -6.35752082e-003 6.96152449e-003 4.16952372e-003
      3.87787819e-004 4.26256657e-003 -8.00401568e-002 -4.87506837e-002
      -4.78172004e-002</_>
    <_>
      -5.11628747e-001 -5.12653172e-001 -5.09641349e-001 3.60375643e-003
      1.18082166e-002 7.66915083e-003 -1.96444988e-003 -1.81222260e-002
      2.26477981e-002 2.47955322e-004 3.87787819e-004 -7.50216842e-003
      -9.18048695e-002 -3.30643952e-002 -3.60524952e-002</_>
    <_>
      -5.11628747e-001 -5.12653172e-001 -5.09641349e-001
      -3.17811966e-004 -1.17212236e-002 3.74758244e-003 5.87868690e-003
      9.32878256e-003 3.03995609e-003 2.47955322e-004 -3.53381038e-003
      -3.58060002e-003 -9.18048695e-002 -4.09075469e-002
      -3.99740636e-002</_>
    <_>
      -5.11628747e-001 -5.12653172e-001 -5.09641349e-001 7.52532482e-003
      3.96507978e-003 1.94338560e-002 -1.96444988e-003 -6.35752082e-003
      -4.80321050e-003 4.16952372e-003 1.21524930e-002 1.21057034e-002
      -9.57264379e-002 -4.09075469e-002 -3.99740636e-002</_>
    <_>
      -5.11628747e-001 -5.12653172e-001 -5.09641349e-001
      -4.23941016e-003 -7.79965520e-003 -4.09558415e-003
      -1.37291849e-002 5.40721416e-003 -8.81612301e-004 2.47955322e-004
      3.87787819e-004 4.26256657e-003 -8.39617327e-002 -4.09075469e-002
      -7.13466108e-002</_>
    <_>
      -5.11628747e-001 -5.12653172e-001 -5.09641349e-001
      -4.23941016e-003 -1.95643604e-002 7.66915083e-003 -5.88604808e-003
      -2.43595243e-003 -8.81612301e-004 2.47955322e-004 -3.53381038e-003
      4.26256657e-003 -8.78833011e-002 -6.05153888e-002 -6.74250424e-002</_>
    <_>
      -5.11628747e-001 -5.12653172e-001 -5.09641349e-001
      -4.23941016e-003 3.96507978e-003 3.74758244e-003 -9.80761647e-003
      9.32878256e-003 -4.80321050e-003 2.47955322e-004 -3.53381038e-003
      3.40998173e-004 -9.18048695e-002 -4.87506837e-002 -7.52681792e-002</_>
    <_>
      -5.11628747e-001 -5.12653172e-001 -5.09641349e-001
      -1.20825469e-002 7.88664818e-003 3.74758244e-003 -4.90233004e-002
      -4.55732048e-002 -4.80321050e-003 8.09109211e-003 1.21524930e-002
      4.26256657e-003 -6.43538833e-002 -4.09075469e-002 -6.35034740e-002</_>
    <_>
      -5.11628747e-001 -4.53829646e-001 -5.09641349e-001 7.52532482e-003
      1.57297850e-002 7.66915083e-003 -1.07846826e-001 -8.08673203e-002
      -4.40188944e-002 -1.15167797e-002 3.87787819e-004 3.40998173e-004
      -3.69029045e-002 -2.12996900e-002 -3.21309268e-002</_>
    <_>
      -5.09107530e-001 -5.09605408e-001 -4.72406864e-001
      -1.80642933e-001 -2.03925997e-001 -1.60946578e-001
      -3.97367775e-002 -5.01550138e-002 -2.79534161e-002
      -1.91736519e-002 -1.91195905e-002 -1.90968812e-002
      -3.66506428e-002 -1.54395103e-002 1.19653940e-002</_>
    <_>
      4.90892470e-001 4.90394592e-001 4.92299020e-001 1.37004137e-001
      1.41172051e-001 9.39553976e-002 3.08514833e-002 -3.09619308e-003
      7.34072924e-003 1.21989250e-002 8.33141804e-003 1.22756958e-002
      6.53101504e-002 8.65212679e-002 1.02161467e-001</_>
    <_>
      4.90892470e-001 4.90394592e-001 4.92299020e-001 6.24943376e-002
      1.17602944e-002 7.43475556e-002 1.60263240e-001 8.31783414e-002
      1.72046602e-001 8.27735662e-003 1.22529864e-002 -3.41060758e-003
      6.92317188e-002 9.04428363e-002 1.02161467e-001</_>
    <_>
      -5.09107530e-001 -5.09605408e-001 -5.07700980e-001 7.59238005e-003
      4.70544100e-002 2.33671665e-002 -4.75799143e-002 -3.83903086e-002
      -1.61887109e-002 3.96499038e-002 3.97039652e-002 3.58051062e-002
      -9.19964910e-003 1.98546052e-002 2.76516676e-002</_>
    <_>
      4.92220223e-001 4.91949916e-001 4.92536902e-001 2.33834982e-002
      1.97350979e-002 -3.92851233e-003 6.19661212e-002 4.81242537e-002
      8.54182839e-002 -3.43182683e-003 -3.37955356e-003 -7.25701451e-003
      1.20645374e-001 1.34505898e-001 1.52454138e-001</_>
    <_>
      -3.43073905e-001 -3.51187348e-001 -5.07463098e-001
      -1.97537839e-002 -3.79434228e-003 -6.91413879e-006
      -2.03868449e-002 -2.85616517e-003 -8.56220722e-004 1.61760449e-002
      2.01498866e-002 8.42928886e-003 -1.66095346e-002 -6.67056441e-003
      -3.18596065e-002</_>
    <_>
      4.92220223e-001 4.91949916e-001 4.92536902e-001 4.69129086e-002
      2.75782347e-002 1.96009278e-002 4.62798476e-002 4.42026854e-002
      3.44378948e-002 -1.12749636e-002 -3.37955356e-003 -1.11785829e-002
      1.32410079e-001 1.46270603e-001 1.75983548e-001</_>
    <_>
      4.92220223e-001 4.91949916e-001 4.92536902e-001 2.73050666e-002
      4.04882431e-003 3.91465425e-003 -2.03868449e-002 -6.77773356e-003
      6.98691607e-003 1.22544765e-002 5.42044640e-004 5.86152077e-004
      1.12802237e-001 1.42349035e-001 1.72061980e-001</_>
    <_>
      4.92220223e-001 4.91949916e-001 4.92536902e-001 3.12266350e-002
      4.71860766e-002 3.13656330e-002 1.09857321e-002 2.85164118e-002
      1.48300529e-002 -3.43182683e-003 -7.30112195e-003 -1.11785829e-002
      1.55939490e-001 1.34505898e-001 1.79905117e-001</_>
    <_>
      4.92220223e-001 4.91949916e-001 4.92536902e-001 3.51482034e-002
      6.67939186e-002 9.80322957e-002 7.06416368e-003 1.06543303e-003
      -2.43856609e-002 8.33290815e-003 8.38518143e-003 1.62724257e-002
      1.36331648e-001 1.14898056e-001 1.28924727e-001</_>
    <_>
      -5.05768716e-001 -5.07216275e-001 -5.06214678e-001
      -5.12144268e-002 -3.13549936e-002 -2.37070024e-002
      -6.39372766e-002 -5.77730834e-002 -3.61759365e-002 4.50074673e-004
      4.67300415e-004 4.35245037e-003 -1.00344107e-001 -6.03123903e-002
      -6.44063056e-002</_>
    <_>
      4.94231284e-001 4.92783725e-001 4.93785322e-001 -2.34007835e-004
      -3.90401483e-003 3.74400616e-003 2.23372579e-002 4.41877246e-002
      4.61770296e-002 -3.47152352e-003 -7.37586617e-003 8.27401876e-003
      2.83969641e-001 2.37726837e-001 1.66966259e-001</_>
    <_>
      4.94231284e-001 4.92783725e-001 4.93785322e-001 3.68756056e-003
      1.75833702e-005 -1.77562237e-004 -1.19215250e-003 1.05047226e-003
      6.96134567e-003 4.50074673e-004 4.67300415e-004 -3.49071622e-003
      2.44753927e-001 2.33805269e-001 1.66966259e-001</_>
    <_>
      4.94231284e-001 4.92783725e-001 4.93785322e-001 4.29032445e-002
      7.06058145e-002 5.47243953e-002 7.72392154e-002 1.06932819e-001
      5.40201664e-002 1.22147799e-002 -2.30621397e-002 4.30881977e-004
      1.27106875e-001 1.12236619e-001 1.31672144e-001</_>
    <_>
      4.94231284e-001 4.92783725e-001 4.93785322e-001 1.93738341e-002
      3.13901305e-002 2.72734165e-002 2.72941589e-003 1.05047226e-003
      -8.81791115e-004 -3.47152352e-003 -3.45429778e-003
      -3.49071622e-003 2.05538243e-001 1.82824850e-001 1.90495670e-001</_>
    <_>
      -5.05768716e-001 -5.07216275e-001 -5.06214678e-001
      -8.07717443e-003 -7.82558322e-003 -1.77562237e-004
      -2.86431611e-002 1.05047226e-003 3.03977728e-003 -1.13146603e-002
      -3.45429778e-003 -7.41228461e-003 -1.16030380e-001
      -6.81555420e-002 -9.57788527e-002</_>
    <_>
      -7.78721869e-002 -7.55707324e-002 2.29310572e-001 -8.12533498e-003
      7.81011581e-003 3.62420082e-003 7.51733780e-003 1.62081718e-002
      4.27010059e-002 2.39593387e-002 8.31186771e-003 4.33409214e-003
      1.60290599e-002 1.48482919e-002 4.56774831e-002</_>
    <_>
      4.92595077e-001 4.91019726e-001 4.92058039e-001 1.56647384e-001
      1.56870902e-001 1.99806213e-001 -2.02169716e-002 -3.06841433e-002
      -3.17376554e-002 -1.12456977e-002 4.45747375e-003 -7.31590390e-003
      8.98995101e-002 9.12680924e-002 9.78422165e-002</_>
    <_>
      -5.07404923e-001 -5.08980274e-001 -5.07941961e-001 2.33140588e-002
      3.53022814e-002 2.72572041e-002 -2.41385400e-002 -3.06841433e-002
      -1.99729502e-002 5.19037247e-004 5.35905361e-004 5.27262688e-004
      -8.26495141e-002 -4.99083698e-002 -6.29421175e-002</_>
    <_>
      -5.11325300e-001 -5.12289762e-001 -5.13385832e-001
      -8.26804340e-002 -7.06086457e-002 -4.34954464e-002
      -1.40511990e-003 -1.39127672e-002 -1.01721585e-002
      -4.28750813e-002 -5.45959771e-002 -4.29284871e-002
      -2.03250349e-002 -4.90240157e-002 -3.40859294e-002</_>
    <_>
      -5.11325300e-001 -5.12289762e-001 -5.13385832e-001
      -1.14052981e-001 -1.76490992e-001 -1.14083678e-001 3.78105640e-002
      2.92245150e-002 1.72788501e-002 3.16347480e-002 5.12863994e-002
      3.15813422e-002 -1.64034665e-002 -3.33377421e-002 -3.40859294e-002</_>
    <_>
      -5.11325300e-001 -5.12289762e-001 -5.13385832e-001
      -1.20922029e-002 -7.86355138e-003 -4.27976251e-003 5.34968376e-002
      4.49107885e-002 2.90435553e-002 -7.58096576e-003 -7.53715634e-003
      -3.71280313e-003 -8.30701441e-002 -8.43181312e-002
      -6.93800449e-002</_>
    <_>
      -5.11325300e-001 -5.12289762e-001 -5.13385832e-001
      -1.99353397e-002 3.90118361e-003 -3.17307413e-002 4.95752692e-002
      4.88323569e-002 5.25729656e-002 -2.32672393e-002 -4.28312719e-002
      -3.50853503e-002 -3.20897400e-002 -5.88676333e-003 9.05132294e-003</_>
    <_>
      -5.11325300e-001 -5.12289762e-001 -5.13385832e-001 2.32019424e-002
      2.35090256e-002 1.14065409e-002 -1.70914233e-002 -1.39127672e-002
      -1.01721585e-002 2.62200832e-004 3.06010246e-004 2.08795071e-004
      -1.02677986e-001 -8.43181312e-002 -1.08595729e-001</_>
    <_>
      -5.11325300e-001 -5.12289762e-001 -5.13385832e-001
      -4.24906611e-003 -2.03847885e-005 -3.58164310e-004
      -9.24828649e-003 -2.14806199e-003 -6.25059009e-003 2.62200832e-004
      3.06010246e-004 2.08795071e-004 -1.41893670e-001 -9.21612680e-002
      -8.50663185e-002</_>
    <_>
      -5.11325300e-001 -5.12289762e-001 -5.13385832e-001
      -3.27467918e-004 -3.94198298e-003 -3.58164310e-004
      -9.24828649e-003 -3.74421775e-002 -6.25059009e-003 2.62200832e-004
      3.06010246e-004 2.08795071e-004 -1.10521123e-001 -7.25534260e-002
      -6.15369081e-002</_>
    <_>
      -5.11325300e-001 -5.12289762e-001 -5.13385832e-001
      -8.17063451e-003 -3.94198298e-003 -3.56523097e-002 2.21242905e-002
      2.53029466e-002 1.23161197e-001 2.62200832e-004 3.06010246e-004
      -1.54775083e-002 -1.06599554e-001 -7.25534260e-002
      -1.05565190e-002</_>
    <_>
      -5.11325300e-001 -5.12289762e-001 -5.13385832e-001 3.59410048e-003
      1.95874572e-002 3.56340408e-003 -1.70914233e-002 -1.78343356e-002
      -7.68388212e-002 4.18376923e-003 8.14914703e-003 4.13036346e-003
      -7.13054389e-002 -4.11808789e-002 1.20818615e-003</_>
    <_>
      -5.11325300e-001 -5.12289762e-001 -5.13385832e-001
      -4.24906611e-003 -3.94198298e-003 -3.58164310e-004
      -1.40511990e-003 1.77353621e-003 -2.32899189e-003 2.62200832e-004
      3.06010246e-004 2.08795071e-004 -1.37972102e-001 -7.64749944e-002
      -6.54584765e-002</_>
    <_>
      -5.11325300e-001 -5.12289762e-001 -5.13385832e-001
      -3.27467918e-004 3.90118361e-003 -8.20133090e-003 -9.24828649e-003
      -9.99119878e-003 -1.01721585e-002 2.62200832e-004 3.06010246e-004
      -3.71280313e-003 -1.30128965e-001 -7.25534260e-002
      -3.01643610e-002</_>
    <_>
      -5.11325300e-001 -5.12289762e-001 -5.13385832e-001
      -3.27467918e-004 -3.94198298e-003 -2.78091729e-002
      -1.40511990e-003 -6.06963038e-003 -1.40937269e-002 4.18376923e-003
      8.14914703e-003 1.98166370e-002 -1.22285828e-001 -6.47102892e-002
      -2.62427926e-002</_>
    <_>
      -4.76031184e-001 -4.76995647e-001 -5.13385832e-001 3.88882160e-002
      3.91952991e-002 2.31712461e-002 -3.27776968e-002 -3.74421775e-002
      -1.01721585e-002 -7.58096576e-003 -1.14587247e-002 2.08795071e-004
      -3.99328768e-002 -2.94161737e-002 -4.58506346e-002</_>
    <_>
      -5.11325300e-001 -5.12289762e-001 -5.13385832e-001
      -8.17063451e-003 -7.86355138e-003 -3.58164310e-004
      -5.23855388e-002 -2.56774724e-002 -2.32899189e-003
      -1.54241025e-002 3.06010246e-004 -3.71280313e-003 -1.14442691e-001
      -1.03925973e-001 -1.04674160e-001</_>
    <_>
      -5.11325300e-001 -5.12289762e-001 -5.13385832e-001
      -3.95431817e-002 -5.49223721e-002 -4.74170148e-002
      -6.02286756e-002 -3.74421775e-002 -6.50741160e-002
      -7.58096576e-003 -1.53802931e-002 2.08795071e-004 -4.38544452e-002
      -4.11808789e-002 -2.23212242e-002</_>
    <_>
      -5.11325300e-001 -5.12289762e-001 -5.13385832e-001
      -1.20922029e-002 -7.86355138e-003 -4.27976251e-003
      -7.59149492e-002 -6.09715879e-002 -1.80152953e-002 1.20269060e-002
      1.20707154e-002 8.05193186e-003 -8.69917125e-002 -9.21612680e-002
      -1.04674160e-001</_>
    <_>
      -5.11325300e-001 -5.12289762e-001 -5.13385832e-001
      -4.24906611e-003 -7.86355138e-003 -4.74170148e-002
      -5.32671809e-003 5.69510460e-003 1.59257650e-003 2.62200832e-004
      -7.53715634e-003 -2.33206451e-002 -1.26207396e-001
      -6.47102892e-002 1.20818615e-003</_>
    <_>
      3.59262943e-001 4.87710238e-001 4.86614168e-001 7.51566887e-003
      -1.17851198e-002 3.56340408e-003 1.04477227e-001 1.03734314e-001
      2.90435553e-002 -4.67966497e-002 -4.28312719e-002 -1.93990767e-002
      3.06553543e-002 4.50936258e-002 9.53258276e-002</_>
    <_>
      -5.11325300e-001 -5.12289762e-001 -5.13385832e-001
      -7.09157288e-002 -6.66870773e-002 -7.09464252e-002
      -3.27776968e-002 -9.99119878e-003 2.51219869e-002 4.18376923e-003
      1.59922838e-002 -7.63437152e-003 -2.81681716e-002 -5.88676333e-003
      -6.63495064e-003</_>
    <_>
      -5.11325300e-001 -5.12289762e-001 -4.58483875e-001
      -3.17000449e-002 -2.35498250e-002 -4.34954464e-002 1.20163500e-001
      1.23342156e-001 2.09435701e-001 8.10533762e-003 3.06010246e-004
      -7.63437152e-003 -3.60113084e-002 -2.94161737e-002 1.20818615e-003</_>
    <_>
      -5.11325300e-001 -5.12289762e-001 -5.13385832e-001
      -4.24906611e-003 1.17443204e-002 1.53281093e-002 -7.98365176e-002
      -9.62657034e-002 -5.33094108e-002 4.18376923e-003 3.06010246e-004
      2.08795071e-004 -4.38544452e-002 -2.94161737e-002 -2.23212242e-002</_>
    <_>
      -5.11325300e-001 -5.12289762e-001 -5.13385832e-001
      -1.20922029e-002 -1.17851198e-002 -1.60444677e-002
      -6.41502440e-002 -4.13637459e-002 -5.72309792e-002
      -3.65939736e-003 8.14914703e-003 4.13036346e-003 -3.20897400e-002
      -1.37299001e-002 -2.71338224e-003</_>
    <_>
      4.88674700e-001 4.87710238e-001 4.86614168e-001 9.37901735e-002
      1.25469804e-001 -2.38876045e-002 2.18202710e-001 1.39028430e-001
      1.34925902e-001 -1.15025342e-002 -2.32234299e-002 -7.63437152e-003
      6.20279014e-002 7.25446045e-002 9.14042592e-002</_>
    <_>
      4.88674700e-001 4.87710238e-001 4.86614168e-001 1.80064678e-001
      1.88214898e-001 1.64347708e-001 1.35849774e-001 9.58911777e-002
      1.19239628e-001 2.62200832e-004 4.22757864e-003 4.13036346e-003
      7.77141750e-002 8.43093097e-002 1.07090533e-001</_>
    <_>
      -5.10180175e-001 -5.09341657e-001 -5.08656740e-001
      -2.38629878e-002 -3.53030264e-002 -4.33360636e-002
      -2.42905915e-002 -3.03464234e-002 -4.94095683e-003 3.88383865e-004
      -3.48410010e-003 4.39220667e-003 -1.09100118e-001 -5.72334230e-002
      -5.04199862e-002</_>
    <_>
      -5.09641051e-001 -5.09158492e-001 -5.07493079e-001
      -1.59856379e-002 -1.83582306e-005 1.94091797e-002 -1.26141012e-002
      -1.08233988e-002 -8.44541192e-003 -7.53518939e-003
      -7.44393468e-003 -3.54656577e-003 -1.06962547e-001
      -4.96799350e-002 -5.78103364e-002</_>
    <_>
      -5.10216415e-001 -5.10693133e-001 -5.09682834e-001
      -1.72751337e-001 -1.80316359e-001 -1.25624627e-001
      -2.10151970e-002 -2.98539102e-002 -2.50920355e-002
      -2.31787860e-002 -1.13506615e-002 -7.42015243e-003
      -1.83699876e-002 -3.48908901e-002 -1.00121498e-002</_>
    <_>
      4.89783585e-001 4.89306867e-001 4.90317166e-001 1.80189848e-001
      2.11840510e-001 2.39081264e-001 1.39769137e-001 1.34851992e-001
      1.43535435e-001 6.30957484e-002 6.31591678e-002 5.92465401e-002
      1.11041784e-001 1.06285572e-001 1.03713334e-001</_>
    <_>
      -5.10216415e-001 -5.10693133e-001 -5.09682834e-001
      -2.02298164e-004 1.57620907e-002 1.16302967e-002 -2.10151970e-002
      -4.94617522e-002 -2.90136039e-002 3.50654125e-004 4.14073467e-004
      -3.49858403e-003 -1.16409197e-001 -4.66555953e-002
      -2.56984234e-002</_>
    <_>
      4.89783585e-001 4.89306867e-001 4.90317166e-001 2.33271122e-002
      4.32130694e-002 8.61400962e-002 2.02514231e-001 3.11322570e-001
      2.92555034e-001 8.19379091e-003 2.39434838e-002 2.78739929e-002
      9.53555107e-002 7.49130249e-002 8.80270600e-002</_>
    <_>
      4.60082233e-001 4.91497815e-001 4.89230394e-001 -5.91167510e-002
      -4.70891297e-002 -2.76532471e-002 2.92933464e-001 2.64181077e-001
      1.47098780e-001 3.61740589e-004 -1.12833679e-002 1.21844411e-002
      5.89993894e-002 7.27095604e-002 1.04065657e-001</_>
    <_>
      4.91454780e-001 4.91497815e-001 4.89230394e-001 -8.65677297e-002
      -6.27754033e-002 -1.17849320e-001 2.38031507e-001 1.85749710e-001
      1.23569369e-001 -3.55985761e-003 1.61676407e-002 -7.42343068e-003
      5.89993894e-002 7.27095604e-002 1.00144088e-001</_>
    <_>
      4.91454780e-001 4.91497815e-001 4.89230394e-001 7.81381726e-002
      5.48716784e-002 2.72487402e-002 1.43913865e-001 6.81026578e-002
      6.08242750e-002 2.38911510e-002 2.40107775e-002 1.21844411e-002
      9.42935050e-002 1.15846813e-001 1.31516635e-001</_>
    <_>
      4.91454780e-001 4.91497815e-001 4.89230394e-001 1.36961699e-001
      1.33303046e-001 5.07781506e-002 7.33256340e-002 4.84948158e-002
      3.72948647e-002 -3.10108364e-002 -3.48127782e-002 -2.31097043e-002
      1.17822915e-001 1.43297821e-001 1.47202909e-001</_>
    <_>
      4.91454780e-001 4.91497815e-001 4.89230394e-001 7.02950358e-002
      -2.74812877e-002 7.64089823e-003 3.16462874e-001 3.58298719e-001
      1.94157600e-001 3.95774245e-002 1.61676407e-002 2.00275779e-002
      9.03719366e-002 6.48664236e-002 1.27595067e-001</_>
    <_>
      4.91454780e-001 4.91497815e-001 4.89230394e-001 7.42166042e-002
      2.34991312e-002 5.46997190e-002 1.55678570e-001 1.89671278e-001
      5.69027066e-002 3.95774245e-002 4.36186194e-002 1.61060095e-002
      1.02136642e-001 1.04082108e-001 1.43281341e-001</_>
    <_>
      4.91454780e-001 4.91497815e-001 4.89230394e-001 1.33040130e-001
      1.41146183e-001 1.09601676e-001 1.36070728e-001 5.63379526e-002
      2.55301595e-002 3.17342877e-002 8.32450390e-003 -7.42343068e-003
      8.25287998e-002 1.00160539e-001 1.11908793e-001</_>
    <_>
      4.91454780e-001 4.91497815e-001 4.89230394e-001 1.52647972e-001
      1.21538341e-001 8.60722661e-002 1.39992297e-001 1.46534026e-001
      2.55301595e-002 8.20487738e-003 1.61676407e-002 8.26287270e-003
      1.09979779e-001 9.23174024e-002 1.47202909e-001</_>
    <_>
      4.91454780e-001 4.91497815e-001 4.89230394e-001 1.17353857e-001
      1.25459909e-001 1.15624666e-002 -6.39292896e-002 -1.08367950e-001
      -2.54502594e-002 -4.27755415e-002 -3.87343466e-002
      -2.31097043e-002 5.50778210e-002 7.27095604e-002 1.11908793e-001</_>
    <_>
      4.91454780e-001 4.91497815e-001 4.89230394e-001 -4.73520458e-002
      3.13422680e-002 -3.94179523e-002 1.51757002e-001 9.16320682e-002
      1.43177211e-001 -1.53245628e-002 2.40107775e-002 -2.31097043e-002
      5.11562526e-002 8.05526972e-002 7.66146779e-002</_>
    <_>
      4.91454780e-001 4.91497815e-001 4.89230394e-001 2.71577835e-002
      8.62442255e-002 1.94056034e-002 -9.02733207e-003 -8.09169710e-002
      -3.72149646e-002 1.60480142e-002 4.75401878e-002 3.17922831e-002
      1.09979779e-001 9.23174024e-002 1.31516635e-001</_>
    <_>
      4.91454780e-001 4.91497815e-001 4.89230394e-001 7.02950358e-002
      1.09773636e-001 3.11703086e-002 1.12541318e-001 -6.40717149e-003
      6.08242750e-002 1.60480142e-002 -7.36179948e-003 4.19735909e-004
      7.46856630e-002 5.70232868e-002 1.07987225e-001</_>
    <_>
      4.91454780e-001 4.91497815e-001 4.89230394e-001 1.76177382e-001
      1.52910888e-001 8.21506977e-002 1.04698181e-001 8.37889314e-002
      1.19647801e-001 3.95774245e-002 2.40107775e-002 -3.50186229e-003
      6.68425262e-002 6.87879920e-002 1.07987225e-001</_>
    <_>
      4.91454780e-001 4.91497815e-001 4.89230394e-001 3.50009203e-002
      5.87932467e-002 4.29350138e-002 1.05805397e-002 9.27913189e-003
      5.92231750e-003 -7.48142600e-003 -1.52049363e-002 -1.13449991e-002
      1.64881736e-001 1.58984095e-001 1.58967614e-001</_>
    <_>
      4.91454780e-001 4.91497815e-001 4.89230394e-001 7.54994154e-003
      1.95775628e-002 1.94056034e-002 9.29334760e-002 8.77104998e-002
      2.94517279e-002 -1.92461312e-002 -2.69696414e-002 -1.52665675e-002
      1.45273894e-001 1.35454684e-001 1.55046046e-001</_>
    <_>
      4.93573308e-001 4.92811322e-001 4.94624019e-001 3.76820564e-003
      -7.74201751e-003 1.95806026e-002 -4.36678529e-003 -3.29831243e-003
      -4.26849723e-003 5.56349754e-004 -3.26159596e-003 8.48394632e-003
      1.52958438e-001 1.42374784e-001 1.66985303e-001</_>
    <_>
      4.93573308e-001 4.92811322e-001 4.94624019e-001 7.68977404e-003
      7.94428587e-003 1.56590343e-002 1.91626549e-002 1.23879910e-002
      3.57466936e-003 5.56349754e-004 6.60002232e-004 -3.28078866e-003
      1.41193733e-001 1.46296352e-001 1.70906872e-001</_>
    <_>
      4.93573308e-001 4.92811322e-001 4.94624019e-001 -1.53362751e-004
      1.01149082e-004 -2.72393227e-005 -4.45187092e-004 6.23285770e-004
      -3.46899033e-004 5.56349754e-004 6.60002232e-004 6.40809536e-004
      2.03938827e-001 2.01198310e-001 2.02279419e-001</_>
    <_>
      4.93573308e-001 4.92811322e-001 4.94624019e-001 -1.53362751e-004
      1.01149082e-004 -3.94883752e-003 -4.45187092e-004 6.23285770e-004
      7.49623775e-003 5.56349754e-004 6.60002232e-004 6.40809536e-004
      1.84330985e-001 1.85512036e-001 1.74828440e-001</_>
    <_>
      4.93573308e-001 4.92811322e-001 4.94624019e-001 2.33760476e-002
      1.18658543e-002 2.35021710e-002 1.13195181e-002 8.46642256e-003
      2.31825113e-002 8.39948654e-003 6.60002232e-004 6.40809536e-004
      1.56880006e-001 1.50217921e-001 1.59142166e-001</_>
    <_>
      4.93573308e-001 4.92811322e-001 4.94624019e-001 -4.07496095e-003
      1.01149082e-004 -3.94883752e-003 -4.45187092e-004 6.23285770e-004
      1.53393745e-002 5.56349754e-004 6.60002232e-004 8.48394632e-003
      1.52958438e-001 1.61982626e-001 1.59142166e-001</_>
    <_>
      4.93573308e-001 4.92811322e-001 4.94624019e-001 3.76820564e-003
      4.02271748e-003 2.74237394e-002 -4.45187092e-004 6.23285770e-004
      1.92609429e-002 5.56349754e-004 6.60002232e-004 8.48394632e-003
      1.76487848e-001 1.58061057e-001 1.55220598e-001</_>
    <_>
      4.93573308e-001 4.92811322e-001 4.94624019e-001 3.76820564e-003
      1.01149082e-004 1.17374659e-002 -1.61314905e-002 -1.50630176e-002
      -2.38763392e-002 5.56349754e-004 6.60002232e-004 8.48394632e-003
      1.49036869e-001 1.42374784e-001 1.59142166e-001</_>
    <_>
      4.90410268e-001 4.90765393e-001 4.90234494e-001 7.51030445e-003
      7.74359703e-003 1.92911625e-002 3.08281183e-002 2.02417374e-002
      -8.37472081e-003 -3.54024768e-003 4.36729193e-003 -7.41776824e-003
      8.54401886e-002 1.00228757e-001 8.07303786e-002</_>
    <_>
      -5.11628747e-001 -5.12653172e-001 -5.09641349e-001
      -8.16097856e-003 3.14160585e-002 1.55122876e-002 -6.47095740e-002
      -4.94947731e-002 -3.22541893e-002 -7.59521127e-003
      -3.53381038e-003 3.40998173e-004 -4.86676097e-002 -2.12996900e-002
      -3.21309268e-002</_>
    <_>
      -5.11628747e-001 -5.12653172e-001 -5.09641349e-001
      -2.38472521e-002 -1.95643604e-002 -1.97818577e-002 5.29375076e-002
      7.99170136e-002 6.97066188e-002 4.16952372e-003 4.30935621e-003
      4.26256657e-003 -4.08244729e-002 -2.91428268e-002 -2.42877901e-002</_>
    <_>
      -3.54766011e-001 -5.12653172e-001 -5.09641349e-001
      -1.41494304e-001 -1.29368275e-001 -5.11544049e-002
      -1.00003690e-001 -1.00475162e-001 -5.97051680e-002
      -2.72030532e-002 -2.70632207e-002 -1.14237368e-002
      -1.33734941e-002 -2.12996900e-002 -2.82093585e-002</_>
    <_>
      -5.11628747e-001 -2.61672765e-001 8.00573826e-003 -1.20825469e-002
      -1.95643604e-002 -1.19387209e-002 -9.60821211e-002
      -1.63220257e-001 -1.53822809e-001 -3.67364287e-003
      -1.13769472e-002 3.40998173e-004 -4.47460413e-002 -9.53498483e-003
      1.49279237e-002</_>
    <_>
      4.68763411e-001 4.87346828e-001 4.90358651e-001 7.52532482e-003
      3.14160585e-002 -1.73985958e-004 4.05878663e-001 2.91681707e-001
      2.50098765e-001 6.29930496e-002 7.48975873e-002 4.73998189e-002
      5.72147518e-002 8.06610882e-002 1.05123997e-001</_>
    <_>
      4.92220223e-001 4.91949916e-001 4.92536902e-001 5.86776137e-002
      5.11076450e-002 9.41107273e-002 8.54955316e-002 8.34183693e-002
      1.12869263e-001 1.22544765e-002 5.42044640e-004 8.42928886e-003
      1.01037532e-001 1.10976487e-001 1.21081591e-001</_>
    <_>
      4.92220223e-001 4.91949916e-001 4.92536902e-001 1.13579571e-001
      1.60911560e-001 1.21561706e-001 -2.03868449e-002 -6.77773356e-003
      -3.61503661e-002 -3.08828056e-002 -3.08305323e-002
      -3.07864249e-002 7.75081217e-002 7.17608035e-002 1.17160022e-001</_>
    <_>
      4.92220223e-001 4.91949916e-001 4.92536902e-001 5.47560453e-002
      7.85586238e-002 4.70519066e-002 1.88288689e-002 5.59673905e-002
      4.22810316e-002 -3.43182683e-003 -3.37955356e-003 -7.25701451e-003
      1.48096353e-001 1.22741193e-001 1.52454138e-001</_>
    <_>
      4.92220223e-001 4.91949916e-001 4.92536902e-001 2.33834982e-002
      3.14998031e-002 1.17577910e-002 -7.78973103e-004 -4.20718491e-002
      -3.61503661e-002 1.61760449e-002 8.38518143e-003 8.42928886e-003
      1.40253216e-001 1.03133351e-001 1.40689433e-001</_>
    <_>
      4.92220223e-001 4.91949916e-001 4.92536902e-001 5.08344769e-002
      3.14998031e-002 7.05813169e-002 9.72602367e-002 9.91046429e-002
      1.01104558e-001 -1.91181004e-002 -1.51442587e-002 -2.68648565e-002
      1.12802237e-001 1.18819624e-001 1.52454138e-001</_>
    <_>
      4.92220223e-001 4.91949916e-001 4.92536902e-001 3.12266350e-002
      2.36566663e-002 1.96009278e-002 3.14259529e-003 4.98700142e-003
      1.09084845e-002 -7.35339522e-003 -3.37955356e-003 -7.25701451e-003
      1.71625763e-001 1.73721582e-001 1.79905117e-001</_>
    <_>
      4.92220223e-001 4.91949916e-001 4.92536902e-001 3.77565622e-003
      4.04882431e-003 2.74440646e-002 3.84367108e-002 4.02811170e-002
      6.18888736e-002 -7.35339522e-003 -7.30112195e-003 -1.11785829e-002
      1.79468900e-001 1.69800013e-001 1.72061980e-001</_>
    <_>
      4.92220223e-001 4.91949916e-001 4.92536902e-001 5.08344769e-002
      5.50292134e-002 7.05813169e-002 -2.43084133e-002 -5.77581227e-002
      -3.61503661e-002 1.61760449e-002 1.62283182e-002 -7.25701451e-003
      1.24566942e-001 1.14898056e-001 1.25003159e-001</_>
    <_>
      4.92220223e-001 4.91949916e-001 4.92536902e-001 7.04423189e-002
      8.24801922e-002 4.31303382e-002 1.32554352e-001 1.14790916e-001
      6.58104420e-002 8.33290815e-003 1.62283182e-002 8.42928886e-003
      1.04959100e-001 1.22741193e-001 1.72061980e-001</_>
    <_>
      -5.05768716e-001 -5.07216275e-001 -4.59155858e-001
      -4.72928584e-002 -3.91981304e-002 -3.15501392e-002
      -5.60941398e-002 -4.99299467e-002 -3.61759365e-002 4.50074673e-004
      4.67300415e-004 4.30881977e-004 -1.00344107e-001 -6.03123903e-002
      -5.26415706e-002</_>
    <_>
      -5.05768716e-001 -5.07216275e-001 -4.70920563e-001 3.68756056e-003
      7.86072016e-003 -1.77562237e-004 -6.78588450e-002 -4.99299467e-002
      -4.79406416e-002 4.37164307e-003 4.38886881e-003 4.30881977e-004
      -1.00344107e-001 -6.03123903e-002 -5.26415706e-002</_>
    <_>
      -5.05768716e-001 -5.07216275e-001 -5.06214678e-001
      -1.98418796e-002 -2.35118568e-002 3.74400616e-003 -3.25647295e-002
      -4.60083783e-002 -2.04896629e-002 -3.47152352e-003
      -3.45429778e-003 4.30881977e-004 -8.46578330e-002 -5.24692535e-002
      -6.44063056e-002</_>
    <_>
      -5.05768716e-001 -5.07216275e-001 -5.06214678e-001
      -1.19987428e-002 -1.17471516e-002 -1.77562237e-004
      -1.29568875e-002 -6.79269433e-003 1.08829141e-002 -3.47152352e-003
      -3.45429778e-003 4.30881977e-004 -1.00344107e-001 -6.42339736e-002
      -5.26415706e-002</_>
    <_>
      -5.05768716e-001 -5.07216275e-001 -5.06214678e-001
      -1.59203112e-002 1.75833702e-005 -8.02072883e-003 -2.08000243e-002
      1.05047226e-003 -8.72495770e-003 4.50074673e-004 4.38886881e-003
      4.30881977e-004 -9.64225382e-002 -5.63908219e-002 -6.44063056e-002</_>
    <_>
      -5.05768716e-001 -5.07216275e-001 -5.06214678e-001
      -1.19987428e-002 -7.82558322e-003 -8.02072883e-003 4.97882366e-002
      4.41877246e-002 3.04907560e-002 4.50074673e-004 4.67300415e-004
      -3.49071622e-003 -8.46578330e-002 -6.03123903e-002
      -6.44063056e-002</_>
    <_>
      -5.05768716e-001 -5.07216275e-001 -5.06214678e-001 2.72169709e-002
      2.35469937e-002 -1.77562237e-004 -2.47215927e-002 -1.46358311e-002
      -8.72495770e-003 8.29321146e-003 -3.45429778e-003 -7.41228461e-003
      -9.25009698e-002 -5.63908219e-002 -6.83278739e-002</_>
    <_>
      -5.05768716e-001 -5.07216275e-001 -5.06214678e-001
      -1.19987428e-002 1.75833702e-005 -4.09916043e-003 -1.29568875e-002
      -6.79269433e-003 -8.72495770e-003 -3.47152352e-003 4.67300415e-004
      4.30881977e-004 -8.85794014e-002 -6.03123903e-002 -6.44063056e-002</_>
    <_>
      -5.05768716e-001 -5.07216275e-001 -5.02293110e-001 1.15306973e-002
      3.93915176e-003 1.15871429e-002 2.23372579e-002 1.05047226e-003
      -8.72495770e-003 4.50074673e-004 -3.45429778e-003 4.30881977e-004
      -8.85794014e-002 -6.03123903e-002 -6.44063056e-002</_>
    <_>
      -5.05768716e-001 -5.07216275e-001 -5.06214678e-001
      -5.90575635e-002 -4.31196988e-002 -3.15501392e-002 2.23372579e-002
      4.97204065e-003 1.87260509e-002 4.50074673e-004 -3.45429778e-003
      -7.41228461e-003 -8.46578330e-002 -6.03123903e-002
      -6.44063056e-002</_>
    <_>
      -5.05768716e-001 -5.07216275e-001 -5.06214678e-001
      -4.15560603e-003 1.57038569e-002 3.74400616e-003 -2.47215927e-002
      -1.46358311e-002 -8.72495770e-003 8.29321146e-003 8.31043720e-003
      4.35245037e-003 -1.12108812e-001 -6.42339736e-002 -4.47984338e-002</_>
    <_>
      -5.11325300e-001 -5.12289762e-001 -5.13385832e-001
      -1.02288276e-001 -1.49040014e-001 -1.41534656e-001
      -2.10129917e-002 -2.17559040e-002 7.21808076e-002 -7.58096576e-003
      3.06010246e-004 -1.15559399e-002 -3.20897400e-002 -9.80833173e-003
      9.05132294e-003</_>
    <_>
      -5.11325300e-001 -5.12289762e-001 -5.13385832e-001
      -1.99353397e-002 -3.94198298e-003 -8.20133090e-003
      -3.66992652e-002 -2.95990407e-002 -7.68388212e-002 4.18376923e-003
      8.14914703e-003 4.13036346e-003 -4.38544452e-002 -2.15730369e-002
      -2.71338224e-003</_>
    <_>
      4.88674700e-001 4.87710238e-001 4.86614168e-001 -9.05235708e-002
      -3.53145301e-002 -7.87895620e-002 1.78987026e-001 1.23342156e-001
      1.50612175e-001 1.20269060e-002 3.16785574e-002 -3.50853503e-002
      5.02631962e-002 7.25446045e-002 6.39532804e-002</_>
    <_>
      4.88674700e-001 4.87710238e-001 4.86614168e-001 1.87907815e-001
      1.72528625e-001 1.13367319e-001 1.43692911e-001 1.15499020e-001
      9.17886496e-002 2.37916112e-002 1.20707154e-002 1.58950686e-002
      7.37926066e-002 7.25446045e-002 9.53258276e-002</_>
    <_>
      4.90358949e-001 4.90841508e-001 4.92506921e-001 2.71516442e-002
      -1.57046616e-002 -1.98662281e-004 1.48170233e-001 1.46039367e-001
      1.24887943e-001 3.07977200e-004 -1.52870715e-002 -7.46813416e-003
      6.16649091e-002 5.62024117e-002 9.51308608e-002</_>
    <_>
      4.90358949e-001 4.90841508e-001 4.92506921e-001 1.60484970e-001
      1.72530651e-001 1.13526821e-001 -4.00650799e-002 -6.96469247e-002
      -1.62885487e-002 -1.14567578e-002 -1.52870715e-002
      -3.54656577e-003 5.38217723e-002 6.01239800e-002 7.94445872e-002</_>
    <_>
      -7.68023729e-003 2.12410152e-001 3.31722617e-001 1.93085074e-002
      4.70404625e-002 2.33307481e-002 4.97189820e-001 4.59764838e-001
      4.46456552e-001 6.30530715e-002 1.14124715e-001 1.02335811e-001
      3.42139304e-002 6.01239800e-002 8.72877240e-002</_>
    <_>
      4.89783585e-001 4.89306867e-001 2.47179925e-001 -5.11827171e-002
      -6.26693070e-002 -7.46442378e-002 6.52593374e-002 7.99500346e-002
      5.33393621e-002 4.27222252e-003 -3.50752473e-003 -3.49858403e-003
      5.61398268e-002 6.31483197e-002 5.27329445e-002</_>
    <_>
      4.89783585e-001 4.89306867e-001 4.90317166e-001 1.94055438e-002
      1.96836591e-002 1.94734335e-002 1.03573799e-002 9.36180353e-003
      7.29472041e-002 4.27222252e-003 4.14073467e-004 1.61092877e-002
      1.77708447e-001 1.84716970e-001 1.39007449e-001</_>
    <_>
      4.89783585e-001 4.89306867e-001 4.90317166e-001 1.44895732e-001
      1.49095416e-001 1.01826370e-001 3.38867903e-002 1.72049403e-002
      2.98099518e-002 1.99584961e-002 1.21787786e-002 4.34458256e-003
      9.92770791e-002 1.10207140e-001 1.23321176e-001</_>
    <_>
      4.89783585e-001 4.89306867e-001 4.90317166e-001 1.09601617e-001
      9.81150270e-002 4.69244123e-002 -1.70936286e-002 1.51866674e-003
      -9.40576196e-003 -1.14140809e-002 -7.42909312e-003
      -3.49858403e-003 1.26728058e-001 1.29814982e-001 1.31164312e-001</_>
    <_>
      4.62332606e-001 4.89306867e-001 4.90317166e-001 -6.68689907e-002
      -7.44340122e-002 -5.11148274e-002 2.29965210e-001 2.13283360e-001
      1.67064846e-001 -1.14140809e-002 -1.13506615e-002 -7.42015243e-003
      3.26104164e-002 5.13836145e-002 8.01839232e-002</_>
    <_>
      4.89783585e-001 4.89306867e-001 4.90317166e-001 1.54839754e-002
      1.18405223e-002 1.55518651e-002 6.43581152e-003 9.36180353e-003
      6.28054142e-003 -7.49251246e-003 -3.50752473e-003 -3.49858403e-003
      2.01237857e-001 1.88638538e-001 1.82144701e-001</_>
    <_>
      -5.08545220e-001 -5.08502185e-001 -5.10769606e-001
      -1.99010670e-002 -1.17950141e-002 -8.04540515e-003 1.05805397e-002
      1.32007003e-002 1.76870227e-002 -7.48142600e-003 4.81367111e-004
      -3.50186229e-003 -7.04123825e-002 -5.27806282e-002
      -1.35813951e-002</_>
    <_>
      -5.08545220e-001 -5.08502185e-001 -5.10769606e-001
      -1.99010670e-002 -2.35597193e-002 3.71932983e-003 -9.02733207e-003
      -1.03287399e-002 -1.36855543e-002 -7.48142600e-003
      -1.12833679e-002 -7.42343068e-003 -6.64908141e-002
      -4.49374914e-002 -1.75029635e-002</_>
    <_>
      4.91454780e-001 4.91497815e-001 4.89230394e-001 1.21275425e-001
      1.21538341e-001 1.25287950e-001 8.11687708e-002 6.02595210e-002
      6.86674118e-002 3.56558561e-002 2.79323459e-002 3.96354198e-002
      7.07640946e-002 7.27095604e-002 9.62225199e-002</_>
    <_>
      4.93573308e-001 4.92811322e-001 4.94624019e-001 -1.53362751e-004
      -3.82044911e-003 3.89432907e-003 3.47638130e-003 4.54485416e-003
      -1.21116340e-002 5.56349754e-004 6.60002232e-004 -3.28078866e-003
      1.56880006e-001 1.38453215e-001 1.59142166e-001</_>
    <_>
      4.93573308e-001 4.92811322e-001 4.94624019e-001 7.68977404e-003
      4.02271748e-003 1.95806026e-002 3.47638130e-003 -3.29831243e-003
      1.14178061e-002 4.47791815e-003 6.60002232e-004 4.56237793e-003
      1.64723143e-001 1.46296352e-001 1.63063735e-001</_></support_vectors>
  <decision_functions>
    <_>
      <sv_count>143</sv_count>
      <rho>-3.1868604054194594e-001</rho>
      <alpha>
        1.1837814503827890e+000 2.4374999105930328e+000
        2.4374999105930328e+000 8.6821546761081692e-001
        2.4374999105930328e+000 2.4374999105930328e+000
        2.4374999105930328e+000 2.4374999105930328e+000
        2.4374999105930328e+000 2.4236307268751305e+000
        2.4374999105930328e+000 2.4374999105930328e+000
        2.4374999105930328e+000 2.4374999105930328e+000
        2.4374999105930328e+000 2.4374999105930328e+000
        2.4374999105930328e+000 2.4374999105930328e+000
        8.9509719785575825e-001 2.1155197666674352e+000
        2.4374999105930328e+000 3.2104262968836750e-001
        2.4308021788180132e+000 2.4374999105930328e+000
        2.4345648414528123e+000 2.4289577279395007e+000
        2.4374999105930328e+000 2.4374999105930328e+000
        2.4374999105930328e+000 2.4374999105930328e+000
        2.4374999105930328e+000 2.4374999105930328e+000
        1.7656010780726941e+000 2.4374999105930328e+000
        2.4374999105930328e+000 2.4374999105930328e+000
        2.4374999105930328e+000 2.4252528343960580e+000
        2.4374999105930328e+000 2.3806287572803608e+000
        2.4374999105930328e+000 3.1250044703483582e-001
        2.1492170838696660e+000 2.4374999105930328e+000
        2.4313001246718708e+000 3.2928656824184444e-001
        2.4374999105930328e+000 2.4374999105930328e+000
        2.4374999105930328e+000 2.4374999105930328e+000
        2.4227812187811417e+000 2.3923962983090350e+000
        2.4374999105930328e+000 2.4374999105930328e+000
        2.4307640991701209e+000 2.4374999105930328e+000
        2.4274115211610434e+000 2.4374999105930328e+000
        2.1882895987794746e+000 3.1250044703483582e-001
        2.4266376286062088e+000 2.4374999105930328e+000
        2.4374999105930328e+000 2.2974520433329908e+000
        2.4374999105930328e+000 2.4374999105930328e+000
        2.4285683220071363e+000 2.4374999105930328e+000
        2.4374999105930328e+000 2.4374999105930328e+000
        2.4287847221839831e+000 2.4374999105930328e+000
        2.4374999105930328e+000 2.4374999105930328e+000
        2.4374999105930328e+000 2.4374999105930328e+000
        2.4181441794023315e+000 2.3767722460369534e+000
        2.4374999105930328e+000 2.4374999105930328e+000
        2.4374999105930328e+000 2.4374999105930328e+000
        2.4374999105930328e+000 2.4374999105930328e+000
        2.4374999105930328e+000 2.4374999105930328e+000
        2.4374999105930328e+000 2.4374999105930328e+000
        2.4374999105930328e+000 2.1942853370518867e+000
        2.4374999105930328e+000 2.4374999105930328e+000
        2.3620800276175138e+000 2.4374999105930328e+000
        4.4479148332302643e-001 3.1250044703483582e-001
        2.0728714257023277e+000 2.4374999105930328e+000
        2.4374999105930328e+000 -1.1837814503827890e+000
        -4.8556440899953639e+000 -4.8749998211860657e+000
        -2.4374999105930328e+000 -2.4374999105930328e+000
        -4.2031009886657271e+000 -2.4266376286062088e+000
        -2.4374999105930328e+000 -2.4374999105930328e+000
        -2.4374999105930328e+000 -2.4374999105930328e+000
        -1.0062500089406967e+001 -1.0062500089406967e+001
        -2.4374999105930328e+000 -1.0062500089406967e+001
        -2.4374999105930328e+000 -4.6742242893699437e+000
        -1.0062500089406967e+001 -1.0062500089406967e+001
        -4.8611306374681629e+000 -4.5103713362953606e+000
        -1.0062500089406967e+001 -4.8749998211860657e+000
        -2.4374999105930328e+000 -1.0062500089406967e+001
        -1.0062500089406967e+001 -9.7437998564509698e+000
        -7.3124997317790985e+000 -2.4374999105930328e+000
        -9.7290373777661081e+000 -4.8593324211772568e+000
        -2.4374999105930328e+000 -2.4374999105930328e+000
        -2.4374999105930328e+000 -4.5383009854485774e+000
        -2.4374999105930328e+000 -2.4374999105930328e+000
        -2.4374999105930328e+000 -1.0062500089406967e+001
        -2.4374999105930328e+000 -2.4374999105930328e+000
        -2.4374999105930328e+000 -2.4345648414528123e+000
        -9.7499996423721313e+000</alpha>
      <index>
        0 1 2 3 4 5 6 7 8 9 10 11 12 13 14 15 16 17 18 19 20 21 22 23 24
        25 26 27 28 29 30 31 32 33 34 35 36 37 38 39 40 41 42 43 44 45
        46 47 48 49 50 51 52 53 54 55 56 57 58 59 60 61 62 63 64 65 66
        67 68 69 70 71 72 73 74 75 76 77 78 79 80 81 82 83 84 85 86 87
        88 89 90 91 92 93 94 95 96 97 98 99 100 101 102 103 104 105 106
        107 108 109 110 111 112 113 114 115 116 117 118 119 120 121 122
        123 124 125 126 127 128 129 130 131 132 133 134 135 136 137 138
        139 140 141 142</index></_></decision_functions></my_svm>
</opencv_storage>
