<?xml version="1.0"?>
<opencv_storage>
<my_svm type_id="opencv-ml-svm">
  <svm_type>C_SVC</svm_type>
  <kernel><type>RBF</type>
    <gamma>5.0000000000000000e-001</gamma></kernel>
  <C>1.2500000000000000e+001</C>
  <term_criteria><epsilon>2.2204460492503131e-016</epsilon>
    <iterations>100</iterations></term_criteria>
  <var_all>15</var_all>
  <var_count>15</var_count>
  <class_count>2</class_count>
  <class_labels type_id="opencv-matrix">
    <rows>1</rows>
    <cols>2</cols>
    <dt>i</dt>
    <data>
      0 1</data></class_labels>
  <class_weights type_id="opencv-matrix">
    <rows>1</rows>
    <cols>2</cols>
    <dt>d</dt>
    <data>
      2.4374999105930328e+000 1.0062500089406967e+001</data></class_weights>
  <sv_total>142</sv_total>
  <support_vectors>
    <_>
      -5.09589732e-001 -5.09234607e-001 -5.09765506e-001
      -3.32832336e-004 -9.95397568e-005 -3.16679478e-004
      -5.44428825e-004 -3.28770280e-003 -5.31554222e-004 3.81350517e-004
      4.45723534e-004 4.25398350e-004 -2.75344133e-001 -3.35065365e-001
      -5.54563761e-001</_>
    <_>
      4.90410268e-001 4.90765393e-001 4.90234494e-001 -4.25443053e-003
      1.05782807e-001 5.85068464e-002 7.78869390e-002 2.51614273e-001
      1.64174318e-001 -6.23637736e-002 -1.56417042e-001 -1.48594230e-001
      1.95244104e-001 1.39444441e-001 1.51318610e-001</_>
    <_>
      4.92363989e-001 4.92363155e-001 4.93188262e-001 5.85982203e-002
      1.05929971e-001 1.52869225e-001 6.21507764e-002 1.22350693e-001
      1.32792950e-001 -7.31500983e-003 -1.50685608e-002 -1.90379918e-002
      1.52599618e-001 1.36346519e-001 1.55257463e-001</_>
    <_>
      4.92363989e-001 4.92363155e-001 4.93188262e-001 -2.25305557e-004
      4.76241112e-005 -3.99354100e-003 -5.94317913e-004 7.82072544e-004
      3.86753082e-002 5.28156757e-004 6.17742538e-004 -1.11948550e-002
      3.80050600e-001 3.20660263e-001 2.37610400e-001</_>
    <_>
      4.92363989e-001 4.92363155e-001 4.93188262e-001 1.54609680e-002
      4.71064448e-002 1.16927624e-002 -5.94317913e-004 -3.13952565e-003
      3.38119268e-003 -3.39344144e-003 -7.22542405e-003 4.49144840e-003
      2.66325116e-001 2.14777917e-001 1.74865305e-001</_>
    <_>
      -5.11628747e-001 -5.12653172e-001 -5.09641349e-001 3.60375643e-003
      3.14160585e-002 1.55122876e-002 -2.94154584e-002 -2.98869312e-002
      -2.83326209e-002 -3.67364287e-003 3.87787819e-004 3.40998173e-004
      -7.61185884e-002 -4.48291153e-002 -4.38956320e-002</_>
    <_>
      -5.11628747e-001 -5.12653172e-001 -5.09641349e-001
      -1.60041153e-002 -4.70153391e-002 -5.89975417e-002
      -1.76507533e-002 -3.77300680e-002 -7.14698732e-002
      -3.67364287e-003 -1.13769472e-002 -1.92668736e-002
      -9.57264379e-002 -4.87506837e-002 -2.82093585e-002</_>
    <_>
      -5.09107530e-001 -5.09605408e-001 -4.72406864e-001
      -1.80642933e-001 -2.03925997e-001 -1.60946578e-001
      -3.97367775e-002 -5.01550138e-002 -2.79534161e-002
      -1.91736519e-002 -1.91195905e-002 -1.90968812e-002
      -3.66506428e-002 -1.54395103e-002 1.19653940e-002</_>
    <_>
      -5.09107530e-001 -5.09605408e-001 -5.07700980e-001
      -8.26037228e-002 -7.84358084e-002 -7.46720731e-002
      -3.97367775e-002 -4.62334454e-002 -2.79534161e-002
      -6.23109043e-002 -4.65705693e-002 -3.47831547e-002
      -7.97878951e-002 -5.46551943e-002 -3.11718881e-002</_>
    <_>
      -5.09107530e-001 -5.09605408e-001 -5.07700980e-001
      -4.33880389e-002 -1.56907141e-002 7.68089294e-003 -3.97367775e-002
      1.65116787e-002 1.51838660e-002 4.34219837e-004 2.40176916e-002
      1.61972642e-002 -1.31212175e-002 2.37761736e-002 2.37300992e-002</_>
    <_>
      4.92220223e-001 4.91949916e-001 4.92536902e-001 1.37108982e-001
      1.53068423e-001 6.27381802e-002 7.06416368e-003 -1.46208704e-002
      1.09084845e-002 -4.26475108e-002 -4.25952375e-002 -2.68648565e-002
      6.18218482e-002 7.56823719e-002 1.36767864e-001</_>
    <_>
      4.94231284e-001 4.92783725e-001 4.93785322e-001 -2.34007835e-004
      1.75833702e-005 1.55087113e-002 2.72941589e-003 1.05047226e-003
      1.08922124e-001 4.50074673e-004 4.67300415e-004 2.78818607e-002
      3.66322577e-001 3.00471932e-001 1.78730965e-001</_>
    <_>
      4.94231284e-001 4.92783725e-001 4.93785322e-001 -2.34007835e-004
      1.75833702e-005 -8.02072883e-003 2.72941589e-003 8.89360905e-003
      6.97064400e-002 4.50074673e-004 4.67300415e-004 -1.52554214e-002
      3.46714735e-001 2.76942521e-001 1.98338807e-001</_>
    <_>
      -5.11325300e-001 -5.12289762e-001 -5.13385832e-001 1.14372373e-002
      -2.03847885e-005 3.56340408e-003 2.51644850e-003 -6.06963038e-003
      -6.25059009e-003 2.62200832e-004 3.06010246e-004 2.08795071e-004
      -1.02677986e-001 -1.00004405e-001 -6.54584765e-002</_>
    <_>
      -5.11325300e-001 -5.12289762e-001 -5.13385832e-001
      -4.24906611e-003 -3.94198298e-003 -8.20133090e-003
      -1.40511990e-003 5.69510460e-003 1.59257650e-003 2.62200832e-004
      3.06010246e-004 2.08795071e-004 -1.69344649e-001 -1.35298535e-001
      -4.97722030e-002</_>
    <_>
      -5.11325300e-001 -5.12289762e-001 -5.13385832e-001
      -1.14052981e-001 -1.76490992e-001 -1.14083678e-001 3.78105640e-002
      2.92245150e-002 1.72788501e-002 3.16347480e-002 5.12863994e-002
      3.15813422e-002 -1.64034665e-002 -3.33377421e-002 -3.40859294e-002</_>
    <_>
      4.88674700e-001 4.87710238e-001 4.86614168e-001 2.11437225e-001
      1.99979603e-001 -3.56523097e-002 2.51644850e-003 4.88323569e-002
      2.95710206e-001 -6.64044917e-002 -6.24391139e-002 -1.54775083e-002
      1.83596522e-001 1.47054434e-001 9.53258276e-002</_>
    <_>
      -5.11325300e-001 -5.12289762e-001 -5.13385832e-001
      -3.27467918e-004 -3.94198298e-003 -3.58164310e-004
      -9.24828649e-003 -9.99119878e-003 -2.32899189e-003 4.18376923e-003
      3.06010246e-004 2.08795071e-004 -9.87564176e-002 -9.21612680e-002
      -6.15369081e-002</_>
    <_>
      -5.11325300e-001 -5.12289762e-001 -5.13385832e-001
      -1.20922029e-002 -7.86355138e-003 -4.27976251e-003 5.34968376e-002
      4.49107885e-002 2.90435553e-002 -7.58096576e-003 -7.53715634e-003
      -3.71280313e-003 -8.30701441e-002 -8.43181312e-002
      -6.93800449e-002</_>
    <_>
      -5.11325300e-001 -5.12289762e-001 -5.13385832e-001 1.53588057e-002
      1.17443204e-002 1.53281093e-002 -1.40511990e-003 1.77353621e-003
      -2.32899189e-003 2.62200832e-004 4.22757864e-003 2.08795071e-004
      -1.26207396e-001 -1.11769110e-001 -5.76153398e-002</_>
    <_>
      -5.11325300e-001 -5.12289762e-001 -5.13385832e-001
      -3.27467918e-004 -1.17851198e-002 -3.95738780e-002 2.51644850e-003
      9.61667299e-003 1.31004333e-001 4.18376923e-003 -3.61558795e-003
      2.08795071e-004 -8.30701441e-002 -4.51024473e-002 9.05132294e-003</_>
    <_>
      -5.11325300e-001 -5.12289762e-001 -5.09464264e-001 7.51566887e-003
      7.82275200e-003 -3.58164310e-004 -4.84639704e-002 -5.70500195e-002
      -9.25250947e-002 2.62200832e-004 4.22757864e-003 -3.71280313e-003
      -5.56191504e-002 -3.72593105e-002 -6.63495064e-003</_>
    <_>
      -5.11325300e-001 -5.12289762e-001 -5.13385832e-001 3.59410048e-003
      -3.94198298e-003 7.48497248e-003 -1.40511990e-003 1.77353621e-003
      5.51414490e-003 2.62200832e-004 3.06010246e-004 2.08795071e-004
      -1.02677986e-001 -9.60828364e-002 -6.93800449e-002</_>
    <_>
      -5.11325300e-001 -5.12289762e-001 -5.13385832e-001
      -8.17063451e-003 -3.94198298e-003 -3.56523097e-002 2.21242905e-002
      2.53029466e-002 1.23161197e-001 2.62200832e-004 3.06010246e-004
      -1.54775083e-002 -1.06599554e-001 -7.25534260e-002
      -1.05565190e-002</_>
    <_>
      -5.11325300e-001 -5.12289762e-001 -5.13385832e-001
      -3.27467918e-004 -2.03847885e-005 3.56340408e-003 2.51644850e-003
      1.77353621e-003 5.51414490e-003 4.18376923e-003 -3.61558795e-003
      2.08795071e-004 -1.06599554e-001 -7.64749944e-002 -4.97722030e-002</_>
    <_>
      4.88674700e-001 4.87710238e-001 4.86614168e-001 1.68299973e-001
      1.96058035e-001 1.13367319e-001 8.87909532e-002 6.84401989e-002
      1.15318060e-001 2.62200832e-004 1.99138522e-002 -1.54775083e-002
      9.34004486e-002 1.03917152e-001 9.92473960e-002</_>
    <_>
      -5.11325300e-001 -5.12289762e-001 -5.13385832e-001
      -4.24906611e-003 -7.86355138e-003 -1.99660361e-002
      -1.40511990e-003 1.77353621e-003 5.51414490e-003 2.62200832e-004
      3.06010246e-004 2.08795071e-004 -1.85030922e-001 -1.39220104e-001
      -3.80074978e-002</_>
    <_>
      -5.11325300e-001 -5.12289762e-001 -5.13385832e-001
      -3.27467918e-004 -2.03847885e-005 -1.99660361e-002 2.51644850e-003
      1.77353621e-003 -2.32899189e-003 2.62200832e-004 3.06010246e-004
      -1.54775083e-002 -1.65423080e-001 -1.35298535e-001
      -1.05565190e-002</_>
    <_>
      -5.11325300e-001 -5.12289762e-001 -5.13385832e-001
      -1.99353397e-002 -1.57066882e-002 -3.58164310e-004
      -2.10129917e-002 -9.99119878e-003 -1.80152953e-002 2.62200832e-004
      3.06010246e-004 2.08795071e-004 -1.06599554e-001 -9.21612680e-002
      -5.36937714e-002</_>
    <_>
      4.88674700e-001 4.87710238e-001 4.86614168e-001 1.56535268e-001
      1.72528625e-001 6.63084984e-002 1.24085069e-001 1.11577451e-001
      6.43376708e-002 8.10533762e-003 3.95216942e-002 2.76597738e-002
      5.41847646e-002 6.86230361e-002 1.03168964e-001</_>
    <_>
      -5.11325300e-001 -5.12289762e-001 -5.13385832e-001
      -3.27467918e-004 -3.92360985e-002 -3.17307413e-002
      -7.98365176e-002 -9.23441350e-002 -1.12132937e-001 8.10533762e-003
      -3.61558795e-003 8.05193186e-003 -4.77760136e-002 -2.54946053e-002
      -6.63495064e-003</_>
    <_>
      -5.11325300e-001 -5.12289762e-001 -5.13385832e-001
      -4.24906611e-003 -1.57066882e-002 -8.20133090e-003
      -2.88561285e-002 -6.09715879e-002 -2.58584321e-002 8.10533762e-003
      -7.53715634e-003 -3.71280313e-003 -3.99328768e-002
      -2.94161737e-002 -3.40859294e-002</_>
    <_>
      -5.11325300e-001 -5.12289762e-001 -5.13385832e-001
      -5.13078868e-002 -4.70792353e-002 -3.17307413e-002
      -4.06208336e-002 -3.74421775e-002 -2.19368637e-002 1.98700428e-002
      1.59922838e-002 8.05193186e-003 -6.73838705e-002 -6.86318576e-002
      -5.76153398e-002</_>
    <_>
      -5.11325300e-001 -5.12289762e-001 -5.13385832e-001 7.51566887e-003
      1.17443204e-002 7.48497248e-003 -5.63071072e-002 -3.74421775e-002
      -2.97800004e-002 -3.65939736e-003 4.22757864e-003 2.08795071e-004
      -1.24818981e-002 -5.88676333e-003 -1.44780874e-002</_>
    <_>
      -5.11325300e-001 -5.12289762e-001 -5.13385832e-001 1.92803741e-002
      7.82275200e-003 1.14065409e-002 -6.80718124e-002 -6.48931563e-002
      -1.23897642e-001 -7.58096576e-003 -1.53802931e-002
      -3.11637819e-002 -3.60113084e-002 -2.94161737e-002 5.12975454e-003</_>
    <_>
      -5.11325300e-001 -5.12289762e-001 -5.13385832e-001
      -2.77784765e-002 -1.96282566e-002 -1.21228993e-002
      -1.22973770e-001 -7.66578615e-002 -6.89956844e-002 4.18376923e-003
      8.14914703e-003 8.05193186e-003 -2.42466033e-002 -2.94161737e-002
      -1.83996558e-002</_>
    <_>
      -5.11325300e-001 -5.12289762e-001 -5.13385832e-001
      -1.20922029e-002 -1.17851198e-002 -1.60444677e-002
      -6.41502440e-002 -4.13637459e-002 -5.72309792e-002
      -3.65939736e-003 8.14914703e-003 4.13036346e-003 -3.20897400e-002
      -1.37299001e-002 -2.71338224e-003</_>
    <_>
      -5.11325300e-001 -5.12289762e-001 -5.13385832e-001 7.51566887e-003
      -2.03847885e-005 -1.21228993e-002 -1.40511990e-003 1.77353621e-003
      -2.32899189e-003 4.18376923e-003 3.06010246e-004 -3.71280313e-003
      -1.06599554e-001 -8.43181312e-002 -4.97722030e-002</_>
    <_>
      4.89819825e-001 4.90658343e-001 4.91343260e-001 1.32999778e-001
      1.68618560e-001 1.56663954e-001 1.01199627e-001 1.18673205e-001
      1.00941420e-001 4.30995226e-003 1.22022033e-002 4.39220667e-003
      6.34489059e-002 6.04136288e-002 8.68349075e-002</_>
    <_>
      4.90358949e-001 4.90841508e-001 4.92506921e-001 -2.99334526e-004
      -1.83582306e-005 -4.12026048e-003 -8.49366188e-004 9.41336155e-004
      -4.52384353e-003 3.07977200e-004 3.99231911e-004 -3.54656577e-003
      2.96959043e-001 2.79731840e-001 2.16699481e-001</_>
    <_>
      4.93210495e-001 4.92498517e-001 4.92739081e-001 -4.01571393e-003
      -3.80799174e-003 -3.96516919e-003 2.05653906e-003 9.47725773e-003
      5.70656061e-002 4.52637672e-004 5.00917435e-004 -1.91032588e-002
      3.36167455e-001 3.16663265e-001 2.06729650e-001</_>
    <_>
      4.93210495e-001 4.92498517e-001 4.92739081e-001 3.12784314e-002
      2.75645852e-002 -3.92592847e-002 1.19703591e-001 1.15359604e-001
      1.94320500e-001 2.79036164e-002 3.97166014e-002 3.97202969e-002
      1.16559580e-001 1.20584816e-001 1.16533577e-001</_>
    <_>
      4.93210495e-001 4.92498517e-001 4.92739081e-001 1.55921578e-002
      7.95674324e-003 3.87799740e-003 1.47154570e-001 1.58496857e-001
      1.43340111e-001 4.52637672e-004 -3.42068076e-003 5.04612923e-004
      1.59696832e-001 1.55878931e-001 1.59670830e-001</_>
    <_>
      -5.12641668e-001 -5.11927307e-001 -5.11689663e-001
      -2.60114670e-004 -3.91975045e-003 7.55935907e-003 -4.65571880e-004
      4.65106964e-003 -1.61158741e-002 3.94821167e-004 4.41312790e-004
      -3.55777144e-003 -1.16600797e-001 -8.67556632e-002
      -4.01853323e-002</_>
    <_>
      -5.12641668e-001 -5.11927307e-001 -5.11689663e-001 3.66145372e-003
      3.13743949e-002 1.54024959e-002 -3.96812856e-002 -4.24077809e-002
      -3.96452844e-002 -1.52914822e-002 -7.40185380e-003
      -3.55777144e-003 -4.60125506e-002 -3.57752740e-002
      -4.80284691e-002</_>
    <_>
      -5.10216415e-001 -5.10693133e-001 -5.09682834e-001
      -6.68689907e-002 -7.83555806e-002 -1.41310900e-001 2.99652219e-002
      3.28912139e-002 2.19668150e-002 -1.14140809e-002 -1.91937983e-002
      -3.09495628e-002 -1.44484192e-002 -1.13614798e-002 1.75255537e-003</_>
    <_>
      4.89783585e-001 4.89306867e-001 4.90317166e-001 1.91954553e-001
      1.17722869e-001 1.64571464e-001 1.42789483e-002 5.44023514e-003
      2.35897303e-003 4.27222252e-003 8.25721025e-003 4.34458256e-003
      1.42414331e-001 1.61187530e-001 1.19399607e-001</_>
    <_>
      4.89783585e-001 4.89306867e-001 4.90317166e-001 2.33271122e-002
      4.32130694e-002 8.61400962e-002 2.02514231e-001 3.11322570e-001
      2.92555034e-001 8.19379091e-003 2.39434838e-002 2.78739929e-002
      9.53555107e-002 7.49130249e-002 8.80270600e-002</_>
    <_>
      -5.13394177e-001 -5.12403071e-001 -5.11941135e-001
      -2.39410102e-002 -7.87064433e-003 -2.97427177e-004 4.62195277e-002
      3.23024392e-002 7.10439682e-003 8.16684961e-003 8.26936960e-003
      4.23651934e-003 -1.01196468e-002 -2.78477669e-002 -1.05079383e-001</_>
    <_>
      -5.13394177e-001 -5.12403071e-001 -5.11941135e-001
      -4.11570072e-004 7.81565905e-003 1.53888464e-002 -8.68245959e-003
      -2.99170613e-003 -8.58190656e-003 3.23712826e-004 4.26232815e-004
      -3.60664725e-003 -1.47374570e-001 -9.45144445e-002
      -3.05695534e-002</_>
    <_>
      -5.13394177e-001 -5.12403071e-001 -5.11941135e-001
      -4.11570072e-004 3.89409065e-003 7.54570961e-003 -8.39293003e-004
      -2.99170613e-003 -4.66033816e-003 4.24528122e-003 4.26232815e-004
      -3.60664725e-003 -1.35609850e-001 -7.88281709e-002
      -1.88048482e-002</_>
    <_>
      4.89963830e-001 4.89895344e-001 4.91438687e-001 -4.17354703e-003
      -3.13521922e-002 -4.33031619e-002 -1.29163265e-003 4.42517996e-002
      2.18854547e-001 2.74896622e-004 -1.13652050e-002 -5.84013760e-002
      4.62126017e-001 3.79349679e-001 2.49589384e-001</_>
    <_>
      4.89963830e-001 4.89895344e-001 4.91438687e-001 1.93558931e-002
      -3.13521922e-002 -1.09969825e-001 2.61593461e-002 2.01114535e-001
      3.79638851e-001 1.20396018e-002 6.31446242e-002 -7.42098689e-003
      1.28792673e-001 9.69967246e-002 7.70403743e-002</_>
    <_>
      -5.08382559e-001 -5.08314133e-001 -5.07610261e-001 2.72344947e-002
      2.35474110e-002 2.72970796e-002 -6.79509938e-002 -3.00873220e-002
      -5.46929240e-003 -7.41866231e-003 -3.41287255e-003 4.73856926e-004
      -8.44302922e-002 -7.82752633e-002 -7.14523792e-002</_>
    <_>
      4.91617441e-001 4.91685867e-001 4.92389739e-001 -2.76674926e-002
      -2.35114396e-002 -2.36833394e-002 1.67343140e-001 1.34618580e-001
      3.04334641e-001 1.21892095e-002 2.01165676e-002 8.31699371e-003
      1.11648142e-001 1.25646293e-001 9.32534933e-002</_>
    <_>
      4.91454780e-001 4.91497815e-001 4.89230394e-001 7.81381726e-002
      3.13422680e-002 1.94056034e-002 1.16462886e-001 1.73985004e-001
      1.19647801e-001 -3.55985761e-003 3.57754827e-002 1.21844411e-002
      9.03719366e-002 8.44742656e-002 1.00144088e-001</_>
    <_>
      4.91454780e-001 4.91497815e-001 4.89230394e-001 7.02950358e-002
      -2.74812877e-002 7.64089823e-003 3.16462874e-001 3.58298719e-001
      1.94157600e-001 3.95774245e-002 1.61676407e-002 2.00275779e-002
      9.03719366e-002 6.48664236e-002 1.27595067e-001</_>
    <_>
      4.91454780e-001 4.91497815e-001 4.89230394e-001 7.54994154e-003
      1.56559944e-002 7.64089823e-003 -1.18416548e-003 -2.48560309e-003
      -5.84241748e-003 3.61740589e-004 -3.44023108e-003 4.19735909e-004
      2.39391565e-001 2.17807621e-001 1.94261730e-001</_>
    <_>
      4.91454780e-001 4.91497815e-001 4.89230394e-001 -1.59794986e-002
      1.56559944e-002 1.15624666e-002 2.85090327e-001 2.91632056e-001
      1.27490938e-001 5.52636981e-002 5.14617562e-002 8.26287270e-003
      7.86072314e-002 8.44742656e-002 1.19751930e-001</_>
    <_>
      4.91454780e-001 4.91497815e-001 4.89230394e-001 -2.93195248e-004
      -3.02791595e-005 -8.04540515e-003 2.73740292e-003 9.27913189e-003
      6.47458434e-002 3.61740589e-004 4.81367111e-004 -1.13449991e-002
      2.62920976e-001 2.45258600e-001 1.94261730e-001</_>
    <_>
      4.90685582e-001 4.89401281e-001 4.91461635e-001 -1.20029747e-002
      4.32293415e-002 3.12098861e-002 1.32228673e-001 8.37565660e-002
      4.99462485e-002 -2.32464373e-002 1.99801922e-002 2.38453150e-002
      1.22060373e-001 8.14223588e-002 8.46018493e-002</_>
    <_>
      -5.11640429e-001 -5.10210574e-001 -5.08363426e-001 3.57592106e-003
      1.17284656e-002 1.15549564e-002 -2.43915021e-002 -2.25031674e-002
      -3.61784995e-002 -3.50895524e-003 -3.41722369e-003
      -7.42211938e-003 -1.53316945e-001 -1.02640852e-001
      -4.58797812e-002</_>
    <_>
      4.90332544e-001 4.91352260e-001 4.91365254e-001 3.50908041e-002
      -4.30742800e-002 -5.89806736e-002 1.63254738e-001 3.15051854e-001
      2.21900225e-001 3.57022285e-002 -1.12127364e-002 4.74986434e-002
      1.00782931e-001 6.30560815e-002 9.99353528e-002</_>
    <_>
      4.88457978e-001 4.89309072e-001 4.89707410e-001 1.92128420e-002
      3.90978456e-002 1.52774453e-002 5.43067455e-002 1.18503928e-001
      3.08908820e-001 2.37779617e-002 5.12779355e-002 5.91175556e-002
      9.84019339e-002 8.21124017e-002 6.93597794e-002</_>
    <_>
      -5.11542022e-001 -5.10690928e-001 -5.10292590e-001
      -8.23816657e-003 -4.03943658e-003 -4.08828259e-004
      -4.51681018e-003 8.56876373e-004 3.43990326e-002 2.48551369e-004
      2.97546387e-004 4.21559811e-003 -1.32970616e-001 -1.13966033e-001
      -5.22088408e-002</_>
    <_>
      4.93034244e-001 4.92400944e-001 4.91638780e-001 -3.15743387e-002
      -2.34739482e-002 -1.17747158e-001 1.72399044e-001 1.02530837e-001
      2.19499767e-001 1.29941583e-001 9.47651863e-002 1.77042902e-001
      1.47699296e-001 1.80477470e-001 1.83977127e-001</_>
    <_>
      -5.12580156e-001 -5.13639212e-001 -5.11736035e-001
      -5.14040887e-002 -4.32036817e-002 -2.77614892e-002 3.78459096e-002
      -6.75317645e-003 -2.04400122e-002 -2.32409537e-002
      -1.92311704e-002 -1.53584182e-002 -4.85076159e-002
      -2.85860598e-002 -2.89679766e-002</_>
    <_>
      -5.12580156e-001 -5.13639212e-001 -5.11736035e-001
      -8.26683640e-003 -1.57527030e-002 -1.20752156e-002 1.82380676e-002
      3.24625373e-002 3.44619751e-002 1.98963284e-002 8.21983814e-003
      8.17102194e-003 -6.02723211e-002 -4.81939018e-002 -5.64189553e-002</_>
    <_>
      -5.12580156e-001 -5.13639212e-001 -5.11736035e-001
      -2.00315416e-002 -2.35958397e-002 -8.15364718e-003
      -4.84286249e-002 -6.16551340e-002 -4.00478542e-002 1.20531917e-002
      -1.92311704e-002 3.27885151e-004 -4.45860475e-002 -3.25076282e-002
      -3.68111134e-002</_>
    <_>
      -5.12580156e-001 -5.13639212e-001 -5.11736035e-001
      -4.23669815e-004 3.85516882e-003 7.53265619e-003 -9.21294093e-003
      -6.75317645e-003 3.08942795e-003 4.21005487e-003 4.29826975e-003
      8.17102194e-003 -1.19095847e-001 -7.56448805e-002 -6.42620921e-002</_>
    <_>
      -5.12580156e-001 -5.13639212e-001 -5.11736035e-001 7.01645613e-002
      1.95414424e-002 1.92973614e-002 6.47336245e-003 -2.63610184e-002
      -1.65184438e-002 -1.53978169e-002 -2.31527388e-002 3.27885151e-004
      -3.28213423e-002 -3.25076282e-002 -3.28895450e-002</_>
    <_>
      -5.12580156e-001 -5.13639212e-001 -5.11736035e-001
      -2.00315416e-002 -3.98799777e-003 3.61108780e-003 1.82380676e-002
      8.93312693e-003 7.01099634e-003 2.88486481e-004 3.76701355e-004
      3.27885151e-004 -6.81154579e-002 -6.38801754e-002 -6.42620921e-002</_>
    <_>
      -5.12580156e-001 -5.13639212e-001 -5.11736035e-001
      -4.23669815e-004 3.85516882e-003 1.92973614e-002 -1.36977434e-003
      -2.83160806e-003 -1.25968754e-002 2.88486481e-004 3.76701355e-004
      3.27885151e-004 -1.50468409e-001 -1.22703716e-001 -6.42620921e-002</_>
    <_>
      -5.12580156e-001 -5.13639212e-001 -5.11736035e-001
      -3.96393836e-002 -1.18311346e-002 -1.20752156e-002
      -9.21294093e-003 1.08999014e-003 -2.04400122e-002 -3.63311172e-003
      3.76701355e-004 4.24945354e-003 -6.41938895e-002 -8.74096006e-002
      -5.64189553e-002</_>
    <_>
      -5.12580156e-001 -5.13639212e-001 -5.11736035e-001
      -1.21884048e-002 -2.75174081e-002 -1.59967840e-002
      -5.23501933e-002 -6.16551340e-002 -8.67530704e-003
      -1.14762485e-002 3.76701355e-004 3.27885151e-004 -4.06644791e-002
      -3.64291966e-002 -8.77915025e-002</_>
    <_>
      4.94599402e-001 4.95053589e-001 4.95459557e-001 -2.43067741e-004
      -2.07424164e-005 -1.64866447e-004 -3.99470329e-004 5.26010990e-004
      -3.34799290e-004 4.65393066e-004 5.76257706e-004 4.47082520e-003
      2.32934892e-001 2.08311588e-001 1.88208669e-001</_>
    <_>
      4.94599402e-001 4.95053589e-001 4.95459557e-001 -2.43067741e-004
      7.82239437e-003 7.67827034e-003 2.31299400e-002 1.22907162e-002
      -3.34799290e-004 -3.45620513e-003 5.76257706e-004 -1.12154782e-002
      1.46660388e-001 1.57331198e-001 1.76443964e-001</_>
    <_>
      4.94599402e-001 4.95053589e-001 4.95459557e-001 -2.43067741e-004
      -2.07424164e-005 -1.64866447e-004 -3.99470329e-004 5.26010990e-004
      -3.34799290e-004 4.65393066e-004 5.76257706e-004 5.49256802e-004
      2.17248619e-001 2.27919459e-001 2.19581217e-001</_>
    <_>
      4.94599402e-001 4.95053589e-001 4.95459557e-001 -8.08623433e-003
      1.95870996e-002 5.47370911e-002 -1.60857737e-002 -3.39558721e-003
      3.10377479e-002 -1.12993419e-002 -7.26690888e-003 -1.12154782e-002
      1.11366272e-001 1.10272378e-001 1.64679259e-001</_>
    <_>
      4.94599402e-001 4.95053589e-001 4.95459557e-001 -2.43067741e-004
      -2.07424164e-005 -1.64866447e-004 -3.99470329e-004 5.26010990e-004
      -3.34799290e-004 4.65393066e-004 5.76257706e-004 5.49256802e-004
      2.32934892e-001 2.20076323e-001 2.19581217e-001</_>
    <_>
      4.94599402e-001 4.95053589e-001 4.95459557e-001 1.93647742e-002
      1.17439628e-002 3.75670195e-003 -8.24263692e-003 -7.00622499e-002
      -9.05309021e-002 -1.91424787e-002 -3.07963192e-002
      -3.08233202e-002 1.23130977e-001 1.29880220e-001 1.56836122e-001</_>
    <_>
      4.94599402e-001 4.95053589e-001 4.95459557e-001 -4.16466594e-003
      -3.94234061e-003 -4.08646464e-003 -3.99470329e-004
      -3.39558721e-003 -3.34799290e-004 4.65393066e-004 5.76257706e-004
      5.49256802e-004 2.32934892e-001 2.27919459e-001 2.35267490e-001</_>
    <_>
      -4.70106483e-001 -4.69652295e-001 -4.49638486e-001 3.11294794e-002
      1.56655312e-002 1.15998387e-002 3.52209806e-003 -3.39558721e-003
      -4.25639749e-003 4.65393066e-004 5.76257706e-004 5.49256802e-004
      -7.29474574e-002 -6.61982149e-002 -4.70854640e-002</_>
    <_>
      4.90639091e-001 4.89291966e-001 4.91876900e-001 -8.25747550e-002
      -5.09080589e-002 -9.81840193e-002 2.18712687e-001 1.26454294e-001
      2.46360540e-001 1.49356425e-001 8.66768360e-002 1.76885784e-001
      1.13534167e-001 1.42429173e-001 1.27194345e-001</_>
    <_>
      4.94173169e-001 4.94047940e-001 4.93159950e-001 -4.06172872e-003
      1.96938515e-002 -4.32058871e-002 2.32396722e-002 6.73720837e-002
      7.80300498e-002 5.72204590e-004 1.63236856e-002 -3.29098105e-003
      1.95749491e-001 1.73011988e-001 1.62254661e-001</_>
    <_>
      -4.86218989e-001 -4.86344218e-001 -5.06840050e-001
      -1.40130520e-004 8.60095024e-005 -3.99020314e-003 -2.89738178e-004
      7.05420971e-004 -4.32291627e-003 5.72204590e-004 -3.28418612e-003
      -3.29098105e-003 -8.66034478e-002 -8.18899721e-002
      -6.51963353e-002</_>
    <_>
      4.94173169e-001 4.94047940e-001 4.93159950e-001 -4.06172872e-003
      8.60095024e-005 -3.14411819e-002 1.48729861e-001 7.52152205e-002
      2.03520238e-001 1.14297688e-001 6.33825064e-002 1.45728648e-001
      1.64376944e-001 2.04384565e-001 2.13235050e-001</_>
    <_>
      4.90251601e-001 4.74440098e-001 4.93159950e-001 1.01820648e-001
      1.05968356e-001 9.01274681e-002 5.46122193e-002 3.20779681e-002
      5.84222078e-002 9.46898460e-002 1.22206032e-001 1.02591395e-001
      1.09474987e-001 1.22031599e-001 1.70097798e-001</_>
    <_>
      4.94173169e-001 4.94047940e-001 4.93159950e-001 -1.40130520e-004
      8.60095024e-005 -3.99020314e-003 -2.89738178e-004 7.05420971e-004
      -4.01318073e-004 5.72204590e-004 6.37412071e-004 6.30617142e-004
      3.05553436e-001 2.63208091e-001 2.24999756e-001</_>
    <_>
      4.94173169e-001 4.94047940e-001 4.93159950e-001 -1.40130520e-004
      8.60095024e-005 -2.35980451e-002 -2.89738178e-004 7.05420971e-004
      -4.01318073e-004 5.72204590e-004 6.37412071e-004 4.55218554e-003
      2.58494616e-001 2.16149271e-001 1.97548777e-001</_>
    <_>
      4.94173169e-001 4.94047940e-001 4.93159950e-001 -1.40130520e-004
      8.60095024e-005 -6.86049461e-005 -2.89738178e-004 7.05420971e-004
      -1.21660531e-002 5.72204590e-004 6.37412071e-004 -7.21254945e-003
      2.46729910e-001 2.27913976e-001 2.09313482e-001</_>
    <_>
      4.94173169e-001 4.94047940e-001 4.93159950e-001 7.70300627e-003
      1.96938515e-002 1.16961002e-002 -2.89738178e-004 7.05420971e-004
      -4.32291627e-003 5.72204590e-004 -3.28418612e-003 -3.29098105e-003
      2.11435765e-001 2.04384565e-001 2.40686029e-001</_>
    <_>
      4.94173169e-001 4.94047940e-001 4.93159950e-001 -1.40130520e-004
      8.60095024e-005 -6.86049461e-005 -2.89738178e-004 7.05420971e-004
      -4.01318073e-004 5.72204590e-004 6.37412071e-004 6.30617142e-004
      2.82024026e-001 2.59286523e-001 2.68137008e-001</_>
    <_>
      4.94173169e-001 4.94047940e-001 4.93159950e-001 3.78143787e-003
      4.00757790e-003 -6.86049461e-005 -3.55838835e-002 -8.16475451e-002
      -7.49111474e-002 4.49377298e-003 6.37412071e-004 4.55218554e-003
      1.72220081e-001 1.57325715e-001 2.05391914e-001</_>
    <_>
      4.94173169e-001 4.94047940e-001 4.93159950e-001 3.51539850e-002
      1.57722831e-002 -7.91177154e-003 8.99063349e-002 1.02666199e-001
      7.80300498e-002 8.41534138e-003 8.48054886e-003 4.55218554e-003
      1.40847534e-001 1.41639441e-001 2.01470345e-001</_>
    <_>
      4.94173169e-001 4.94047940e-001 4.93159950e-001 3.78143787e-003
      -6.65806830e-002 -5.88921607e-002 -2.89738178e-004 5.56073785e-002
      3.88143659e-002 5.72204590e-004 -4.24998701e-002 -3.07419598e-002
      2.78102458e-001 1.69090420e-001 2.17156619e-001</_>
    <_>
      4.90410268e-001 4.90765393e-001 4.90234494e-001 7.51030445e-003
      7.74359703e-003 1.92911625e-002 3.08281183e-002 2.02417374e-002
      -8.37472081e-003 -3.54024768e-003 4.36729193e-003 -7.41776824e-003
      8.54401886e-002 1.00228757e-001 8.07303786e-002</_>
    <_>
      -5.11628747e-001 -5.12653172e-001 -5.09641349e-001
      -8.16097856e-003 3.14160585e-002 1.55122876e-002 -6.47095740e-002
      -4.94947731e-002 -3.22541893e-002 -7.59521127e-003
      -3.53381038e-003 3.40998173e-004 -4.86676097e-002 -2.12996900e-002
      -3.21309268e-002</_>
    <_>
      -5.11628747e-001 -5.12653172e-001 -5.09641349e-001
      -2.38472521e-002 -1.95643604e-002 -1.97818577e-002 5.29375076e-002
      7.99170136e-002 6.97066188e-002 4.16952372e-003 4.30935621e-003
      4.26256657e-003 -4.08244729e-002 -2.91428268e-002 -2.42877901e-002</_>
    <_>
      4.68763411e-001 4.87346828e-001 4.90358651e-001 7.52532482e-003
      3.14160585e-002 -1.73985958e-004 4.05878663e-001 2.91681707e-001
      2.50098765e-001 6.29930496e-002 7.48975873e-002 4.73998189e-002
      5.72147518e-002 8.06610882e-002 1.05123997e-001</_>
    <_>
      -5.05768716e-001 -5.07216275e-001 -5.06214678e-001
      -1.19987428e-002 -7.82558322e-003 -8.02072883e-003 4.97882366e-002
      4.41877246e-002 3.04907560e-002 4.50074673e-004 4.67300415e-004
      -3.49071622e-003 -8.46578330e-002 -6.03123903e-002
      -6.44063056e-002</_>
    <_>
      -5.05768716e-001 -5.07216275e-001 -5.06214678e-001
      -5.90575635e-002 -4.31196988e-002 -3.15501392e-002 2.23372579e-002
      4.97204065e-003 1.87260509e-002 4.50074673e-004 -3.45429778e-003
      -7.41228461e-003 -8.46578330e-002 -6.03123903e-002
      -6.44063056e-002</_>
    <_>
      -5.11325300e-001 -5.12289762e-001 -5.13385832e-001
      -1.02288276e-001 -1.49040014e-001 -1.41534656e-001
      -2.10129917e-002 -2.17559040e-002 7.21808076e-002 -7.58096576e-003
      3.06010246e-004 -1.15559399e-002 -3.20897400e-002 -9.80833173e-003
      9.05132294e-003</_>
    <_>
      -5.11325300e-001 -5.12289762e-001 -5.13385832e-001
      -1.99353397e-002 -3.94198298e-003 -8.20133090e-003
      -3.66992652e-002 -2.95990407e-002 -7.68388212e-002 4.18376923e-003
      8.14914703e-003 4.13036346e-003 -4.38544452e-002 -2.15730369e-002
      -2.71338224e-003</_>
    <_>
      4.88674700e-001 4.87710238e-001 4.86614168e-001 7.41823316e-002
      5.48815727e-002 8.59163404e-002 1.20163500e-001 1.15499020e-001
      1.58455312e-001 2.62200832e-004 3.06010246e-004 -2.72422135e-002
      4.63416278e-002 6.47014678e-002 7.17964172e-002</_>
    <_>
      4.88674700e-001 4.87710238e-001 4.86614168e-001 1.60456836e-001
      1.68607056e-001 1.13367319e-001 6.13399744e-002 4.09892201e-002
      6.43376708e-002 -3.89535129e-002 -4.67528403e-002 -3.90069187e-002
      7.77141750e-002 7.64661729e-002 9.92473960e-002</_>
    <_>
      4.88674700e-001 4.87710238e-001 4.86614168e-001 1.87907815e-001
      1.72528625e-001 1.13367319e-001 1.43692911e-001 1.15499020e-001
      9.17886496e-002 2.37916112e-002 1.20707154e-002 1.58950686e-002
      7.37926066e-002 7.25446045e-002 9.53258276e-002</_>
    <_>
      4.89963830e-001 4.89895344e-001 4.91438687e-001 1.09551966e-001
      1.41196847e-001 -5.50678670e-002 -2.87426412e-002 1.28792524e-002
      2.93364346e-001 -3.89408171e-002 4.32109833e-003 1.45520210e-001
      2.50361294e-001 1.71506524e-001 1.35863900e-001</_>
    <_>
      4.89963830e-001 4.89895344e-001 4.91438687e-001 7.42578506e-002
      7.45301843e-002 4.68929410e-002 1.39884830e-001 1.30526304e-001
      1.01207495e-001 -2.32545435e-002 -1.52867734e-002 -2.31072605e-002
      8.95769894e-002 9.30751562e-002 1.16256058e-001</_>
    <_>
      4.89963830e-001 4.89895344e-001 4.91438687e-001 -2.77029574e-002
      -2.35090554e-002 -4.33031619e-002 3.40024829e-002 2.05036104e-001
      1.36501610e-001 -3.50192487e-002 -1.40776962e-001 -1.32911175e-001
      4.03302491e-001 3.08761448e-001 3.12334478e-001</_>
    <_>
      4.89963830e-001 4.89895344e-001 4.91438687e-001 1.54343247e-002
      -1.72528654e-001 -6.29110038e-002 -1.29163265e-003 3.50134134e-001
      3.16893756e-001 1.59611702e-002 7.09877610e-002 7.10104108e-002
      2.30753452e-001 1.40133977e-001 1.75079584e-001</_>
    <_>
      4.91617441e-001 4.91685867e-001 4.92389739e-001 7.42933154e-002
      7.45278001e-002 8.21990371e-002 1.04598045e-001 1.18932307e-001
      1.20020926e-001 2.00323462e-002 4.43029404e-003 2.00816989e-002
      1.15569711e-001 1.21724725e-001 1.28547609e-001</_>
    <_>
      -5.09667456e-001 -5.08647740e-001 -5.08634746e-001
      -2.03311443e-004 -2.34664381e-002 -8.00028443e-003
      -5.63531220e-002 -5.74971735e-002 -6.43742979e-002 4.08113003e-004
      -1.51343048e-002 -3.48177552e-003 -4.82366681e-002
      -4.28262651e-002 -3.73195410e-002</_>
    <_>
      4.90332544e-001 4.91352260e-001 4.91365254e-001 3.71825695e-003
      3.98457050e-003 -3.54512632e-002 9.26665068e-002 1.38581276e-001
      3.31704140e-001 2.78590918e-002 2.80029774e-002 -1.13249123e-002
      1.12547636e-001 1.10114902e-001 7.64059424e-002</_>
    <_>
      -5.09431601e-001 -5.09603679e-001 -5.09846151e-001
      -8.17373395e-003 -1.18086636e-002 -4.17742133e-003
      -5.55578768e-002 -6.19342029e-002 -4.76713479e-002
      -7.46467710e-003 -1.13332570e-002 -3.61618400e-003
      -4.11851704e-002 -3.55061889e-002 -3.40036750e-002</_>
    <_>
      -5.11542022e-001 -5.10690928e-001 -5.10292590e-001
      -3.17675769e-002 -2.75688469e-002 -3.57029736e-002
      -5.54971993e-002 -5.79666793e-002 -5.18755019e-002
      -1.15161836e-002 -7.54562020e-003 -1.14707053e-002
      -4.66961116e-002 -3.55346501e-002 -2.86794305e-002</_>
    <_>
      -5.06965756e-001 -5.07599056e-001 -5.08361220e-001 3.71980667e-003
      5.54919243e-005 -1.00076199e-004 -1.49965286e-004 5.70058823e-004
      -1.08063221e-004 5.29825687e-004 6.47544861e-004 5.72323799e-004
      -8.36732537e-002 -8.61892253e-002 -7.09248483e-002</_>
    <_>
      -5.06965756e-001 -5.07599056e-001 -5.08361220e-001
      -4.12335992e-003 -3.86610627e-003 -1.00076199e-004 3.77160311e-003
      4.49162722e-003 3.81350517e-003 5.29825687e-004 6.47544861e-004
      4.49389219e-003 -1.03281096e-001 -9.01107937e-002 -5.52385747e-002</_>
    <_>
      -5.06965756e-001 -5.07599056e-001 -5.08361220e-001
      -2.01761723e-004 -3.86610627e-003 3.82149220e-003 -7.99313188e-003
      -7.27310777e-003 -4.02966142e-003 4.45139408e-003 6.47544861e-004
      5.72323799e-004 -1.03281096e-001 -9.01107937e-002 -5.52385747e-002</_>
    <_>
      -5.06965756e-001 -5.07599056e-001 -4.96596515e-001
      -4.12335992e-003 5.54919243e-005 -1.00076199e-004 -1.19147003e-002
      -3.35153937e-003 -4.02966142e-003 -7.31334090e-003
      -3.27405334e-003 -3.34927440e-003 -1.26810506e-001
      -9.40323621e-002 -3.56307328e-002</_>
    <_>
      -5.06965756e-001 -5.07599056e-001 -5.08361220e-001 7.64137506e-003
      3.97706032e-003 3.82149220e-003 -1.49965286e-004 5.70058823e-004
      -1.08063221e-004 5.29825687e-004 6.47544861e-004 5.72323799e-004
      -1.03281096e-001 -9.01107937e-002 -5.91601431e-002</_>
    <_>
      -5.06965756e-001 -5.07599056e-001 -5.08361220e-001
      -2.01761723e-004 -3.86610627e-003 -4.02167439e-003
      -1.49965286e-004 5.70058823e-004 -1.08063221e-004 5.29825687e-004
      6.47544861e-004 -3.34927440e-003 -1.03281096e-001 -9.01107937e-002
      -5.91601431e-002</_>
    <_>
      -5.06965756e-001 -5.07599056e-001 -5.08361220e-001
      -2.01761723e-004 5.54919243e-005 -1.00076199e-004 7.69317150e-003
      8.41319561e-003 3.81350517e-003 5.29825687e-004 6.47544861e-004
      5.72323799e-004 -9.93595272e-002 -7.44245052e-002 -7.09248483e-002</_>
    <_>
      -5.06965756e-001 -5.07599056e-001 -5.04439652e-001
      -4.12335992e-003 5.54919243e-005 -1.00076199e-004 -4.07156348e-003
      -3.35153937e-003 -4.02966142e-003 5.29825687e-004 6.47544861e-004
      5.72323799e-004 -1.18967369e-001 -9.01107937e-002 -4.73954380e-002</_>
    <_>
      -5.06965756e-001 -5.07599056e-001 -5.04439652e-001
      -2.01761723e-004 3.97706032e-003 -1.00076199e-004 3.77160311e-003
      4.49162722e-003 -1.08063221e-004 5.29825687e-004 6.47544861e-004
      5.72323799e-004 -1.18967369e-001 -9.40323621e-002 -4.34738696e-002</_>
    <_>
      4.94599402e-001 4.95053589e-001 4.95459557e-001 7.42667317e-002
      8.62537622e-002 1.17482185e-001 3.09730768e-002 4.44757938e-003
      -3.34799290e-004 8.30852985e-003 1.23409629e-002 3.58433723e-002
      1.19209409e-001 1.22037083e-001 1.64679259e-001</_>
    <_>
      4.94599402e-001 4.95053589e-001 4.95459557e-001 5.85804582e-002
      9.01753306e-002 1.09639049e-001 3.52209806e-003 -7.31715560e-003
      3.49593163e-002 -3.45620513e-003 5.76257706e-004 -1.12154782e-002
      1.42738819e-001 1.45566493e-001 1.68600827e-001</_>
    <_>
      4.94599402e-001 4.95053589e-001 4.95459557e-001 3.67850065e-003
      3.90082598e-003 3.75670195e-003 -3.99470329e-004 5.26010990e-004
      -4.25639749e-003 4.65393066e-004 5.76257706e-004 5.49256802e-004
      2.09405482e-001 2.08311588e-001 2.07816511e-001</_>
    <_>
      4.94599402e-001 4.95053589e-001 4.95459557e-001 -2.43067741e-004
      -2.07424164e-005 -1.64866447e-004 -3.99470329e-004 5.26010990e-004
      -8.17796588e-003 4.65393066e-004 5.76257706e-004 5.49256802e-004
      2.25091755e-001 2.27919459e-001 2.15659648e-001</_>
    <_>
      4.94599402e-001 4.95053589e-001 4.95459557e-001 3.11294794e-002
      4.70380783e-002 -1.64866447e-004 -1.60857737e-002 -3.86897027e-002
      -1.60211027e-002 1.22300982e-002 2.01840997e-002 4.47082520e-003
      1.50581956e-001 1.45566493e-001 1.96051806e-001</_>
    <_>
      4.91307974e-001 4.91102874e-001 4.90500987e-001 -3.16830575e-002
      -1.57150924e-002 -5.12469113e-002 2.89473176e-001 2.36384034e-001
      3.04524660e-001 1.72976136e-001 1.76978409e-001 2.27869928e-001
      1.02571696e-001 1.20373100e-001 1.25123262e-001</_>
    <_>
      4.90639091e-001 4.89291966e-001 4.91876900e-001 1.25268400e-001
      1.49091959e-001 1.25345409e-001 2.26342678e-002 3.23366523e-002
      1.89095736e-002 2.38662362e-002 2.00101733e-002 2.00230479e-002
      8.21616203e-002 7.18409419e-002 1.03664935e-001</_>
    <_>
      4.90639091e-001 4.89291966e-001 4.91876900e-001 -2.21788883e-004
      7.23600388e-005 -1.44779682e-004 -8.95142555e-004 9.64105129e-004
      8.55762362e-002 3.36825848e-004 4.02331352e-004 -1.13495290e-002
      3.37063611e-001 3.03213507e-001 2.17390418e-001</_>
    <_>
      4.90639091e-001 4.89291966e-001 4.91876900e-001 -8.06495547e-003
      -1.95355117e-002 -4.06637788e-003 6.96930885e-002 9.50817466e-002
      7.14486837e-003 -1.53494775e-002 -4.27349508e-002 -6.23299181e-002
      1.76279262e-001 1.50272310e-001 1.38959050e-001</_>
    <_>
      4.90639091e-001 4.89291966e-001 4.91876900e-001 7.82095790e-002
      1.29484117e-001 5.47571778e-002 8.14577937e-002 1.89199388e-001
      6.98899627e-002 4.25839424e-003 1.60886049e-002 1.21799111e-002
      1.44906715e-001 1.11056626e-001 1.58566892e-001</_>
    <_>
      4.94173169e-001 4.94047940e-001 4.93159950e-001 3.78143787e-003
      1.18507147e-002 3.85296345e-003 -5.51917255e-002 -6.59612715e-002
      -7.88327157e-002 4.49377298e-003 4.55898046e-003 6.30617142e-004
      1.44769102e-001 1.45561010e-001 1.89705640e-001</_>
    <_>
      4.89184260e-001 4.89974260e-001 4.92174923e-001 -8.26463401e-002
      -6.27388656e-002 -9.03492868e-002 1.99726045e-001 1.65321469e-001
      1.88075602e-001 1.53330088e-001 1.41625941e-001 1.57346725e-001
      1.15200609e-001 1.33545488e-001 1.42726421e-001</_>
    <_>
      4.94621575e-001 4.94924963e-001 4.94903147e-001 -1.97802484e-002
      -1.17013156e-002 -8.63334239e-002 9.77451801e-002 7.89690614e-002
      1.29186153e-001 2.41761804e-002 3.21190357e-002 3.59919667e-002
      1.62598759e-001 1.74780339e-001 1.70097172e-001</_>
    <_>
      4.94621575e-001 4.94924963e-001 4.94903147e-001 -1.72376633e-004
      6.34193420e-005 -5.88893890e-005 -2.94029713e-004 5.37693501e-004
      -2.25603580e-004 6.46770000e-004 7.46488571e-004 6.97851181e-004
      2.41030157e-001 2.10074455e-001 1.89705014e-001</_>
    <_>
      4.94621575e-001 4.94924963e-001 4.94903147e-001 -1.72376633e-004
      6.34193420e-005 -5.88893890e-005 -2.94029713e-004 5.37693501e-004
      -2.25603580e-004 6.46770000e-004 7.46488571e-004 6.97851181e-004
      2.29265451e-001 2.21839160e-001 1.93626583e-001</_>
    <_>
      4.94621575e-001 4.94924963e-001 4.94903147e-001 -1.72376633e-004
      6.34193420e-005 -5.88893890e-005 -2.94029713e-004 5.37693501e-004
      -2.25603580e-004 6.46770000e-004 7.46488571e-004 6.97851181e-004
      2.44951725e-001 2.21839160e-001 1.97548151e-001</_>
    <_>
      4.91319478e-001 4.91485178e-001 4.93587494e-001 1.53752565e-002
      3.92009020e-002 -4.08247113e-003 1.25067770e-001 1.41949594e-001
      8.97477269e-002 -3.55538726e-003 -3.40703130e-003 -1.90896094e-002
      1.41559809e-001 1.31559879e-001 1.68701053e-001</_></support_vectors>
  <decision_functions>
    <_>
      <sv_count>142</sv_count>
      <rho>-5.6756360777710113e-001</rho>
      <alpha>
        1.1837814503827890e+000 2.4165257022827999e+000
        2.4120382374284834e+000 2.4112222309844329e+000
        3.3877812664343665e-001 2.4374999105930328e+000
        2.4374999105930328e+000 2.4374999105930328e+000
        2.4374999105930328e+000 2.4374999105930328e+000
        2.4374999105930328e+000 2.4252115407906616e+000
        2.4084615206520890e+000 3.1250044703483582e-001
        2.3809648768373162e+000 2.4374999105930328e+000
        2.4374999105930328e+000 2.4374999105930328e+000
        2.4262279300756604e+000 5.5745169193974320e-001
        2.4374999105930328e+000 2.4374999105930328e+000
        2.4374999105930328e+000 2.4374999105930328e+000
        2.4374999105930328e+000 2.4374999105930328e+000
        2.4108107288037450e+000 2.4291124205198611e+000
        2.4374999105930328e+000 2.4374999105930328e+000
        2.4082216344494856e+000 2.4374999105930328e+000
        2.4374999105930328e+000 2.4374999105930328e+000
        2.4029317763268629e+000 2.4374999105930328e+000
        2.4374999105930328e+000 2.4374999105930328e+000
        2.4374999105930328e+000 2.4277839171450366e+000
        2.4374999105930328e+000 2.4371673851850897e+000
        4.0658551899540640e-001 2.4374999105930328e+000
        2.4374999105930328e+000 2.4374999105930328e+000
        2.4324985263068655e+000 2.4327597084804564e+000
        2.4374999105930328e+000 3.4757711889729492e-001
        2.0199038339971258e+000 2.3690297176021189e+000
        2.4374999105930328e+000 2.4374999105930328e+000
        2.4068008519967874e+000 3.6345860448023082e-001
        2.4374999105930328e+000 2.1376926916606709e+000
        2.3605442043893325e+000 2.4374999105930328e+000
        2.1169462477455374e+000 2.4269133104898817e+000
        2.4314609865210599e+000 2.4202357882011265e+000
        2.4374999105930328e+000 2.4374999105930328e+000
        2.4374999105930328e+000 2.4374999105930328e+000
        2.4344328879054977e+000 2.4374999105930328e+000
        2.4374999105930328e+000 2.4374999105930328e+000
        2.4374999105930328e+000 2.4008705738008227e+000
        2.4374999105930328e+000 2.4374999105930328e+000
        2.3588120966113086e+000 2.4374999105930328e+000
        2.4374999105930328e+000 2.4374999105930328e+000
        2.4374999105930328e+000 2.4374999105930328e+000
        1.8729009824721536e+000 2.4226603357559755e+000
        2.3988911029996625e+000 2.1925486656881255e+000
        2.4167436284247636e+000 2.4374999105930328e+000
        2.3651915532608792e+000 2.4374999105930328e+000
        2.4374999105930328e+000 2.4374999105930328e+000
        6.8077785895811083e-001 2.4374999105930328e+000
        2.0212019421042076e+000 1.7460171716721662e+000
        -1.1837814503827890e+000 -3.7672191137763740e+000
        -2.4374999105930328e+000 -4.8457215450425188e+000
        -2.4374999105930328e+000 -4.8699984368998983e+000
        -7.3124997317790985e+000 -6.9589216942985326e+000
        -2.4374999105930328e+000 -2.4374999105930328e+000
        -4.8749998211860657e+000 -4.7818354506381393e+000
        -2.4374999105930328e+000 -3.8928048164692797e+000
        -2.4344328879054977e+000 -2.4374999105930328e+000
        -1.0062500089406967e+001 -7.3124997317790985e+000
        -2.4188119710857912e+000 -1.0062500089406967e+001
        -7.2175289638731162e+000 -2.4374999105930328e+000
        -9.7110583093708183e+000 -2.4247444745763471e+000
        -1.0062500089406967e+001 -1.0062500089406967e+001
        -2.3651915532608792e+000 -9.7070210708115319e+000
        -2.4374999105930328e+000 -2.4374999105930328e+000
        -2.4374999105930328e+000 -2.4262279300756604e+000
        -1.0062500089406967e+001 -2.4374999105930328e+000
        -2.4029317763268629e+000 -2.4374999105930328e+000
        -1.0062500089406967e+001 -2.4374999105930328e+000
        -2.4374999105930328e+000 -2.4374999105930328e+000
        -2.4374999105930328e+000 -2.4374999105930328e+000
        -7.3019131316759474e+000 -2.4374999105930328e+000
        -1.0062500089406967e+001 -2.4374999105930328e+000</alpha>
      <index>
        0 1 2 3 4 5 6 7 8 9 10 11 12 13 14 15 16 17 18 19 20 21 22 23 24
        25 26 27 28 29 30 31 32 33 34 35 36 37 38 39 40 41 42 43 44 45
        46 47 48 49 50 51 52 53 54 55 56 57 58 59 60 61 62 63 64 65 66
        67 68 69 70 71 72 73 74 75 76 77 78 79 80 81 82 83 84 85 86 87
        88 89 90 91 92 93 94 95 96 97 98 99 100 101 102 103 104 105 106
        107 108 109 110 111 112 113 114 115 116 117 118 119 120 121 122
        123 124 125 126 127 128 129 130 131 132 133 134 135 136 137 138
        139 140 141</index></_></decision_functions></my_svm>
</opencv_storage>
